4.026620763386460355e-01,-1.425785422510598803e-02,9.051111635561066571e-01,-2.241619059209730425e-01,-3.470628553536140859e-01,7.595945598571895996e-01,-1.496959590626194991e+00,-1.477686701998022434e+00,-1.031136299012584967e+00,-2.474842308954786907e-01,3.699221866640053369e-01,7.562551134818555620e-02,1.773370080678849492e+00,6.504798546858953090e-01,-2.291000435777205135e-01,-3.066910922339911583e-01,9.817506152928720531e-02,-2.863989995810651279e-01,6.646083897077507130e-01,4.741434742900400012e-01,-3.438798309577856260e-01,6.136821542905118720e-01,-5.497746687038846530e-02,-2.196038144314491625e+00,-2.486484208130799178e+00,-8.101594540754065987e-02,-1.060858586902802436e+00,1.275626535260205967e-02,4.050517433868626727e-01,1.040112747365298906e+00,1.412019707719862849e+00,1.970933013321464200e-01,2.213538624622847506e-01,6.900961680995187919e-03,4.009389049965723095e-01,6.399192005591095578e-01,6.393443839373911253e-01,-8.890994779510453805e-01,1.004703582292555852e+00,5.659193104188641188e-01,-1.743994651811817009e+00,-2.166928566393478750e+00,-1.209731501164576839e+00,-3.338441876157987598e-01,-5.182658191779333512e-01,-7.700200736794575729e-01,-2.888078385559189054e-01,-2.364390401449336376e-01,-1.191616786253849557e-02,-5.798710866088677661e-03,2.581206907023256836e-01,4.291354017146781219e-01,9.187635242091592991e-01,4.825714370259244768e-01,1.250792365338259937e-01,-1.473267013006302473e-01,-1.907077079936412289e-01,-8.675256101886543725e-01,-1.731092069223390872e+00,-4.647177344108238128e-01,9.342778199671626649e-02,3.038938570633116232e-01,2.005184806365569172e-01,9.377115815331706905e-01,-1.508676493678949571e-01,-1.282954354351608095e-01,2.989145008395008296e-01,2.239140486870531965e-02,4.250228558604915996e-01,9.295817584324758132e-01,7.078093717825126308e-02,-7.859392438346440857e-01,-1.136974730673549372e+00,-1.099708418100431073e+00,-7.029195262464165150e-01,-1.337415892779533655e+00,-5.271207434337161768e-01,-1.318439785364280858e+00,-8.044390305531592400e-01,-9.317216237085769182e-01,-5.168947681011040185e-01,-1.735878851097037712e-01,2.542000768366205893e-02,-7.131122103197776174e-02,5.596755445453421851e-02,8.791953454711347593e-01,1.026046695310948997e-01,1.259878602435964057e+00,6.783937753950164407e-01,8.963423281759173022e-01,4.241749553836302034e-01,1.596350596747483586e+00,2.331610839125506096e-01,-5.839889919132001950e-01,-4.862245996096577483e-01,-3.519955719849711118e-01,-2.414653885123142218e-01,-2.526259004243340267e-01,-5.031308540492455128e-01,2.616112088678259045e-03,-1.755138599569832092e-01,1.847831800622164178e-02,1.482790015466143585e-01,-4.345834863792964464e-01,9.878571071970203565e-01,4.631917728876004947e-01,1.337698278404058971e+00,1.214573799954798083e+00,-4.340233531275620726e-01,-6.165339016908191194e-01,-5.505774676142580204e-02,5.019282013001543641e-01,2.542194939740446968e-01,1.552324117199382070e-01,3.703297147540257628e-02,1.168265262716052105e-01,5.378994518349745624e-01,9.497921881256070342e-02,-3.309893148375848970e-02,-2.427852731115923840e-02,-3.394315436941330866e-01,2.066061726454877512e-01,4.235043556352966615e-02,2.754891845433826147e-01,-6.908022686193655559e-01,-1.030564854018462873e+00,2.202064748467467969e-01,8.123333240792959264e-01,6.113579598461872378e-01,5.553886320951008093e-01,3.222845693636497977e-01,5.051221344356423559e-01,3.728601738862704074e-01,2.764301320071937615e-02,3.623205419122640936e-01,-1.025842204396342112e-02,-6.668328006973135436e-01,-1.689380530153588689e+00,-1.069764815920674295e+00,6.191535347855101762e-02,-1.386246652064691887e+00,3.715893332039868491e-01,-9.945607839357114566e-01,-1.453441752441086532e+00,-4.791009164047410618e-01,4.109194487121875516e-01,1.304868325428224299e-02,-2.261932071610055772e-01,-2.703574507147014638e-01,9.613098221095592311e-02,1.215491512399435176e-01,2.664548170811708583e-01,-1.772075297911876457e-02,-3.990351199452320530e-01,-6.868233786150698128e-01,-1.071905360094580706e+00,-1.977136534918000066e-01,-1.177080342705134175e+00,9.122897426832273782e-01,6.873438232026521932e-01,-4.522336121970452760e-01,8.696850465563609189e-01,3.986803918832297344e-01,-7.902862206157655889e-01,-2.455893381990109370e-01,-9.520468262689564531e-02,3.975919261320751685e-01,9.535073177829282709e-02,2.753792003778188779e-01,-3.189072491311124163e-02,-3.916012816059842860e-01,-4.996537769313275090e-02,-4.575701546853247481e-01,1.122671506474732128e+00,-3.996131963811392351e-01,6.996896353793503609e-01,6.968295001729998273e-01,-5.674353633768972616e-01,6.119327833497614777e-02,-9.560597212443983084e-01,-1.012743456275303489e+00,-3.595410583975202079e-01,-4.402253472163022430e-01,-3.037756356634062072e-01,2.937168850029855394e-01,4.157319042932426933e-01,-5.768105554839780130e-02,4.437028960321662274e-01,-8.808031013941407250e-02,8.003601479265853857e-01,1.453134478743156321e-01,3.559374285859164266e-01,1.184291620521013666e+00,6.108899437430689305e-01,-7.682311998466954117e-01,1.503373856914920204e+00,-3.769639302494529054e-01,-1.094847407089003834e-02,3.986495674074879147e-01,-8.350748945478657648e-01,-3.251242014298355021e-01,3.961873625019995404e-01,3.294178314987584177e-01,1.311811046509114842e-01,-6.299442950549118958e-01,4.073234565293511467e-01,1.200805191360844182e+00,6.182750397740106596e-01,2.806834779553185055e-01,1.369392655542140291e+00,8.533713804336924558e-02,-1.275043199745333200e-01,3.756455792528982651e-01,7.275250749235311343e-01,-1.443899861156389963e-01,-4.761049570731610281e-01,-9.239401338326106439e-01,-2.612150182433475853e-01,5.807568918808890812e-01,4.094771479583843021e-01,-7.149575123069179527e-02,5.513148115662581672e-01,3.318904069205965146e-01,1.162694093571596810e+00,1.291382017453114872e-01,2.404224044221758561e-01,3.125355928581489140e-01,1.303575287507493519e-01,-2.148595404098625483e-01,5.968879843695312770e-01,-8.539279875346880155e-01,-9.483951035450737255e-01,-7.775033711321586161e-01,-2.839202117940111195e-02,-1.469558104522710740e-01,2.776152906897454142e-02,-1.043111113890246924e-02,1.897712841689092322e-01,2.083578681471606187e-01,5.145632489810437332e-02,5.798865221145349524e-01,-1.493139697874885929e-02,-1.469518271192146730e-01,-9.744590376119158237e-02,-1.545801321315325438e-01,-2.317064612852847982e-01,-1.137542619755264467e-01,-2.541674340357749640e-01,-9.688489443980415061e-02,-3.875437328316459762e-02,-1.094284963249558401e-01,-5.410182763841547837e-02,-7.354765038482123651e-02,1.905939108326000497e-02,-1.955648542279925586e-02,-1.255914209117960957e-02,1.051249462669976570e-01,2.174614379184874532e-02,-2.821893471833748779e-02,7.004998122579776665e-02,-2.170226559825170695e-02,-2.827863319767061692e-02,2.063567567452093479e-02,4.287382372506576278e-02,-8.090056037938744143e-03,9.818486397391538046e-05,-4.368805957086534242e-02,3.342854429702964841e-02,-7.184966662250449887e-02,4.006835329305298565e-02,4.383384542975123782e-02,3.285169459136203646e-02,4.004656310508201977e-02,2.299643655879423515e-02,-1.613117432959507505e-02,1.079807221700039392e-02,5.880767716784127824e-02,-7.693710233705906842e-02,-6.423347460188731130e-03,9.468734728923937360e-02,-1.830458114646008700e-03,5.218073704090154391e-03,1.140905042908817446e-01,9.527847355921490943e-03,-1.062328257526501396e-01,-4.436909858313711763e-02,-2.814984494847082644e-02,4.435349515244018520e-02,-4.622722394066013790e-02
-3.376591319468187358e-01,-6.817525154724606018e-02,7.794618805295618902e-01,2.452367178097659417e-01,-2.577081614614733507e-01,1.027031533670453266e-02,-1.142811418842347992e-01,9.449038975064473489e-02,-3.091488646725399914e-01,2.199445411501910197e-01,6.364326913262905450e-01,-5.502832647556449297e-01,-4.977822058183568599e-01,-7.751145652938271624e-01,-4.483849679821872991e-01,1.860210745417962552e-01,6.664746902205376244e-02,5.685828008483158058e-01,5.429250792462277098e-02,4.797217364693927011e-01,5.004472659354439190e-02,5.946989671598062327e-02,-1.418027616169733052e-01,1.691917819109726162e-01,1.002313563256471834e-01,-1.758700215059054994e-01,-7.789942461297845178e-01,2.718937875531070303e-02,-2.248712974690022792e-01,-4.675255634608050936e-01,-4.891863539312975573e-01,-3.893606326606299795e-01,-3.878622073634641065e-02,-1.153327192163429021e-01,7.356419409182584079e-01,5.951235109004641144e-01,8.052515410067492274e-01,7.391276232362548049e-01,4.076527701060354142e-02,4.432907967977389729e-01,2.874630916027355876e-01,-1.989262177475817905e-01,1.275977646444012223e-02,1.380870728067578324e-01,2.676979322232697078e-01,2.563324160714497424e-01,4.134965534568106338e-01,-6.185880984753461959e-02,3.286136610211359832e-01,1.674990626803876947e-01,1.127647957648904159e-01,5.305443104946914179e-01,4.888082385999262258e-01,3.896373692444243808e-01,-2.373198623649823980e-01,-8.764940632546727173e-01,-5.027145208274588217e-01,-5.108243288604429333e-01,-3.100945274058533041e-01,-3.895260431642686427e-01,1.365138164188000880e-01,-8.150530099247427218e-02,1.033236022980076885e-01,2.182250416418849426e-01,-1.066246438221318676e-01,3.362684390915698374e-01,2.015943425850895143e-01,-1.911083356509667847e-02,6.042677510542763253e-01,6.292321052297463746e-01,3.966933895883917316e-01,3.089676325126530232e-01,-6.213219825643010591e-02,-1.172658056530441115e-04,4.244028182937389926e-02,-2.034497249313992895e-01,-3.607010496818538470e-01,3.974533147464767713e-01,-1.767556048848465677e-01,-2.745907691950953966e-01,4.233009333184597489e-01,1.759204205194519477e-01,3.858184856527479001e-01,2.553077106821679543e-01,-1.389306308200861095e-01,-2.223360381792139351e-01,-2.201891086135664977e-01,-3.283796889398061247e-01,-2.174282820011162465e-01,5.642942068668669320e-01,4.497850380350151833e-01,-4.310422250367569874e-01,-8.574776138045320240e-01,-9.069803155695338459e-01,-8.154148513050067937e-01,-5.046551112274304529e-01,-4.944565576464152734e-01,-1.921420688213936745e-01,-4.698003693713941886e-01,-1.964788486463291683e-01,1.867947748141799147e-01,-8.269727670750261217e-02,-2.523267832664070065e-01,-7.196696729501479428e-01,-1.130979162452885323e-01,3.766302620967427739e-01,5.244063886015000175e-01,5.425091124214587168e-01,-1.796914406218632354e-01,4.322973210865932447e-01,-4.124376009690668421e-01,-2.922791840258666674e-01,-9.347498304177975781e-02,-5.588782482282270703e-01,-4.462609807254955263e-01,-8.057894184955149974e-02,1.847472457643354327e-01,1.106611398243219635e-01,4.931339996123729891e-02,-5.122613596138296810e-01,-4.414485028757931251e-01,7.912419202930262574e-02,7.800601333147717531e-01,6.691819344744227571e-01,5.491943560301008054e-01,-1.280319349041769417e-01,-8.560554437875792511e-01,-3.863169429579732528e-01,1.442853958739555298e-02,-5.806711455875833705e-01,-4.010344990695795531e-01,1.316657606507618261e-01,4.733415181690141527e-01,2.878282389129347418e-01,1.914727743087613065e-01,-2.709382844496293144e-02,1.460610087661256828e-01,3.989122574738244165e-01,9.342856037962873339e-01,2.897757036893514604e-01,-7.914648972662646775e-02,1.202521394278233124e-01,-2.862822063609020140e-01,4.559721909660034989e-01,-6.819144384816510085e-01,9.548423351056546660e-02,-3.851243818520813655e-02,-2.037246191883969049e-01,-1.863445483926689794e-01,1.044129932184243159e-01,-2.002343954850323293e-01,2.814815063826815456e-01,-4.175415318982769047e-02,6.544545441001671515e-02,7.443468359000113832e-01,3.241883583021639148e-01,1.379249359441367673e-01,2.639898632614724461e-01,8.874985528520608069e-01,2.088840648732130656e-01,8.510952821540233026e-01,1.421032341028284629e-01,3.455636330253192279e-01,3.582139111385410080e-01,-3.112842329319338019e-01,-3.968680446981522891e-01,-1.805566041320487980e-01,1.716297996373910839e-01,1.780651376870418523e-01,5.138107732011854695e-02,8.289187069183946710e-02,4.123035955196647784e-01,2.828547879382248623e-02,5.706651983830663966e-01,4.031373710830852830e-01,-5.902936197756945003e-01,-7.219241725404553778e-01,-6.911412801836276376e-01,6.213549592382036080e-01,3.331520535631324886e-01,-1.902073583241464458e-02,-2.427805029755561173e-01,-9.744337611287093304e-02,-4.314316301464395376e-01,1.860265641934538416e-01,-1.438029324341539017e-01,6.307186876727201297e-02,3.766770706577003691e-02,-1.289286420217509999e-01,3.942532847426996612e-01,1.913037426388602968e-01,2.933612499365890747e-01,4.838720784838851374e-01,-2.010566956303952713e-01,2.482347533253833061e-01,-6.245285280223491359e-02,1.276018092444780594e-01,-6.336456487178345753e-01,8.348660386978569437e-02,-4.109915606567912660e-01,-2.541243568111084886e-02,1.977042102948040614e-01,-1.501511466678872864e-01,-4.536511210048455728e-02,1.517425575415685679e-01,4.469437472387483568e-01,3.940275553392934560e-01,6.814524843548050992e-01,1.268916650401985258e-01,1.388700075388753508e-01,2.480132101695002866e-01,2.832631020325073190e-01,-3.916169766585085310e-01,1.995626683004332325e-01,-5.366472025534237966e-01,-2.054374509846741415e-01,-1.825428157555904207e-01,-5.056214693974826480e-01,-1.384715711768249036e-01,-4.310301206118629519e-02,-1.708375395285954834e-01,-5.046273831098369023e-01,-5.501578711428787294e-01,-3.413368844962518245e-01,2.162495118428152674e-01,-9.028897191742843442e-02,3.999719005801684601e-01,3.523887632586792384e-01,-5.802835692809885960e-03,-3.852516651496447619e-01,-3.323174877476593458e-01,6.835523405099702687e-02,2.031434681976434370e-02,-1.952070780864410549e-01,-1.792888738462141418e-01,6.979300742172618588e-02,6.754900727315081566e-02,5.647079838898448612e-02,-7.065794111514530629e-01,-8.130586988837371631e-01,-9.361258378211533282e-01,-3.596433468707284087e-01,-2.799911776848669764e-01,-8.431372859917420082e-02,-3.811409698957551970e-03,-2.486263919927492461e-01,6.265598844061963379e-02,2.971465895093778828e-02,2.189969608128522760e-01,2.429734575338694247e-01,2.459299591932208040e-01,-2.751539388576012407e-02,2.371586300818513959e-01,-6.457975819854790134e-02,3.855030889495638345e-03,1.001250392844309639e-01,-3.854034964388108539e-03,-3.704734326497940988e-02,-5.830410430206989236e-02,3.697785064837495056e-02,3.770179718806506569e-02,1.359793824151272479e-01,1.154056209645061143e-01,2.118436287431811615e-01,4.305662676214122020e-01,3.099771453057315607e-01,3.010020338323719513e-01,4.244376795476537678e-01,2.768069889144322837e-01,1.522715339575975990e-01,-8.067662944455740448e-02,-6.568948705291066670e-02,2.217665293726630779e-02,-3.396832086532880490e-02,2.946824132234451832e-02,-1.256811999733005170e-01,-5.341583912153772401e-02,-8.043441512075961974e-02,6.504916279403662183e-02,2.509713786101219063e-02,4.177354422231038117e-02,7.273958198687487109e-02,1.046573662130106386e-01,8.910696656496986182e-03,-4.049682503610053941e-02,-3.543845373866418708e-02,-3.691103520495184892e-02,8.745424728211252663e-02,-1.680002595948753446e-04
-6.738443278992515273e-01,-5.787418772705712477e-01,-1.943554633272967624e+00,-2.413666871855992824e+00,-6.990262136403744275e-01,-3.939488452578701061e-01,-8.095190049197092952e-01,-7.359439755363206270e-01,-7.651657274798369102e-01,-1.205053138102863824e-01,7.476476985454988573e-03,5.261823662003421997e-01,-3.622020736005229780e-01,1.147707679696759603e-01,9.585743980189112556e-02,4.087740078053459652e-02,8.854349215450384170e-03,-5.200084169567972259e-01,-8.366590745600455126e-01,-1.267440180547768858e+00,-1.734561760809075093e+00,-1.433174056918234296e+00,-2.744637060818215790e-01,4.940847355533529647e-03,-2.789639581345585984e-01,-2.244374356629499911e-01,1.053992478941818023e+00,6.518850567562094467e-01,-1.119578975611600601e-02,-5.906321955080338082e-01,-9.470121507111028958e-02,-4.543795888083372314e-01,-2.821797038748808384e-01,-1.851730937940813393e-01,-1.431376200861534720e+00,-1.458087832029043796e+00,1.316981439232891016e-01,5.972101469912645122e-01,1.650735572899969528e-01,-4.815135203955233645e-01,-4.083997532432975808e-01,-1.163394027615574228e-01,4.123839244362866308e-01,2.850883101985356993e-01,-5.135573562231739997e-01,3.177366048953608746e-01,5.868130437016542272e-02,-6.705453898121245260e-01,-3.736472907418293965e-01,-4.662609935677261563e-01,-8.804540133505792121e-02,-7.833597548045995174e-01,1.491747036593033537e-01,-2.062621971885712086e-02,1.073957101642892820e+00,6.001252030178920727e-01,5.988582232191372867e-01,1.970079761915321526e-01,-5.217652815939539668e-01,-1.279552234375056941e+00,-9.209381802721663401e-01,-1.136019542225111811e+00,-1.097330332291597266e+00,-1.086044416604958984e+00,-1.599972668423253364e+00,-5.035324278147125243e-01,2.639999307549189059e-02,-6.464295185785972654e-03,7.385529716772789577e-01,3.154164083617820857e-01,-2.172391405636693584e-01,9.540840267702412891e-01,4.941736539308935194e-01,1.495725417691062376e+00,4.086565979569101170e-01,3.996311278724539728e-01,-5.287410340542934017e-01,-1.505870796802288636e+00,2.944582801861336807e-02,-1.155769005972159480e+00,-4.953261966289304596e-01,-1.159758051462856265e+00,-3.486929533874493781e-01,1.726568436330685186e-01,5.083712646727231443e-03,1.025164145205109234e+00,1.318149555374785287e+00,-6.709930980495714126e-01,-6.468230020753720222e-01,2.610874885206171392e-01,1.204092608380556095e+00,3.360955829834000319e-01,2.837680230743891419e-01,1.132220526480349987e+00,3.284181635465755478e-01,7.471299939252074029e-01,3.030121589884582356e-01,6.148074406235402856e-02,3.844321554789870143e-01,1.895309223559959455e-01,1.511052465859566429e-01,1.819487311579366384e-01,1.918820528059652197e+00,3.599583907058570564e-01,-5.772260522520438197e-01,-3.089470735819892511e-01,-1.146235604207262782e+00,-5.070450699168601583e-01,1.471498943443550145e+00,-1.074770747448340114e+00,2.487638237407108766e-01,-4.935844868573766031e-01,-4.958847630302559012e-02,3.718854432908952901e-01,2.147495763482652753e-01,-1.848634388602140854e-01,4.774844021310444830e-01,8.052641867869247960e-02,-2.247488632734150338e-01,9.368788210601305400e-01,1.480990174716273700e+00,2.530726297120080431e-02,-1.108134641099385975e+00,-7.497189929095837702e-01,-1.258238766828715383e+00,3.059480207293232001e-01,-3.685380447363023060e-01,7.515094018684367327e-01,3.506232404717462559e-01,9.193391654902809407e-01,9.742705658532322399e-01,1.513873374767773283e+00,3.043453391542604303e-01,1.237838551472535853e+00,3.130840290719806296e-01,-2.635519936631686155e-02,9.619844514854848372e-01,9.326373158347297521e-01,2.088561357329703050e+00,9.826708535669054223e-01,1.005746235576997272e+00,3.056933624603843658e-01,2.721726299896156179e-02,2.560099881020483914e-01,1.290880596929211199e+00,7.814379110155322827e-01,1.261296694431486509e+00,1.054344769782930569e-01,1.211901444432709418e+00,3.895913479947116231e-01,1.234568652746748985e+00,3.010899498136560548e-01,-2.326384740776760163e-02,1.054546598830940152e+00,5.342597016280675737e-01,1.052296592503183303e+00,3.062649439874922108e-01,3.742432002008151959e-01,1.811038820783905878e+00,2.049643768659209775e-01,-4.701190611434058475e-02,1.883648789893799247e-01,1.251760281911198092e-01,5.757998538975040992e-01,9.304465811198150971e-02,5.549023479445973628e-01,1.376804220015239999e-01,2.404521490145375417e-01,2.517675511648753139e-01,-4.251805031546587038e-02,-3.635314625852478221e-01,5.955348035029947029e-01,9.434336773244538232e-01,9.351573241306267159e-02,-1.704397898446907977e-01,-1.866039034658410756e-01,-5.918643920178197071e-01,-8.782017771812931084e-01,-9.460109464430087600e-01,2.342451558833310021e-01,1.222683121241555787e-01,7.043203287937143120e-01,1.306063653691073578e-01,1.657474577309081543e-01,6.857443030221915814e-02,-2.530237288851615654e-02,7.042145248353996745e-02,-5.245575512658391393e-01,-7.873085022706619585e-01,1.765218697152090011e-01,-4.420378040042677870e-01,-3.280050133310069560e-01,-3.738066592535772004e-01,2.714993525340894109e-01,4.049357123691479377e-01,-9.440988692806604465e-01,-8.288155982629553664e-01,-1.937130905898056255e-01,-8.084126113710822514e-02,-1.300005441968575814e-01,-1.754636452629613763e-01,6.022530325455626755e-03,3.923782974949766578e-01,-3.219756137484034580e-02,-8.419624906742464443e-01,-8.893478207036782379e-01,-7.520238917125091627e-01,-1.963642563916705441e-01,5.918455580077505544e-03,-1.801652645816536613e-01,-7.717694616691546106e-01,-7.949277653022337464e-01,-6.333910380917927574e-01,-1.050005665560944101e-01,-3.973475483430207178e-01,2.137555716023595009e-01,-1.858224871734265871e-01,-8.545491043329545011e-01,1.302207336802672089e-01,3.939161763936346178e-02,-1.644969063989408786e-01,-7.538450117249175138e-03,-6.367128337465688404e-02,-4.757950622518958839e-01,-1.597019431915662313e+00,-1.115698364430811829e+00,-1.086711518794534204e+00,3.261220942884925783e-02,-6.510116965045008586e-01,-4.868330805054836841e-01,3.684346430390182947e-01,9.621923103188809723e-01,5.745133231486966308e-01,3.088086363468842688e-01,4.505202732380710340e-01,-1.358366600559260950e-01,-1.611373112813044850e-01,-1.760632134143074456e-01,-2.301837324266060303e-01,-3.690237339408983241e-01,-7.263688581612766093e-01,-1.030354012536593533e+00,-9.837422169991250076e-01,-2.448609785919355353e-01,1.841029333252094946e-01,2.455728935996240869e-01,2.540279855384936503e-01,5.941546296391750914e-01,7.362794454784878928e-01,3.354181988496505729e-01,3.719742154181392424e-01,1.739884226015333824e-01,1.151535192385857165e-01,-7.728417417209988705e-02,2.259077258916794562e-02,-3.348940002313095798e-02,-3.154733862738249434e-02,-4.243632647685595394e-02,-1.880054985060333360e-03,-5.088144577424380532e-02,1.152722830505101687e-01,3.504884716825941715e-01,6.139264168097479102e-01,8.013574249413727424e-01,7.138844077909158869e-01,4.114578787779666902e-01,5.225098111508831300e-01,3.236045889870984849e-01,1.177021051309557753e-01,1.906594801232636693e-01,-6.093795364634359973e-02,-1.057913557920393995e-02,4.430761044314385916e-02,-1.117110092417095413e-01,2.483213138162435399e-02,1.341357674398042654e-01,1.490796064255688058e-02,-4.068591266321801986e-02,-7.960513034224737938e-02,4.285507442204640471e-02,1.710400900202901642e-01,1.834343828911440960e-02,-2.654758979909132427e-02,-4.643325265213098241e-02,2.747404262405533926e-02,-7.275382188562040664e-02,-3.032473949183470130e-02,1.219989474585025414e-02,-6.417448887789545253e-02
-9.875639694535269797e-01,-6.732481100318399303e-01,3.016006361999489793e-01,7.618232493737009392e-01,-3.186115306935746183e-01,-3.825663447752284396e-01,1.444337325014837692e+00,6.296584649462912131e-02,7.034418741355998872e-01,6.543356459173402806e-01,8.133262021946982001e-01,-7.308288194182381847e-01,-9.510921209846284752e-01,-4.210132772431118831e-01,-2.252565416303122792e-01,1.105989536053211680e-01,-3.516290819549406244e-03,2.815700490845842174e-01,-2.195823948382955304e-01,-2.993176500891336911e-01,2.141645438063680476e-02,-8.354131650463191283e-01,7.943900444803263516e-01,1.231063265388107286e+00,9.328426977625757788e-01,3.787251761397577021e-01,5.513007263689317927e-01,3.450385820653579794e-01,-3.417965842004988541e-01,-1.107238517252415289e+00,-7.643759194691339687e-01,2.267732070754158516e-02,-3.661041147625117981e-02,1.677051607279464729e-01,-6.557447309282397885e-02,9.090136259794125151e-02,-4.600939448604928761e-01,-1.251988752978571151e+00,-5.634115123236137501e-01,1.688699451863913403e-01,1.559306970184122454e+00,-5.885570702786976360e-01,-5.234382270479501775e-01,-1.305251193655030673e-01,-4.057767094692711352e-01,-1.804226802759244588e-02,-8.047578379535190729e-01,-4.192043652244634155e-01,-1.956475064023744381e-01,1.087485774425557411e-01,4.900141628165427879e-03,1.009760314667235592e+00,9.995564056194600200e-02,-6.693206603660576404e-01,-1.054681171913575133e+00,-7.752837349647203613e-01,-6.245417912116817405e-01,4.728139665085850929e-01,1.019403397139263978e+00,3.545131933935012358e-01,-7.465727611526826735e-01,-7.899085180511675186e-02,4.676342328043716634e-01,9.107892645696689937e-03,2.429750273722351417e-01,-2.528632401829729037e-01,-7.501609073318246668e-02,5.911480855068453055e-02,-2.839687405743147042e-01,-5.183470329938292265e-01,-2.062064581296020993e+00,-7.665541267405493464e-01,-1.305876977142610418e+00,-1.000446042782732636e+00,-2.404713805929634407e-01,3.358842727635895087e-01,-3.296718414234324213e-01,7.093239801953509227e-01,9.820636537847445835e-01,4.548352117681243034e-01,4.312265297178905499e-01,2.253356670815303414e-02,-4.019436023656550172e-01,-5.139755253345495989e-01,2.060862250198947088e-02,-1.243563853895128135e+00,-7.457315967649339461e-01,-6.474755308353390415e-01,1.402479514794789939e+00,1.707606670883766720e+00,9.646592035299673684e-01,1.166768724737154539e+00,1.055230966601633513e+00,-5.869617031683984631e-01,4.762704286699970258e-01,-8.640668706298127999e-01,-4.668275025169186798e-01,-7.832470984922881296e-01,-2.287071836388817614e-01,-6.791863018069371760e-01,-5.537737562657639723e-01,-6.815727264253121365e-02,-1.330344582082426230e+00,-6.410051614626554040e-01,1.500643734134776974e-01,8.877425437872904501e-01,1.054796706550134910e+00,7.041313138263450844e-01,2.641226302007380067e-01,1.456010680759350695e+00,1.479860616843971070e-02,-1.281427459946061220e-01,-6.592041756757524018e-01,-1.382129220541580716e+00,-3.360442178503798838e-02,-5.337980610617498733e-01,-1.087365219044824194e+00,-2.517079543147051068e-01,-1.860174834432078497e-02,-3.556498542885886960e-01,-1.003897509925242848e-01,-7.228358420155086561e-01,-1.458598175669483799e-01,2.751178623799880318e-01,1.478773226467844593e+00,1.733016641693330695e-01,2.996787424000733613e-01,3.707739707141168295e-01,-7.701017148055095962e-01,-3.193856430714731021e-01,-3.108831691816354437e-01,1.159675325657852363e-01,-1.464362824156283105e-01,-9.601558520273019148e-01,-2.137530396239666064e-01,2.490626415275374109e-02,-1.007306457233995589e+00,-3.741268716907358849e-01,-1.006431203537305086e+00,6.417564807899241996e-01,1.998819491801930026e-01,-9.484009700824237443e-01,4.127632232791157985e-01,5.139707729738537401e-01,-1.588484162249872711e-01,-4.924119973955317087e-01,-1.015208361688025099e-03,-2.388526281159887923e-02,-2.347003300111591140e-01,1.354278905335200844e-01,-1.033731569834600128e+00,-2.890003334751172770e-01,2.397006946289756066e-02,-1.129715273700006906e+00,1.405627497477668075e-01,-1.614928279364922892e+00,-1.027652465392849601e+00,-7.218841309699370878e-01,-9.796349105572315086e-01,7.096062131610155754e-01,2.920394523912305806e-01,1.433817833043073420e-01,-6.168131717329083941e-01,-7.652918846040279721e-02,-6.075415750873421894e-01,-6.953670881284184091e-01,-3.408761765488405593e-01,-5.438495331948518530e-01,-1.933625031702382591e-01,-1.623350835391917935e-02,-3.558888259864606551e-01,-7.120035120489824898e-01,-3.252011248829795864e-01,-1.384795511924919120e+00,-1.288706011518357508e+00,5.536437435993950551e-01,3.687057148771954451e-01,4.972480953541311144e-01,3.926252674315121594e-01,1.166282154190961373e+00,3.884485075997144987e-01,-3.900294479222402577e-01,-2.684979870330603813e-01,-1.336567823088947726e-01,-3.474994122329641555e-01,-2.201338276232624735e-01,7.870018284235966166e-02,8.712528451030878210e-03,1.095253359102376756e+00,1.017044697818516585e+00,8.569935633775397354e-01,9.608696218428244284e-01,4.306987812772011814e-01,1.810671934012804352e+00,1.435635567640789256e+00,5.777142827560384220e-01,3.445374536883635125e-02,9.283086806240830047e-01,8.267727309479844244e-02,-3.339573758708437312e-01,-3.018079219299754645e-01,-1.838250703429396560e-01,1.853919825408928412e-01,-2.980239033706866617e-02,-2.431316863596490463e-01,1.078762632781313652e-01,1.324757741743110007e+00,7.690973723992614586e-01,5.363392303510097214e-01,1.592040704392377881e-01,5.903363417284429593e-01,1.010307938076685064e+00,1.109205408337442744e+00,-8.820702145273410233e-01,-2.107519495281400326e-02,2.295595620210103549e-01,-3.170992190476150108e-01,-5.570812271886184386e-02,-1.304398928588285100e-01,1.525146360740283272e-02,1.283108834238177176e-01,8.017381408567010315e-01,5.142050218181238863e-01,1.177275116930095178e-01,8.017004594842456200e-01,4.696689933222207292e-01,3.704211289093601867e-01,-8.020154567061768547e-02,4.665105429841343021e-01,1.631411884080903985e+00,2.537176247018227970e-01,-8.936024631016054043e-02,-4.822481960236760234e-01,-9.978032600392058860e-02,-1.963311329246787140e-01,-1.009418018668263445e-01,-6.235146520392918085e-02,7.408776568903792381e-02,6.386580534274742815e-01,6.488001947004582437e-01,8.354633607827578468e-01,4.023055199563203010e-01,6.333342401979517033e-01,6.026834451667342774e-02,-5.188281868954890408e-01,-8.082896345664061233e-01,2.383398820242424998e-01,-2.209860125344537962e-01,-4.844611240389499196e-01,-3.463115540262472480e-01,-2.687304820275711048e-01,-2.249136640844237867e-01,-1.852598828923962548e-01,9.732785180662296975e-02,6.120315113578683741e-02,-7.941882070312263758e-03,-5.127215966539764094e-03,2.406618053109725250e-02,2.580662838421891592e-01,1.399257811626686554e-01,2.757077616298205316e-02,-2.516732978486678762e-01,-3.954694483025621432e-01,-4.283973459711135634e-01,-3.829180555491792370e-01,-1.818761500996634584e-01,-2.516104951279194424e-01,-1.571589959386652524e-01,-1.906042979456482045e-01,-6.477814143344368114e-02,6.918930735139813826e-03,-1.444571917407071020e-02,5.319683343936307957e-02,-1.863711621323601783e-02,-1.951281714334526666e-03,4.334324499250996610e-02,2.642095706005286385e-02,4.376935116948185711e-02,-7.455036872910895951e-02,-3.130395264979775605e-01,-1.047983886778149076e-01,-2.263116362974032167e-02,2.510188143880002099e-03,-6.250175169328461844e-02,-1.217647507295435694e-02,1.522612067867012975e-02,3.576431276021862365e-02,7.655219238269136972e-02,-6.369309609527623768e-03
-3.613816223373633035e-02,3.701714136832923163e-01,-1.381817564246669905e+00,6.604345376563494074e-01,-1.069615173781700346e+00,-1.040181086477500516e+00,-3.509826655125287131e-01,2.692132222025559254e-02,-7.884484234196703634e-01,-8.839306730622906727e-01,9.934040916207827199e-02,5.392595316170695208e-01,7.039028291813654858e-01,1.542178620310050430e-01,-3.325073280935757908e-02,1.099407601337355628e-01,-3.807742951360130329e-02,7.119468519434662968e-02,3.873084387613496271e-01,-2.859030229830710201e-01,-9.008421144888699716e-01,-7.570731469977939332e-01,-6.940519381333354332e-01,1.806335656121030031e-01,-3.850502494064214458e-03,-4.814758868178904416e-01,-1.227439158050035006e+00,-2.848139468758975057e-01,7.279035010111966075e-01,5.033955979013160498e-01,1.424277837569793759e+00,3.658957382849372109e-01,-1.529168685059521526e-01,-1.093608346969145301e-01,1.286480682310892354e-01,6.248758773434248681e-01,-7.420793501316510499e-01,-2.287522692484322828e-01,-5.481082171257022351e-01,-1.090408111088285947e+00,4.082691891019451513e-01,4.934453662343026709e-02,1.976574557682729549e-01,-2.104122846958721704e-01,-3.739256293410494481e-01,-2.541523670408437630e-01,8.140073586387053250e-01,1.199571473968713331e+00,6.643644919838853635e-01,-3.040598106132720857e-01,1.082895544637499721e-02,-9.519134162152436129e-01,-1.752387847117821140e-01,-2.614690439705117386e-01,1.688816744807845605e-01,5.025278312778362899e-01,4.431464690839579945e-01,1.574688809337646100e+00,5.721262458140256024e-01,5.034243594668607463e-02,8.630244436754689330e-01,-7.803966795308100446e-01,-1.125137830190841237e+00,-3.078712745312516263e-01,5.843718415201285543e-01,3.452230676749396543e-01,-1.153179216934935997e-01,-7.892422584452611634e-02,-9.499628784753396671e-01,-2.661056387837702486e-01,-7.480614006365949864e-01,1.487369387391213271e+00,1.267191988900060906e+00,1.110613496148276536e+00,1.883727369417865116e+00,1.998783400979822211e+00,7.634197459319830292e-01,-2.902898708482469226e-01,8.506231033061359970e-01,-1.391673416591914902e+00,1.955979520893978141e-01,5.990033281919820984e-01,2.444195439235974376e-01,-1.283653812056450572e-01,-5.118744908997203968e-02,-1.427028210169599021e+00,-1.169545390482815250e+00,-1.273375501876696125e+00,-1.354299744096748359e+00,-4.538625845640011924e-01,-7.281774840998158638e-01,-8.112028235324308945e-01,-3.815841882674138041e-01,-3.493307788216836185e-01,-6.913518812385427426e-01,-5.617466849492031011e-02,-1.268530762264215017e+00,-3.575651752410909379e-01,1.823444761022753047e-01,-2.685494508378162282e-01,-1.377791032780613101e-01,3.512194597565284487e-02,-1.418225074870822056e+00,-8.668791352663695049e-01,-1.013457906473057779e+00,-8.277138063800555390e-01,-1.581303832193648562e+00,-8.775621260319942385e-01,-3.063408883021649931e-01,-1.749075783228409620e+00,-1.372644575417668156e+00,-3.388479592728531609e-01,-2.732441939741389048e-01,-5.781752990123385505e-01,6.769606973263984917e-02,5.306341406850324099e-02,2.277946203798146274e-01,-1.404459721907870724e-02,1.015795536697234117e-02,-1.170032802898311353e+00,-4.527384495918141960e-01,2.416954305801400638e-01,-5.476458375207506890e-01,4.043986707133558761e-02,6.500135428931177461e-01,-1.316304574022910678e-01,-6.401246092585135550e-01,-1.419237913760993675e-01,-2.553349277786132188e-01,4.326826415983053842e-01,-4.518212075898689339e-02,-3.028256015491168768e-02,9.811928649994758889e-01,8.948339150676085096e-02,-1.188065669620241849e-01,1.418424370372796915e-02,3.943785328628907072e-03,2.441548590167750832e-01,1.033281358107628112e+00,2.798482090329129646e-01,1.014409955397833768e-01,2.855972847378673296e-01,3.779147706515124661e-01,-5.455301240986544231e-01,6.289412700559090519e-01,5.260829775408727427e-01,-4.771373610327960257e-01,-1.915838627226100765e-01,-1.442631250195365034e-01,1.105630784528734312e+00,-7.584943895194097563e-02,-7.778488789378729118e-02,-1.066897148642034603e-02,-5.104743229995728493e-01,2.406679686498247872e-01,2.529706363228865773e-01,8.648403618335709364e-01,-1.818599073639121100e-01,1.025825481611363221e+00,2.533733377676170573e+00,1.234233258982978532e+00,1.080146730264342381e+00,-3.057555880215324581e-02,-1.159325212615230916e-01,-2.188878892791498720e-01,-1.559204117439800530e-01,8.761979470588265873e-01,3.623580855531717271e-01,4.604059172591234463e-03,-7.048473334248211986e-02,7.147142144061230384e-01,2.488567707228843962e-01,-7.938919156972282232e-02,-1.325565229515254517e-01,2.275253826525985013e-01,4.688836060719980825e-01,1.270005302753873355e+00,7.641470170668314132e-01,1.074210669694898729e-01,-1.647619348610541434e-01,-5.782852412477924586e-01,-2.224000068043874012e-01,2.119999434790567072e-01,6.491403550962393521e-01,2.712971587425277997e-01,-1.332820400683907419e-02,5.554853409865630198e-02,2.466385023059024517e-01,9.175568902364805712e-01,-1.042333214794400220e+00,5.973992429385747149e-01,-1.020326879785357355e-01,-2.705574403662147076e-01,5.096429000112218111e-01,-6.269275472233615254e-02,-8.696175819509457394e-01,-2.216716082588815473e-01,8.891356248686639596e-02,3.929316677212162379e-01,4.743412177692077347e-02,6.370919244446089369e-01,3.479104870331319321e-01,-1.505984234688834966e-01,1.273515622488934605e-04,2.736237494731522668e-01,6.614702799823349855e-01,-3.266977906870037751e-01,-3.893348832780573754e-01,-9.962702243122846524e-02,2.247166839410572325e-01,7.523537746995063724e-01,-2.147623282214471407e-01,-1.087540385849650626e+00,-5.834466224343203278e-01,-5.961220745658754039e-01,6.071415352281891442e-01,7.040721837529286820e-01,5.567890035606439803e-01,-5.848084193188025220e-02,-2.497836323887498988e-01,-6.270612661739359550e-02,7.323998572111055649e-01,-4.883447522386102913e-02,-1.065712160396905084e+00,-6.682245576555360111e-01,-2.567732932386753708e-01,6.869494500614764521e-01,-5.685875829436240481e-02,-9.545446416633071030e-01,-1.577674361555543747e+00,-8.934940171784591101e-01,-1.716552333555019239e-01,-1.614076754946456305e-01,3.386137692845845315e-01,-2.865142613743580993e-02,4.181290313188946312e-02,2.860163975975930639e-01,1.064519211342517258e-01,-8.771902682659682426e-01,-5.739997197885683411e-01,-1.075418597861838688e+00,-3.690326778433355992e-01,-5.053899844853906309e-01,-5.324766857980882673e-01,-5.898238272792603043e-01,-4.927206754530378263e-01,-1.159352491266204987e+00,-1.012655009889459334e+00,-2.565704024037798736e-01,-1.248417835397093445e-01,2.239406255754358421e-01,5.568833983792949305e-02,-1.174018814054927778e-01,5.886658325701137409e-03,-1.835474860092814377e-03,-1.185753116683069611e-02,-3.798935431358055337e-02,3.650304759250828229e-02,-8.360328291078314433e-02,-4.789904499449616077e-02,3.200239183904856483e-02,3.006798526334436214e-02,-1.359010481381701108e-01,7.763395342287487608e-03,-1.967016923953975038e-01,-2.907195922958364168e-02,-1.049780400232233103e-02,-7.847900526396706100e-02,4.739822303946909093e-02,-1.131276226720969863e-01,3.674767529130262139e-02,1.893508345023936414e-03,5.717749182128615409e-02,-7.663025496684655602e-02,4.679169465756774504e-02,-4.259105041387960949e-02,-7.605266241617239520e-02,2.701466103359050422e-02,4.822666564687694279e-02,-6.484051658066543322e-02,2.999156595800784447e-02,-1.708563408299448166e-02,-1.386134004530734376e-01,-1.696602816775234432e-02,-9.799581258117239305e-03,-2.634307722722595540e-03,-2.536615505399036907e-02,-3.404342321296842389e-02,-5.862561112239344369e-02
3.883095720412581553e-01,6.973200919917657004e-01,7.683902081320463928e-01,4.665453211464264949e-01,-5.609866842386320718e-01,-2.442733689946384179e-01,-3.504172698114274564e-01,3.166317555972409381e-01,5.883608307535300730e-01,2.463902182934812890e-01,-3.377235578855832809e-01,-5.977751477347822417e-01,-1.982286525887391737e-02,1.588191906389957719e-01,-1.195932199716241984e-01,-4.914144159442986742e-02,4.191397409141140590e-02,6.747021502422348993e-01,2.268293307163727901e-01,3.828279063609446586e-01,4.592851640621004594e-01,9.673751982339579003e-02,-3.114676246456442588e-01,-4.891016899048605815e-01,-2.304055877671794816e-01,-2.014180812920937924e-01,-2.934924407945199709e-01,-2.008421489416292172e-01,-8.568110274731022269e-02,-3.387811110304524143e-02,-1.268411308499180212e-01,-1.515042297644088320e-01,-7.646780722478319081e-02,-1.083631874358019637e-01,4.658479142489905800e-01,6.636982728313048918e-01,5.359621767624310473e-02,3.160097314165157267e-01,4.829409231158326640e-03,1.895919067307374750e-01,-2.054304134154312511e-01,2.476564293750472268e-01,-1.669308813436526651e-01,5.489359361206950227e-01,3.006749108436314599e-01,3.514737587623639747e-01,2.480943065861049013e-01,-2.470654447584538227e-01,-4.123575551676098710e-02,4.058173854240283013e-02,2.376501715452138813e-02,5.073057614582682229e-01,9.337084140842927260e-01,4.130234425876022630e-01,3.109558014715870788e-01,-2.465677160105329280e-01,-2.472091988714446992e-02,-1.112796439619120059e-01,3.574712700374977903e-01,4.701036208401353500e-01,3.491868863603959650e-01,5.823245973773815143e-01,-5.109811137878161880e-02,1.733329898074414954e-01,-8.536266971716580110e-02,-4.968023306427075125e-01,-4.640899233612620634e-02,4.229060351707650961e-02,7.998549799475388467e-01,7.864752271349688684e-01,1.992454678142218105e-01,2.526848211563600954e-01,-3.115462405964483095e-01,-3.840870476672782474e-01,-2.795004748275494583e-02,4.680031995768631492e-01,5.091647792384755844e-01,2.676163666613898262e-01,-8.871069100558556797e-02,-2.031157383950391720e-02,-3.435928232627201706e-01,-3.596915914764918787e-01,-6.938135200240719280e-02,-1.527302836187289896e-03,-6.737178520167558249e-02,1.696379356513570968e-01,3.278265605404024896e-01,-8.241477443046170415e-02,-1.849739159176670422e-01,-4.603617672126907867e-01,3.049168536256093298e-01,3.476023522629811957e-01,4.462051676549464996e-01,4.128277043897530252e-01,-1.742195118131576181e-01,-4.523886879195311295e-01,-5.047675079207272208e-01,-4.906557479701623703e-01,-4.920689279396888161e-01,-2.596462132847645807e-02,1.802638424820620644e-01,-8.800077142885824599e-02,-3.117865909406145053e-01,-4.362006511541377529e-01,-1.644041289004108952e-01,-3.273541907369534876e-01,-2.384310940430215409e-01,-3.401168615285994901e-01,-9.528131284838314841e-02,2.399060795595447104e-01,2.694766739052142368e-01,4.039080495258735165e-02,-3.891519009252553118e-01,-5.291364639245602630e-01,-4.884244639388006237e-01,-6.130376474985844704e-01,1.623068650015919295e-02,-1.254979885311303944e-01,3.732618305380210055e-02,1.762530699903337716e-01,-1.072745906918097791e-01,-5.389979555331585875e-02,1.516533300565390541e-01,2.812931430661836860e-02,-2.861217272177329352e-01,-3.268841188842102063e-01,1.710519182018432546e-02,4.797346908295378048e-02,-3.526868650558013796e-01,-3.642405599778595904e-01,-2.319381118486547322e-01,-5.378534482253207738e-01,1.015617245523973006e-01,-2.976627750418902596e-01,-9.713474297737265117e-02,1.742365352784556662e-02,8.418700553561071775e-02,2.081913960362227201e-01,5.664407170056661583e-02,3.003900781235852024e-01,6.266017831101249047e-02,-2.600669472829695850e-01,-6.244531195634910326e-01,8.796841176819200636e-02,3.066711029762978491e-01,3.753282018905345629e-01,2.037771327784022868e-01,3.378824143480786413e-01,-3.587176016165279091e-02,-2.123892625356594011e-01,-9.999441374747067290e-02,-1.719895513909698026e-01,1.390271679042091035e-01,-3.975677193346060026e-03,1.918161617372333427e-01,9.070557940015651355e-02,-8.200328666349324894e-04,3.303639176876491668e-01,1.508783482896415562e-01,-5.790634392747333326e-02,-4.131017011849161258e-02,2.269862229576488366e-01,-7.271910772338144313e-02,2.402290735290732171e-01,-9.892513530202258487e-02,1.279616375129138395e-01,-2.339016445695205615e-01,1.463163806894930523e-02,-9.301210014069377641e-02,-1.202850857250821748e-01,6.519462488486797713e-02,1.509255718182483386e-01,1.980386709333236683e-01,3.483002774188193595e-01,1.298362831028589404e-01,1.132462217824663497e-01,-6.688846909014997677e-02,-2.884289676199814911e-01,2.801195358518847600e-01,3.893251121812594806e-01,4.169000112124451318e-01,4.191793936414145438e-02,1.895735400605177423e-01,-1.577401263795968067e-01,6.325630605107335214e-02,-1.652679004224564541e-01,-2.073486733633977605e-02,-1.322075457521320122e-02,1.109761054436635419e-01,5.180803132566058622e-01,7.143537091249334281e-02,8.836077405642046578e-01,3.567493735590619997e-01,-1.795200307596692413e-01,-7.345675805541233006e-01,2.369758418253802013e-01,-1.294112402184553930e-02,-1.449181924888409412e-01,-7.672085512742245206e-02,1.179955006612693966e-02,-5.119997279350628483e-02,5.995748946604926438e-02,1.184237882258839906e-02,3.057943306963238281e-02,6.156130643881569942e-01,2.100901565953534611e-01,7.043461349414795736e-01,-1.553975697056209360e-01,-2.590082264138782089e-03,1.292069979383698719e-01,-5.826293957772626236e-02,-2.981778422183583022e-01,-8.193479418397364711e-02,-1.020331202562111544e-01,-3.704598483322832925e-01,-6.129470938794207013e-01,-3.255983215105620054e-01,-1.854035778595393702e-01,1.794070804095122262e-01,8.932687770558830898e-02,-1.722295121959044883e-01,3.201101560937392176e-01,2.936556182320876895e-01,2.773409373019851132e-01,1.726667383027404024e-01,-9.437213613760311870e-02,2.385324424775124297e-01,1.681220613942420172e-01,-1.300743307646878011e-01,5.692425392675079521e-02,-4.071335952353615645e-02,-5.623641069799913128e-02,-1.320875112833873877e-01,-1.620016394295350770e-01,-3.304220508258930156e-02,-1.903693661166197884e-02,-7.727025632701808866e-02,-1.040532695391888085e-01,-1.120509744865408192e-01,1.345329715016235772e-01,3.918443883135135086e-02,3.527926619630604010e-03,7.242470365341535654e-02,4.638319104218598110e-02,2.574040772239148331e-02,9.064232924914825129e-02,-1.786185183772278501e-02,-7.121365980696142683e-02,-8.153903189579954705e-03,1.929635276645937092e-01,-7.827016761361509090e-02,4.912509870215975294e-02,7.917464880232390201e-02,4.998298895453667573e-04,-1.226873103251368766e-02,1.642059503672337398e-02,1.499343864790959099e-03,3.525499709990528169e-02,-6.403513274012082035e-02,1.209302501220569162e-03,-9.531457236644065578e-03,5.775624369209728798e-02,-1.331494266562331941e-01,2.885172242154158614e-02,1.100212732670869387e-01,8.210604934656398624e-02,5.866341615740027632e-02,9.520438233233385894e-02,1.058670676392290677e-01,2.082584771322384953e-02,-7.610431419747416826e-02,-7.908028869479116763e-02,1.111669581449995781e-01,3.079545811312403569e-02,-2.241019122887439718e-03,-2.110987106902266486e-02,1.542735094128993567e-01,-2.263112270898571740e-02,-5.866673111128016538e-02,2.329754819254085604e-02,1.006813308945446461e-02,-1.110708063332388994e-02,1.309794568355722964e-02,4.006475155075378547e-02,8.312021746697952074e-02,-5.766905496024802430e-02,-3.467986770982814382e-02,1.252771629787856056e-01,-3.914142627198984037e-02
3.004120565537925502e-01,-5.050667058992458491e-03,4.113997838395819784e-01,-4.878287482317023582e-01,4.723774239093489480e-01,4.346944645996642098e-01,2.620726014770340950e-01,-7.142487834234785560e-02,-2.371315895855634903e-01,7.972497363011038507e-02,2.619283780584280574e-01,8.833222354843668286e-03,-6.599941162211229173e-01,3.372318044534657333e-01,4.717026818288613810e-01,6.643712120151124001e-01,3.946782052422814074e-02,-3.984260185082137973e-01,7.837031782136248959e-01,9.996744220387704383e-01,-5.281928256291863466e-01,1.237118462334156760e-01,6.500502179553930837e-01,6.697708174228279576e-01,-3.487265166013914230e-01,6.019991360669013636e-01,1.890882975885920247e-01,-1.616408855620229401e-01,5.683862099375512900e-01,-7.743520065603028968e-01,-7.797418256697306038e-01,1.973689793596809794e-01,2.375095922321857067e-01,2.166548243284513175e-01,5.404358763425344270e-01,-6.250887896813914768e-01,-3.537330684411420512e-01,-9.977740330953458470e-01,-9.897071277291721314e-01,2.967876744174406944e-01,-3.753524257236808825e-01,-7.248190503409129848e-02,-4.928658399762799180e-01,4.686296146701756093e-01,-3.369778252116001349e-01,-1.026694109673558231e+00,-5.749464536029184059e-01,6.367430355318233204e-01,5.974758387015728367e-01,3.786563552977486036e-01,1.657649761377452957e-01,-7.327637410058251977e-01,-1.816516349263670893e+00,-1.509304604580525622e+00,-1.174260281468226141e+00,-1.184114905309142651e-01,-1.446166458357060591e+00,-1.211680067392727045e+00,-6.205789346953138885e-01,-6.512737248822039193e-01,-2.726480156923269949e-01,2.021772211797999985e-01,-6.925701170866994938e-02,-3.249828926537107754e-01,9.470065033830296075e-01,6.568751561673359385e-01,1.718887513239687470e-01,-1.443086976887536163e-02,-4.037557061238397638e-01,-1.008650233674976748e+00,-1.568238837652306428e+00,-1.708844527876372643e+00,-2.048977768713477587e+00,-2.024920732468826756e+00,-1.304487311781671988e+00,-1.261440651008353342e+00,-3.297246950676267496e-01,1.103324755935156221e+00,1.490946431811537520e+00,8.465945179900798978e-01,1.073403697545435298e+00,1.249789015484983112e+00,4.481309205144387575e-01,5.382887082140368484e-01,-1.443879338293449673e-02,-5.592738504411396416e-01,-2.357672047400217741e-01,8.557445222609175728e-01,1.499634994904103902e+00,-4.984044731981795984e-01,5.641720130486618245e-01,1.298055967605589389e+00,7.992122118957175614e-01,1.571280882396118628e+00,-2.918430841719718213e-02,1.473625486094595871e+00,1.359196882554997154e+00,1.869093235826443156e+00,8.939485288587610823e-01,1.622958715912551919e-01,1.524663985899900043e-01,4.017742667787525812e-02,4.473771915942215127e-01,9.263214804402102320e-01,1.070334524216823291e-01,1.046388208869410974e+00,4.724355776801216628e-02,3.752779829744411488e-01,9.965147395578358713e-01,9.449396361442887748e-01,1.110162753629167609e+00,1.832502265808865438e+00,1.344834267275423434e+00,9.824198450926973081e-01,1.818381359498419725e+00,6.893202528044709010e-02,-1.110505007664141786e-01,-1.780521301256534628e-01,-5.947487529324022720e-02,2.301224567304117063e-01,1.615604994657024340e+00,6.751541007214378887e-01,5.477340233561354133e-01,9.455423080150949788e-01,5.522915967317389985e-01,4.094239569798057699e-01,1.619711462543555469e-01,-1.391197975096009343e-01,3.543000140614669946e-01,1.594870628415937797e-01,-8.530869018090786460e-01,5.270836128701253953e-01,-6.703752371201271432e-01,-2.870834266183518446e-01,-3.910889558619756734e-01,-1.391044833961443440e-02,-5.572819614755462198e-02,5.466608162375649060e-01,9.599361335893720204e-01,1.757337600669945044e+00,1.348403459034893448e+00,-6.088357440722148200e-04,-9.776073620219756233e-01,-1.400966308000074767e-01,-1.080213530119769727e+00,-1.740493051887302745e+00,-1.574053423236003724e+00,-7.374902224846692222e-01,-1.292178314065202338e+00,-9.757811986751412092e-02,-5.931739312228238026e-01,-5.805152887720050892e-01,-1.031083627761476135e-01,1.846534820763041929e-01,-1.751085203964864445e-01,5.033823496257038288e-01,1.155766276107725421e+00,-1.261936148099591093e-01,1.416324914261663237e-01,-4.505754109959806963e-01,-2.562824113839990425e-01,-2.961720942889260466e-01,1.994130140742596535e-01,-1.204948339289248604e+00,-8.512496392970145820e-01,9.517371458222387282e-02,-7.306718652276169568e-01,-5.882049019831550041e-01,-6.602691098173503192e-01,-4.936812217769416533e-02,8.055556691020769877e-01,-3.585906458240937789e-01,-7.735298620040973461e-01,-9.361535873417096143e-01,-7.561591893249555718e-02,3.962375755961320412e-01,1.200293879953796133e-01,-8.600326828033276749e-01,-6.317721227530888051e-01,-1.031693183796797753e+00,-1.369544957568396226e+00,-1.052045642496590272e+00,-6.375117864766618458e-01,-9.174401211505556208e-01,-5.381137828112231292e-01,-2.677137106524509758e-01,-7.801225266557022808e-02,-2.058837839882069615e-02,-1.706940452641332318e-01,5.848988775438523219e-02,-1.305408747026991945e+00,7.120867925760734907e-03,-3.147833732654661265e-01,5.626020113518840349e-01,-4.596706362409314628e-01,-4.475577870661417296e-02,-4.925409143147997382e-01,-6.311979315733594331e-02,5.528486044925349022e-03,-8.365305923974722946e-01,-2.935976779091768463e-01,-7.907627038775285611e-01,-2.477440802255529151e-01,-2.181574362409649092e-03,-3.945190755811730510e-01,3.137706534225541688e-01,1.119151470970723428e-01,-4.452916911177858261e-01,2.840593413070031659e-01,-2.910275504240560918e-01,-6.602073703184061504e-01,-4.434311628384501325e-01,3.442593005369644632e-01,-4.697490555386577560e-01,-1.100419727832294026e+00,-4.472722222368017975e-01,-1.697205037828245222e-01,-1.977829851629686331e-01,-1.060010756030834722e+00,-2.831201244792904137e-01,8.908253798374980714e-02,1.217373869735493885e+00,5.729104053544895742e-02,7.557057168650060941e-01,2.123434238250856976e-01,1.768951378273471986e-01,4.179120302793076780e-01,-4.556364331582033467e-01,-7.246418591946481025e-02,-2.881876648072328462e-01,2.595606535890344069e-01,2.614825159657845344e-01,-3.507274322893945695e-01,1.304829717091365859e-01,1.485216874116651320e-01,2.254684225155291488e-01,2.474543484311862440e-01,-5.324665120790027933e-02,1.126195643785818934e+00,1.457332160107619234e+00,3.001047790028521511e-01,-3.333896378822570061e-01,-2.262774561478958502e-01,3.493951958141976871e-02,-3.095855966762380285e-01,-1.143771889211579129e+00,-1.397797292722925688e-01,-4.586421360152656557e-01,-2.630293516339839988e-01,-5.732836181727346547e-01,-4.398567063041527447e-01,-9.243107554695542682e-02,8.094850356047493534e-02,3.002021450069326108e-02,6.802090262885022998e-02,-5.958383456789751592e-02,8.933742579807307793e-02,-4.875156736722406452e-03,6.206807168934565938e-02,-3.629600639571379378e-02,1.143404360185553250e-03,-2.929548105184096030e-02,-1.558374336508668578e-01,-4.514125850216948455e-01,-3.577580405785177886e-01,-3.481928731483725503e-01,-2.958949476826035485e-01,-1.450079285764995229e-01,-7.243839142982741452e-02,8.134307744645045621e-03,1.467683226501097504e-01,3.437210103134269445e-02,-2.551771454540370521e-02,5.729344840123887228e-02,1.275396016036871305e-02,-5.211517357575076032e-02,6.461752887727779948e-02,-6.676910500875450627e-02,-4.303622006013274603e-02,-2.953200909717668687e-01,-1.028408022465591015e-01,2.055420912643829770e-02,-8.593402714640717421e-02,4.687646218620680066e-02,-3.446679039378265641e-02,9.465948128828935437e-03,-7.039648041077053997e-02,4.218793726276076628e-02,-2.046741236200803199e-03
-2.704221429157596321e-03,-4.900477469634897387e-01,-8.207015613563908296e-01,3.753900552064158846e-01,-2.337117067644572665e-01,-6.748737685917426399e-01,-3.441340174820998743e-01,-3.240688079900180818e-01,-1.117697456825837432e-01,-9.741969050992360657e-01,-1.291242063998838119e-01,1.703493505580780665e-01,2.682643090229260840e-01,6.153219740577522967e-02,1.133587402514799058e-02,-4.750269897603873193e-02,-6.214729591916996754e-02,1.006041729647973171e-01,-2.349039812183433551e-01,-5.132767793969716941e-01,-4.075181026054818245e-01,2.521234947000267068e-01,4.744857974070688100e-01,-2.206186425362532399e-01,7.509799318371719601e-02,1.896566521597130295e-01,-3.136147086239793325e-01,5.065637476570307163e-01,5.777704053149383956e-01,3.736271557433500368e-01,1.934936371041031666e-01,2.002819275955654028e-03,3.216859412763059534e-02,-4.456420135018852868e-03,2.333667218690131662e-01,1.090075995795766056e-01,-6.205747561088635900e-01,2.197149369273161956e-01,3.576367334968083012e-01,3.104589391522503683e-01,2.941603094425421228e-01,1.637850553035430923e-01,1.842522351461939878e-01,-3.413955805232486429e-01,-1.179334844672046551e-01,1.803786786718366564e-01,-2.161161860829919623e-01,1.788232240941882434e-02,2.088759200591834564e-01,1.415555038699598533e-01,-7.961395973868637399e-02,-4.977647807316150086e-01,-5.204509225435952624e-01,-8.177780561235896695e-01,7.172363588874167140e-02,4.004394274052638369e-01,1.126922975167535396e-01,7.657078882197948522e-01,-1.425829056722741350e-01,-2.539536913533643192e-01,-2.833287863941321705e-01,-3.662038922125013252e-01,-4.364714634439903485e-01,-3.996288549586918259e-02,1.881340205309313396e-01,2.123456143368535332e-01,9.626611847170463143e-02,-4.618886227818599054e-03,-6.841107748238242081e-01,-1.956598611140794863e-01,-2.563267169788638333e-01,8.868492657336521923e-01,6.763584423141413282e-01,6.431396206708698271e-01,4.760401923145197167e-01,5.241623427589894302e-01,-2.070837399398615664e-01,-4.319499587814983332e-01,-6.337071055778368267e-01,-3.635958593930377902e-01,-6.305232523487434848e-02,2.156120124209920941e-01,1.311175413940882106e-01,1.307058412749010079e-01,5.644471674657527277e-02,-3.829757375593891844e-01,-4.674507293789592621e-01,-2.073756651549424901e-01,4.055078518540620736e-01,3.928719696613543477e-01,7.564444979637625632e-01,6.211246813252775389e-01,6.884305722370516190e-01,-3.322216968777015333e-01,-3.800294923727144947e-01,-1.197066593919777322e+00,-4.114839012355435699e-01,8.010691135807129770e-02,3.327324814042746381e-01,2.914953419495172060e-01,1.165713159752558570e-01,-1.121416309815453788e-01,4.443967218547625365e-03,-3.294755139632444263e-01,-6.670193376346417180e-01,3.019199100051625506e-01,-2.796569518595760639e-01,4.334950155392050530e-02,5.810354743000200051e-01,3.374506022589384021e-04,-4.241626595935722999e-01,-1.111216706455511627e+00,-1.146571235353838869e+00,-5.116739306410448274e-01,-9.821649628093115370e-02,6.196159215872447668e-01,2.418776087657336649e-01,6.089446509954031528e-02,-5.030408977819145894e-02,2.467251703697355067e-02,-3.809218353604718610e-01,-8.446728871316976361e-01,-1.241816088373521032e-01,1.828473197228258074e-01,3.664414847549761767e-01,3.103660883977094609e-01,2.332653827189402895e-02,-3.620860516639453075e-01,-9.947412328504291468e-01,-7.248295930412351762e-01,-2.495393699672128485e-01,6.016625835023771407e-02,4.830799771533161313e-01,2.041515130634511677e-01,-9.967027378665635484e-02,4.850215575532901280e-02,-3.024997114212048532e-01,-6.014376389955529145e-01,-1.081518121721855907e+00,-4.398765470429015778e-01,-6.360099124791971370e-01,2.109160172677895795e-01,7.815807792104320084e-01,-1.175049305825053569e-01,1.865954146151086734e-01,-9.305879313882730042e-01,-6.348652044009569506e-01,8.610195577287853286e-02,2.205226353794257632e-01,4.778668263196045873e-01,1.640673666703984235e-01,9.743721361693827299e-02,-5.319418544600448828e-02,-5.649815963137303498e-01,-7.447321624074056956e-01,-1.161920996047197896e+00,4.211697645798936906e-01,-4.893051756610775627e-01,-1.155944277873549239e-02,4.298004328949801833e-02,-3.164444571908004988e-01,6.726227090412841003e-02,-1.223721700318205929e+00,-1.819294669788828200e-01,-3.406969957098119977e-04,4.100416070735966034e-01,5.556441053646241635e-01,1.624092754264326866e-01,7.502747844391061127e-02,2.041290566331805667e-01,-4.250007636895972718e-01,-9.078672586197935601e-01,-4.108141256258573959e-01,-2.783728326753102111e-01,1.452972076114319722e-01,6.859568882805608947e-01,8.968561110918052970e-01,5.339155383021678553e-02,-2.572537896019801498e-02,-8.816052573584554075e-01,-1.282933900990816944e-01,-1.004538341782341831e-01,5.293177997989418904e-01,2.714193657860280440e-01,7.611603115551472676e-02,5.797808677631959007e-03,1.568424801941381260e-03,-3.746179272985553643e-01,-7.169586203223771159e-01,-4.550486392926745283e-01,2.431955708032968733e-01,1.638212282590640612e-01,5.966319783867048837e-02,1.016128178505187607e-01,-5.253075127733038974e-01,-3.646126759477912316e-01,-1.421289835857807882e+00,-6.904416839787157478e-01,7.496643261382474055e-02,5.758073502061072935e-01,2.765813570941415278e-02,-2.242592180408480851e-01,-3.372319448672413400e-01,1.992977059069169984e-02,-4.350437573465906760e-01,-1.646533513870591436e+00,-4.417591504559378879e-01,-8.212259350359665810e-02,3.549796519244901027e-01,-9.407008348887443971e-02,-2.037814607762282459e-01,-2.240274231973438390e-01,-6.119545111910099644e-01,-1.414921004877627064e+00,-6.070916903850642754e-01,4.275345790982005428e-02,1.618395465844753300e-01,-2.794748365856402073e-01,1.746861878737207829e-01,-1.651197159962791705e-01,-3.112016021173811403e-02,-3.351354615443286750e-02,-3.016446064436907326e-01,-2.743506139483866124e-01,2.019092359898369549e-01,6.893225065704058352e-01,3.136133912817922198e-01,5.794096088261136979e-01,8.210903741577246090e-03,-5.059873445339558851e-01,-5.982940142188030164e-01,-2.944677847632514722e-01,-1.039000595559192996e-01,-8.840391348744665312e-02,4.180303990715770329e-02,-9.040377193280048351e-02,-2.676207418913333601e-03,2.879257004645037130e-02,-4.842790228885383852e-02,-2.402509978337240559e-01,-2.465980064858627474e-01,-8.703650898160705807e-02,-2.490662775848748872e-02,-1.483055797493510186e-01,-1.379564564982327657e-01,-1.727803599885071040e-01,-2.188588465595416033e-01,-2.114766844178969374e-01,2.976606546960997371e-02,-4.637155792929304604e-02,-4.809147553472023148e-03,3.783804384787978897e-02,8.667649780615375651e-03,-7.840890124792732063e-02,1.094360188425731219e-02,1.049582821842364767e-02,5.259871097870308376e-02,6.447559134602738606e-02,-3.027766591618659062e-02,8.247623564927805424e-04,1.413898936590273769e-01,6.698288652139526567e-02,-1.276310983222756108e-02,-5.336161014234783173e-02,6.406475356695741363e-02,-1.846531403430251919e-02,-3.625410536423646912e-02,-3.923802588868129798e-02,-6.086817992093637025e-02,6.175916930158516227e-03,4.914545335038374846e-02,4.012055245263775743e-02,5.228245679062589607e-02,-2.253741877111506073e-02,-1.656836972441558808e-01,-9.162662167045265010e-03,7.927246937175264074e-02,1.161060648049516350e-02,-5.901648077346691862e-02,6.227767312216686904e-03,-4.401327320280892103e-02,5.398370795395682209e-02,3.323720988228132805e-02,-8.706316873525238309e-02,1.829968468397551867e-02,-4.881464605834656689e-02,3.443409627041377902e-02,-1.215791049213825054e-01,6.154893673669886711e-02
5.891129514444393145e-01,1.069525205678252683e-01,8.089647012600815756e-01,1.596603678671236537e+00,2.207502909986973183e+00,5.360602632335645934e-01,6.741778100778949012e-01,9.783894805641224490e-01,1.193171471700161579e+00,2.841085489215669502e-01,3.593528547660511663e-01,5.684664016170615231e-01,4.650078224467485977e-01,-3.279740085039301728e-02,-2.073869549665517398e-01,-2.300223914007668291e-01,4.100176773083420018e-02,5.722932213361495712e-01,-2.232444021063022810e-01,5.129808206077725030e-01,7.832339155391566665e-01,9.925596450405056448e-01,6.023702220190348955e-01,1.397058551026100881e+00,1.483079337677391418e+00,8.092676690999019984e-01,1.742249628767460257e+00,9.632232912943122782e-01,3.099162716627262837e-01,1.002753882990889078e+00,3.314824001057966596e-01,-2.112482926619191348e-01,-7.452911432924086421e-02,-1.243001727576585475e-01,1.062501547940177815e+00,1.021824474666494398e+00,6.851036092240080366e-01,6.043906778964448501e-01,-1.343067445996355821e-03,2.912852092813342231e-01,5.710617462290668023e-01,6.087509570964619865e-01,2.641467576501895786e-01,1.063130804621465586e+00,2.873150830457247840e-01,9.908758766259457840e-01,1.631053509867068096e-01,8.989648619889781256e-02,-9.879847341131801908e-02,-1.220329786185568033e-01,-9.523371246936949974e-02,2.046032727827979125e-01,-6.649192943102465447e-01,2.885801056752515525e-01,7.642097401980695315e-01,-1.371487633390574001e-01,-2.659859110016191686e-01,6.234475855249798082e-01,7.293149374083864878e-01,-3.014806193276135526e-01,4.253292846831503438e-01,-3.008609827540387194e-01,6.437045607547825510e-01,-2.790887939003854346e-01,8.033370755361605997e-02,-1.489892751452998321e-01,-1.485753625500911002e-01,-5.998988344342342204e-03,-1.421004870675726672e-01,7.968876668559684573e-01,-8.606322528369209079e-01,4.764619272746377088e-01,3.348786549442754334e-01,-4.590813092229527048e-01,-8.506193403630641914e-01,-1.969512870295264229e+00,-3.653562232892502148e-01,2.001354235429053663e-01,-9.932742919833179723e-03,-7.052137297662978976e-02,4.139355894389642587e-04,-2.967049720457053952e-01,-1.877400464458553464e-01,4.582529717415739084e-02,-3.720782737522923544e-02,-7.594530415473192964e-01,-4.061444944757054976e-01,4.976699662449826124e-03,-4.542213935505109434e-01,-3.139126818613386383e-01,-3.235017769594378256e-01,3.679227668948115842e-02,-2.482112173938009481e-01,3.777169706377870445e-02,-5.149309506115740120e-01,1.994821058384254608e-01,-3.458971295798641821e-01,-5.472791861702710481e-01,-3.500841224299214849e-01,2.066032729469045037e-01,8.056173179928506622e-02,5.891566429350642703e-02,-1.036378177774779363e+00,-8.067520664650550122e-02,-1.219816498109818736e+00,-6.826328204056595350e-01,9.974081807689481882e-02,-1.205616058497747778e+00,-3.195072767596592866e-01,4.986100012029851536e-01,-1.088287533942924101e+00,-8.907541942108205824e-01,-1.090928248388600696e+00,-7.481217620471344310e-01,-5.854882950565982735e-01,-3.513196469088689655e-01,5.701890430731215015e-02,7.704706262474142475e-02,3.234369264082138928e-02,-8.263138676490094925e-01,-7.837933203230438295e-01,-1.053339856039826383e+00,-1.068486695921620822e+00,-8.599765526468382548e-01,8.588753083524546250e-01,6.497634270598436901e-01,-2.384138115922703471e-01,-1.654283560972778178e+00,-6.464986571683248862e-01,-1.294342243517283331e+00,-9.985037380219387027e-01,-9.475287828674561208e-01,-7.302773290865552935e-01,-3.788616486590440369e-02,9.226403002536066877e-02,-7.100736206924035399e-02,-1.731995881831243367e-01,-3.112603894756825751e-01,-5.221215109226055029e-01,3.489118280979114917e-01,-1.110131678446818038e+00,1.999732514213802825e-01,-3.793835594027641367e-01,-9.322740444028411178e-01,-2.276803004382032647e+00,-1.859006357279318733e+00,-1.239629785665987916e+00,-1.516232014364986558e+00,-7.029588224852509892e-01,-8.035859778713202450e-01,-1.877579259335983575e-01,1.608206815888341690e-01,-3.363294490253523894e-02,4.673179747288837005e-01,7.794214767280312206e-02,-4.657230567562805623e-01,-6.132642315728170646e-01,-3.448923647890824729e-01,-1.640443276167542930e+00,-1.184506147633408668e+00,-1.118568328124766920e+00,-1.358110986021967337e+00,-4.973558103986269185e-01,-9.284218151333546720e-02,-9.471899172303351877e-01,-3.246683157724104540e-01,-4.588886963697965116e-01,-1.407116087294807971e-01,1.001224934204997669e-01,-1.102094625018870677e-01,3.100481628956817115e-01,-9.755385918885746410e-02,-5.243376337419436428e-01,-1.331811628491568866e+00,-6.590699786800927606e-01,-8.279645849007859215e-03,-8.679587955025985790e-01,-1.217787098304187188e+00,-2.833194248125320946e+00,-7.014664058153369242e-01,-1.228586793019138312e+00,-3.794487485628015300e-01,-7.829353959047018474e-01,-2.780914134988778375e-01,-1.600947625729959578e-01,1.292781955727153043e-01,2.294413960273660250e-02,2.528497626246736241e-01,3.992856360717381148e-01,1.705166264645801455e+00,3.502857519895713478e-01,6.709889214032300764e-01,1.298383866848657142e+00,9.324466355417412311e-01,-6.763212929337719670e-02,-1.206697558941496107e+00,3.230436020964723709e-01,-7.167861914395384781e-01,-6.680159842107020740e-01,-6.879900787622525993e-01,-5.186015045190995876e-01,8.613621760257547666e-02,5.582682340273771235e-03,4.627118519831665416e-02,1.568136434332368712e+00,7.153643849690792811e-01,1.056745281519281043e+00,1.226484473545093934e+00,5.392314535544306953e-01,4.624136068597084481e-01,8.430338096468885656e-01,-7.460427911723032102e-01,-6.617323760952605882e-01,7.698123631602407646e-02,-3.873827807725840357e-04,1.632877441165200838e-01,-4.927311193931931121e-02,-4.134120733522690383e-01,3.320982598688985987e-02,-7.065823838367911273e-03,2.805320331690414754e-02,7.634787138225469505e-01,9.973266476046521722e-01,3.921146527510173674e-01,1.066466193496436565e+00,4.940580272900685355e-01,1.164544805278229900e+00,2.047548749327687378e+00,8.081583097113679282e-01,-7.405888351258207991e-02,2.402607414605024694e-01,5.279293424322516887e-02,1.272184617191085831e-01,-9.048461716288409840e-02,-1.633206568034052120e-01,6.456800039011784120e-02,3.323320748568692889e-02,-1.221608895716278301e-02,1.409170662707202037e-01,-1.582130291050835857e-01,1.018980564339120598e-01,4.728583478091438197e-01,3.908505695647867539e-01,9.169952927684830168e-01,1.550920593914075329e+00,1.502152499541999475e+00,6.021819573534370473e-01,7.328252939579685821e-01,5.196449899342163725e-01,8.352669564530426083e-01,9.025990490528777721e-02,-1.519292068759780234e-01,1.587323230612446012e-01,5.581503650476966200e-02,4.055427744572268761e-02,3.344983622068522719e-03,1.052214776005697267e-01,7.403620832703404486e-02,2.377867284871966469e-02,-4.213199449960990106e-02,4.398314488423778479e-01,8.307953856111046642e-01,1.165095608555580142e+00,1.272396181240870838e+00,1.655471303436175434e+00,8.249528831977177568e-01,7.959143684417228082e-01,4.792634665572622632e-01,2.126396665873705460e-01,3.104708135649617562e-01,1.905679609871138019e-02,1.108372696891946341e-01,3.975270249229725245e-02,-2.819732802179774483e-02,-5.609228445042533512e-02,4.638480576396972199e-02,4.532454383648408525e-02,-1.132997731571506184e-01,4.104834236434786732e-01,5.187676742910697358e-01,5.880772075055801240e-01,7.158386408175810844e-01,2.106961361785729403e-01,2.447349816262745226e-01,2.899218847690065437e-01,5.251476496484230178e-02,-2.004336703762898443e-03,3.497856942018684467e-02,-6.672279904945363493e-02
-5.750709285117762137e-01,2.045904208322705531e-01,5.853527644284522991e-01,1.879838330109042221e+00,-1.263882291621071907e+00,-6.571188576869217979e-01,-2.008440006344256734e-01,-1.457111021236301429e-01,6.055658147416382864e-01,-4.661379518966066726e-01,-5.307358652496924067e-01,4.256190381112323617e-01,1.307136376158080759e+00,-4.925665806130436475e-01,-9.961279706040568893e-01,-5.052577540609235474e-01,3.507212343900673046e-02,-1.235289593725971830e-01,3.233472377894680005e-01,-7.250498941665461938e-02,-7.417984323141347813e-01,-1.085065994506505094e+00,-3.223814418694959105e-02,-7.898487372435584186e-01,-1.507289885297869725e-01,5.552809584473420434e-01,-8.936854360401109698e-01,-1.576879154990301624e+00,2.038705723076021381e-01,9.725415223104187656e-02,-2.432241613344453615e-02,-1.020704264979954284e-01,2.496236981156166601e-01,4.797832530443466026e-01,-6.515897366356703246e-01,-6.045800952471380718e-01,-3.270997858346488818e-01,5.718197729473280949e-02,-8.902098665388841203e-02,-3.657055727261692146e-01,-9.475841400531170855e-01,-1.086235522583570257e+00,-1.534351637911249844e-01,4.954914318171468185e-02,-4.051520516935687155e-01,1.157892455301442913e+00,2.089634763878256973e-01,2.465354952845210112e-01,-3.538532564668463443e-01,3.647886844155497910e-01,4.149287936611791711e-02,-1.418502119995769695e+00,-1.165570702779294532e+00,-1.518995371010837703e+00,1.890252581935000509e-01,-2.956754164964559006e-01,3.515873018444075071e-01,7.929899727851984492e-01,1.204892391932049112e+00,1.264148351154831706e+00,1.261015723370566555e+00,1.092197334467270409e+00,1.419190576335735754e+00,9.923035519958735284e-02,1.425749492814925856e-01,5.980085288281506740e-03,1.983431321536202330e-01,2.187444654834017066e-02,-6.447110360515153626e-01,-3.533334073357775607e-01,-1.002457346802628102e+00,8.386852792590905326e-01,2.924418825759645957e-01,6.695185924235877994e-01,2.701596280252790971e-01,5.483940075207951459e-01,-2.975879469030894287e-01,-3.302107922783871219e-01,-9.407880792351287491e-01,-5.452715361446474063e-01,-8.677280222188081815e-01,-1.124484001238832631e+00,-4.646993030284637949e-01,-3.427066608064000541e-01,4.901830051872709069e-04,1.807494738634394249e-01,-8.732243457491347671e-01,2.900522512153812515e-01,-3.269295423763622366e-01,-1.488007183107815434e+00,-8.099145239307873334e-01,-8.077273173221797276e-01,-8.499100608562525361e-01,-2.369129881230100043e+00,-1.414047157502176022e+00,-2.483752447279642617e+00,-1.876692276117401192e+00,-1.354307514251023914e+00,-7.604880524540071907e-01,-8.202265887883016804e-01,-2.372923329494055489e-01,5.009818616074272757e-02,3.609197430059324363e-01,-6.348614718116961653e-01,-7.828932771356507114e-01,-4.755033705740617789e-01,-5.550592782185770346e-01,-1.038901917163243205e+00,-1.123946857021574042e+00,-2.782790466060587886e-01,-1.614880229991828342e+00,-2.046838947636724360e+00,-1.786994967806107004e+00,-2.643047318532542711e+00,-1.191672968949761380e+00,-1.150262725233816008e+00,-1.491042085305579024e+00,-5.458999361408790607e-01,-9.875862324036337181e-02,5.306189029059225071e-01,-1.102739094774709827e-01,-9.171432314446930079e-01,-1.807673690430618318e+00,-1.612233788119065148e+00,-4.790896026867053070e-02,-4.196460494521598861e-01,-1.451433652226064575e-01,-1.381654916700124192e+00,-4.501101706224281962e-01,-6.728904201291255882e-01,-6.830237014356461689e-01,-1.455409591204268049e-01,-5.090207537563804507e-01,-1.228108212296194601e+00,-8.913832967354802517e-02,1.340367869866964344e-02,1.390392641143507246e+00,1.490003003997061315e-01,7.037485590462839724e-01,-3.745521569851968935e-01,5.013484264064786977e-01,-2.006215896032953472e-02,4.684971060475309201e-01,-3.746002839119468852e-01,-1.309703265001670447e+00,-6.793970325199765181e-01,-5.242345432057742283e-01,-6.111800102653782568e-02,-1.792929818352942961e-01,-6.234505213306450466e-01,-9.346147177634547276e-01,-4.639236794297492417e-02,-5.333617173602381994e-02,-1.202725657719358188e-01,-3.763036753972177073e-01,1.350876824887031202e-01,-9.998204677304917132e-02,1.169305480012003073e+00,-4.876620717030892282e-01,6.492550082152446222e-01,1.489992267820533955e+00,8.576071492118593209e-01,1.827123226889447727e-01,8.515901196467213774e-01,5.692690599553437147e-01,2.774309145511124064e-01,-3.839491267043448341e-01,-2.001263177128846660e-01,4.583788441879568104e-02,1.274940844628175357e-03,-7.393957328010096752e-01,5.852380409633842206e-02,-3.858909999700532722e-01,5.539746310785812478e-01,-3.628274596083183035e-01,3.545637703034644761e-01,-2.830820281672063454e-01,-6.789520828675266184e-01,-7.073604256391928802e-01,-1.446073407966886049e-01,7.704252904650850109e-01,8.236263152567919743e-01,2.031020292999346777e-01,6.117509832557176397e-01,8.768751206647630581e-02,-1.166696070633218840e-01,-1.466333452501313549e-02,1.945821991548964291e+00,1.728067676083956172e+00,3.029476764770085762e+00,2.321697056016008176e+00,1.509851476888737221e+00,8.366311998581532627e-01,4.691964949854030564e-01,4.947402150190128300e-01,9.706530034410937313e-01,1.256788419948518642e+00,4.283952803860429648e-01,8.244141981833202903e-01,1.405989030496830550e+00,1.608854245117037340e+00,1.637397897209736497e+00,6.560227984284932035e-01,3.700778368526268930e-02,1.324517064910560427e+00,5.993600157897417402e-01,8.188212328807833451e-01,5.182443145123544204e-01,7.265989847686524228e-02,9.948211817894859754e-01,7.995460259127270541e-01,5.934569439718625494e-01,8.940871499286850987e-01,2.493052603422033775e-01,9.114188757038784727e-01,7.044585795725507582e-01,1.514580407390335282e+00,1.049826484789009973e+00,8.155624410584256800e-01,6.418368787528536679e-01,3.457933020533626167e-01,-6.337923877355077229e-01,3.572148746166911581e-01,-1.789930649243161309e-01,4.390858250988476930e-01,5.858169493746019363e-01,1.050359864543165767e+00,-6.706894379659929240e-02,2.454130499998587456e-01,-1.246547817086179455e+00,-7.932911326032201504e-01,-1.038750210856848932e+00,-1.894978565652882530e-01,1.548173992136503696e-01,4.042874100026958017e-02,5.981724419914984103e-02,-2.898880770868203852e-02,-6.202420175205980088e-03,-1.316660317090698473e-01,-1.732438094966986253e-01,1.857020429443342335e-01,-4.121088514726464758e-01,-6.665082285831303022e-02,-8.788732348274416739e-02,-3.607968671325793575e-01,-6.689918624603086172e-02,-6.611516245789784696e-01,-2.131045598633652949e-01,-7.826061700173686519e-01,-2.332813808126109334e-01,-2.694355596743554515e-01,1.734953339563168745e-02,-2.948091061585219608e-01,7.904879206450940443e-02,-3.679234999628613195e-02,7.382213880115097437e-02,9.407510675649109755e-02,-4.512160476969877265e-02,-4.818359824728470769e-02,-8.996792490818150689e-02,-5.401134858591586513e-02,-2.324219140534664607e-01,-3.760914704210723825e-01,-1.972122699714014549e-01,-3.768484328533996397e-01,-1.759248268579370333e-01,-4.548913140797167243e-01,-4.685444328458404084e-01,-1.630798614553504444e-01,-2.381441257516415944e-01,4.860539917032581647e-02,-4.510735683375915323e-02,-1.185006379504625548e-02,-3.490819767064383405e-02,-3.181829703580944801e-02,-5.072573367059582394e-02,-4.901220339941161908e-02,-2.557030485999427574e-02,-3.088701967800453613e-02,3.472010310877644834e-02,-1.865762602888779501e-02,-5.715327786903761503e-02,1.592705124924964286e-02,-3.819227319953295841e-02,-9.084407302683997210e-02,-8.029410652119876174e-03,2.824259022471193453e-02,-1.482889755779356021e-02,-1.841934696486712333e-02
-3.367114989221741683e-01,-8.790058471549001828e-02,-2.428249930050177530e-01,5.094202044353453029e-01,3.788877084562493613e-01,-2.902924239395514028e-01,5.588154047423692788e-02,3.410131420882453468e-01,-2.215587671000853187e-01,2.541990314821611086e-01,-3.350972555965066046e-01,-1.871224858148037573e-01,1.142818706897435810e+00,3.023447246595193927e-01,2.678921181948725749e-01,-1.168270462804937432e-01,-1.138788175487842440e-02,5.441962917419920220e-01,2.810037838795892418e-01,-1.137289204330458769e+00,4.295305476072919793e-01,5.677400119667000977e-01,1.131177856613993171e+00,-5.841492687208096335e-01,2.749700074349747947e-01,2.096324443117966174e-01,3.820266729995372423e-01,8.430079451722857220e-01,4.427563030913996833e-01,8.397467768401210009e-01,1.395747965227566834e+00,8.070515004891741784e-01,3.354096528036936142e-01,1.730767611859042668e-02,-1.139807626385177103e-01,4.997298313499153322e-01,9.743549482069004952e-01,-3.878103172505860397e-02,5.016413285641124764e-01,5.614243948794702677e-01,8.496382100234036727e-01,2.375690955826125217e-01,-3.745050615763059199e-01,5.080093529431545935e-02,3.372311700385143274e-01,-7.538370575133926943e-01,3.068974953921934090e-01,5.503864949902708137e-01,1.272757230257598182e-01,3.125378726435940613e-01,6.198347328580437049e-02,1.613066195903881228e+00,1.518306219050584494e+00,1.187894458104320483e+00,1.452391586138350510e+00,1.679915270018000895e-01,1.275424958812015008e+00,6.525625298574017075e-01,-1.703599093750765903e+00,-6.583642128795073045e-01,-2.956630816152978208e-02,-1.016466164782479087e+00,-6.432393510426729355e-01,6.430327910848834261e-01,-1.495210503458304363e-01,7.543922121610811826e-02,2.592458262877411213e-01,-1.746193776948845242e-02,6.771324818453654526e-01,1.538099067202829129e-01,1.798647473692422283e+00,3.933298516086982527e-02,3.399531025474862855e-01,2.788160031314993598e-02,4.152506012889525810e-01,-1.078662983140648984e-01,-1.001990791961944405e+00,8.014162168070315673e-01,2.641458646068316485e-01,1.120797986580832184e+00,4.740603394534615989e-01,-9.544070530439946465e-02,2.132582936731911849e-01,3.112788579049156068e-01,4.449040702453246898e-02,7.443896867739775436e-01,9.608373425807884560e-01,2.040648173511703689e+00,-1.546955917792957602e-01,8.533753346902867021e-01,5.690211251391529695e-02,9.323437065323189055e-01,-1.113528772352513574e+00,-3.261691944085579609e-01,3.634925430204722363e-01,1.620306230582794493e-01,1.208820740515981207e+00,7.867129845950037170e-01,4.761035030476781782e-01,7.589902673637961561e-01,-2.714620654527216681e-01,7.924383302415771713e-02,9.271575834350149758e-01,1.024153410279098564e+00,-7.158358602796456305e-01,-2.288009551610981351e-01,6.403448913469655945e-02,2.008716253888267467e-01,1.303194388716378160e+00,-9.298253845728999822e-01,6.246247339197313897e-01,-7.021395804428868237e-01,-1.630274302603284819e-01,-3.745399255829417462e-01,1.285952828910400803e-01,1.527627313761956984e-01,4.620310996874713583e-01,2.571556739053184049e-01,2.229348545821452712e-02,1.005048638023335661e+00,-4.508084020993335939e-01,-1.375087666307694301e+00,-8.934575471067222052e-01,-4.460602371201883298e-01,-4.780325188647182588e-01,3.254660940793518975e-01,-3.929571929336403979e-01,5.601926006978990430e-03,-1.642267081458355094e+00,-1.367248039745023735e+00,-2.171541501709902455e+00,-7.860285071362949072e-01,-8.032173317992192807e-01,3.586654844547704224e-02,8.272179360148722294e-02,1.589305995194804574e-02,3.508246696258053854e-01,-4.839540767578289215e-01,-3.600845713466022668e-01,1.755175942108259113e-01,2.378003099115186258e-01,4.636532102228291818e-01,8.403148104934283769e-01,-1.714693506464303949e-02,-8.431588253056896409e-01,-7.795395779043431395e-01,2.272297546759262030e-02,-1.555762780248454824e+00,-4.031120332902189962e-01,-8.318294070355414238e-01,7.848037313442834950e-01,3.966225081933855839e-02,3.952382125840089855e-02,-1.080646247133967730e+00,-4.189309168191134858e-01,7.155518921782766037e-03,8.996102438913979038e-02,8.405943948917193875e-01,7.645599368006463781e-01,8.426037981262148868e-01,1.656051523390885682e+00,6.027708379147151962e-01,8.272622624332509611e-01,1.987471282949397067e-01,-5.418043020838213542e-01,-7.329070354384831232e-01,-4.160403211838092363e-01,1.898705628639715259e-01,-2.499788373983518122e-02,1.216081300247258586e-02,-8.129963223478533507e-01,-8.001249618824616272e-01,-8.056614907219462607e-01,6.679827800313241637e-01,1.474674238223161238e+00,4.169006628956278271e-01,2.649613163166285035e-01,9.277252648213286657e-01,1.639402819555293211e+00,1.670007755135176630e+00,1.334604787544698690e+00,7.628950120276869473e-01,4.373067256006962777e-01,-1.340416332227605811e-01,1.306616864820010215e-01,3.492242289758513279e-02,-1.429781159372223720e-01,-1.201215406180481393e+00,-1.359795492639713776e+00,-1.161488287493584126e+00,2.104112087091866146e-01,-1.033527135071166336e+00,-6.284568633772457114e-01,-1.087884688087178198e+00,9.565861441264209564e-01,-7.629495948698763463e-01,-2.034562385261938999e+00,-5.463379187583297103e-01,7.443464781841609978e-01,1.290445700662325557e+00,4.792205082383742543e-01,6.770716978619599480e-02,5.065229696446570118e-02,2.688674158606378650e-02,-6.536167963184497109e-01,-8.178513091221671638e-02,-4.947076048492025091e-01,3.335662471817884556e-01,-7.330165105566406325e-01,-8.631818686839115573e-01,3.751982355658838308e-01,-3.519674350495017312e-01,4.469103984523543904e-02,-9.136424191638323755e-01,-4.940314151778700258e-01,7.434988617173324821e-01,5.324968175998066044e-01,6.250843342395230318e-01,1.864751486458611773e-01,6.682187330939359793e-02,-2.135408073080313773e-02,5.058528134518361918e-01,-5.253997201034219522e-01,5.288796368051700281e-01,9.625652837072157242e-01,5.395110995349332306e-02,-1.080305592488797206e+00,-5.319350634959998381e-01,-1.866125880947892557e-01,-2.782772806529624776e-01,-4.892016692682159551e-01,-3.599921871882401092e-01,8.829544750953946530e-02,-4.498414040904083477e-02,-1.007904228308037844e-02,8.371341888171633661e-02,8.075006688914855568e-02,1.232078470891157310e-02,3.190734983196059082e-01,2.614066291887795490e-01,-2.857284631053024770e-01,-6.418504744490937108e-01,-2.913728283919909123e-01,-8.719064538959135913e-01,-1.509806310068025237e+00,-1.440734884138798355e+00,-6.631573441659152079e-01,-5.515422129894064218e-01,-9.074566003444742845e-01,-3.122060781501586058e-01,3.084062765577658127e-01,-1.280843359519472091e-01,1.211078961254136513e-02,-3.643329106385265886e-02,1.137034115678241669e-01,6.268810522710141497e-02,6.633489355562229017e-02,3.049392221242267983e-02,-3.801862462560998829e-02,2.234729602090134663e-03,-2.421822385796324473e-01,-7.289273576737768101e-01,-8.047474323994665557e-01,-1.169352884514567759e+00,-8.963993633513450687e-01,-4.106793917124068050e-01,-3.084191446763878131e-01,-4.932854398912672744e-02,-3.434198142378552115e-02,1.951078992146086308e-02,-5.708933418679346117e-02,8.235785189654713789e-02,-5.180664166997805964e-02,-8.202552697773471402e-02,5.959984384325980877e-02,5.131169053223511023e-02,-1.108919083603151223e-01,7.944983204993625453e-03,-1.357031864461741844e-01,-2.573536370158291953e-01,-4.575518368123672741e-01,-1.702851779644050656e-01,-7.288888220494128822e-02,7.461362170340234135e-02,1.111088197138351413e-01,-5.548306855005475519e-02,1.059920095677250197e-03,3.481459875240343338e-02,-5.972359645637631033e-03
-3.866297008198364971e-01,4.808651557054192116e-01,3.827205521148939471e-02,3.192983578835184577e-01,-6.975480131949621798e-01,3.817601561441574809e-01,2.188684351271202033e-01,1.471847939404069827e-01,8.112598668701741511e-01,-2.585995236439542766e-01,-3.038235245240467758e-02,4.487187629317426762e-01,-2.623609050541882981e-01,4.355095163739395869e-01,-2.078205964905182890e-01,4.728537077470970629e-02,6.914677311200798093e-02,-8.097966391441014933e-01,-8.602933603894182824e-01,9.051682829871264824e-01,2.888214546081871448e-01,-2.438144759058750721e-01,-5.530842422826582894e-01,8.014551247360557351e-01,6.495883630420542509e-01,4.312508697192138363e-01,9.080000014344108417e-01,9.554008474781080507e-01,3.812299396205927615e-01,5.814696492747449819e-01,-2.821212764303822618e-01,-3.652794298646991344e-02,-2.875949520708509510e-01,-3.244110203443074103e-01,-6.675066142149370663e-01,-1.439953603911124091e-01,-4.709239977014286760e-01,-7.285595060160079406e-01,9.210381083923337986e-01,8.450426022596511100e-01,4.535528338339754884e-01,1.272587951195074396e+00,-8.862395648536065471e-03,2.097670185646001162e-01,-1.006201536692178600e+00,-9.394765316193205429e-01,-3.576341266159210885e-01,2.347730996935286918e-01,1.075091507770986748e-01,-1.963233061797459156e-01,3.695280924573161180e-02,-7.023509801432763489e-01,1.152344720183259064e+00,-5.724853178380070323e-02,9.447250070590475224e-02,9.858859306087699448e-01,-7.871340899246418443e-01,6.546437543742135434e-02,4.907006919411440737e-01,-2.525827611934108319e-01,-8.129494796006533353e-01,-3.206836051393866516e-01,-8.823212041983564680e-01,3.945268233420742288e-01,1.679360985820323726e-01,1.062523435795323101e-01,-1.553098583887707329e-01,5.512116254633884355e-02,8.166203249928858376e-01,1.309281364186293262e+00,3.138386461093065627e-01,-4.328797403571473246e-01,-7.820817111521497500e-01,-1.229694904786819087e+00,-1.213711395586301478e+00,-7.791938457176833532e-01,-9.004463539030564956e-01,-1.093125190079721643e+00,-3.722778995949412306e-01,-1.352898231745305047e-01,-4.676019247251759353e-02,-4.058721163713262525e-01,-2.540210357429131816e-01,-5.770677313935609343e-01,6.000170995496772325e-02,5.555408298594760597e-01,7.897141257025912520e-01,1.001693346982839516e+00,8.736022587722158672e-01,2.713881883811031237e-01,2.948725279005370153e-02,4.742915294897508405e-01,-5.933441825482441145e-02,3.311064205677262118e-01,-2.645307562370751153e-01,-1.937483229290005993e-01,-3.799502528208577035e-01,-7.283289134097064021e-01,-6.978738063117784218e-01,-4.738367476182949733e-01,-2.900497144866989729e-01,2.128157640431857511e-02,6.326599717736455242e-01,4.388894886524585814e-01,5.599759207083653267e-01,-4.311869138586572614e-01,5.404680160147429246e-01,4.774791436258610244e-01,-1.594573244843348891e-01,1.097462473235160552e+00,-4.569290266768519237e-01,5.151769194319182343e-01,-7.223893619117169873e-01,-1.955696788766149441e-01,1.629137019287683341e-01,1.660936288131642236e-01,1.459263735785619187e-01,-2.621300168027436150e-01,3.021104241488007866e-02,5.452428921772591863e-01,3.781723465562366604e-01,-1.990650961556395815e-01,1.255782825688524840e+00,-8.514605107073761614e-01,-3.171447044833873141e-03,-1.426403574485776427e-01,1.148028144397639089e-01,-5.348418983821724426e-01,-4.166754213967528986e-01,-5.775315851546405921e-02,-8.210716972314933138e-01,3.942708961043742133e-01,6.559945891889210623e-01,4.581055081944970797e-01,-1.587859316516896657e-01,2.728136137849998880e-02,5.950978733582040769e-01,4.279319624168416158e-01,-1.337997914458578963e+00,8.985009102663867875e-01,-2.514942815923584263e-01,-9.427003793155847022e-01,-1.130556000841488107e+00,-9.737960039325316286e-01,-7.497500072777348867e-01,2.023343214751919250e-01,5.046681934802923486e-01,-3.252729784642387489e-01,4.025827277677607174e-01,1.631788993237615615e-01,3.889463349597628850e-01,2.424318862062761065e-02,2.552555162289165541e-02,7.208971825060440652e-01,-4.460032663589329205e-02,-1.658625263422722096e+00,2.465137577608791236e-02,-6.014452117882178594e-01,-9.968407306643478627e-01,-2.123664928663968055e-01,-3.120063701903620368e-01,3.502977055394577294e-02,2.173590161252380026e-01,-5.468790016476517968e-01,-9.824456887495283675e-02,-1.612980107634786886e-01,-1.512669755498663171e-01,1.808029805092981057e-01,-1.371564091212361669e-01,-4.862725200075799364e-02,3.696660337949672637e-01,7.519830592857504326e-02,-4.178204609882245624e-01,-2.599265070278891088e-01,-9.765510296143303792e-01,-3.662331282948433353e-01,1.650640516265101110e-01,-4.524456242801154771e-01,7.620585138517127488e-01,3.456670824198894709e-01,6.098135027189340862e-01,9.668914526863435777e-01,-6.602330155448207782e-02,2.368920114774619168e-01,1.497326859112175189e-02,2.837969177957320732e-01,7.464419346126337229e-02,-6.345747095116245351e-01,-8.480547049389951242e-02,-2.211537166900142126e-01,-6.268546222167327431e-02,4.575777542862016073e-02,6.904996763066424403e-01,1.071051161600580448e+00,3.398886618454446396e-01,-6.647602469548687942e-01,1.404718403915096170e-01,6.866593505535586450e-01,6.419235142564984065e-01,1.975188755087266268e-01,-2.920409637627197075e-01,-5.937830484380185458e-01,1.922359556862849872e-01,3.906891160131899243e-02,-5.500550619490757187e-01,3.090949118367314896e-01,-3.562405001960436968e-01,-3.830916684940004480e-01,6.478341305495378677e-01,7.567683524252531990e-01,1.048657158734142003e-01,2.674682076179233856e-02,1.139496301781619092e+00,5.775554445571247086e-01,8.204049131586529375e-01,1.125798946055406757e+00,4.809381655379735276e-02,3.446877288008934892e-01,1.405887935092086372e-01,5.136206683858910438e-01,6.799148502596434607e-02,-4.874797450779367325e-01,1.075480876066179370e+00,1.963011192605722266e-01,-3.496363976945263685e-01,1.358198648157445954e-01,5.863736394635040705e-01,-3.947444852636035062e-01,6.477974539770312568e-01,9.576565426426103533e-01,6.138532613144509487e-01,-4.088297729899109667e-01,-3.832959363975880218e-01,-1.818622748761438701e-01,-5.235727826943518959e-02,-4.291271353110953646e-02,9.172518571957628819e-02,5.378326763931783744e-02,1.555057889578640162e-01,2.003137677168596309e-01,4.366328567285135964e-01,7.438699573868500226e-01,7.332819900550983094e-01,-1.045135807809809414e+00,-1.508076510661945369e+00,-1.454173487436698275e+00,-1.013620462240346853e+00,-1.194711708639589975e+00,-7.189546279049575661e-01,-5.913328352815844235e-01,-7.051091007359415741e-01,-8.191360409313092061e-02,-2.972367732093461057e-01,1.263674707264330899e-01,-3.800360773147944127e-02,-4.478057013856697605e-03,-8.536509211210611958e-02,5.798129235560240541e-02,2.654460411780100448e-02,2.937188881102004157e-02,-4.482662525958387434e-01,-1.197611364144377299e+00,-1.426038439627718812e+00,-1.045376656066455689e+00,-1.614767759730772134e+00,-6.798809161053629424e-01,-1.015580898768582374e+00,-7.706542097098854072e-01,-1.863249696005601364e-01,-2.959177410191983770e-01,-2.783598307565990707e-02,4.767577209006751415e-02,-3.448543224948953222e-03,8.682058244566728811e-02,1.749735326908989988e-02,2.711468238601680378e-03,-4.883612953767208636e-02,-3.338517096295284294e-03,-5.441022243351241183e-01,-5.181636479088851388e-01,-5.155316028773064829e-01,-4.721377902517114866e-01,-8.102205600775889971e-02,6.981111954381106176e-03,6.912386604375647670e-02,-6.728037999551184090e-02,-5.577262836363419685e-02,1.409914588861332051e-02,-9.664589057003000749e-03
4.382023651865377123e-01,2.006065388992889775e-01,-1.313032199138285394e+00,5.695288403476655992e-01,7.073757730000558297e-01,5.537491233841175253e-01,1.827237638557431543e-01,1.272026780765501963e-01,5.944887676287084061e-02,-2.323006381132131440e-02,-1.913965857053165527e-03,7.370977905490003201e-02,-1.194850543144677091e-01,7.564026403806378696e-02,1.890647920946217364e-02,-4.814204827104542721e-03,1.678303445891939430e-02,9.025931709258146196e-02,-6.241315103204093662e-01,5.121004689124157849e-01,-1.143695384728378173e-01,1.165811507117151952e-01,1.688014578389566700e-01,1.602011751047146826e-01,2.876182703953976127e-01,1.888662300444543529e-01,8.424503672236556551e-02,1.006390547154434739e-01,1.056988113771266530e-01,7.730787552027926224e-02,1.008291604159753524e-01,-2.064827089625209146e-03,1.171615395614714408e-02,4.585870087617100604e-02,1.443118857271652178e-01,2.295064148017748884e-01,-4.493702946001194576e-01,1.548382678049230188e-01,1.753436520477934246e-01,-7.144923234194034030e-03,-7.688402072580177715e-02,2.651397253952419431e-01,2.002472679399552591e-01,1.087470720343037545e-01,8.660520918634122267e-02,5.259683107527872263e-03,-3.832621457071459792e-02,2.095214581843316340e-03,4.603559899407218964e-02,-6.322022411607344794e-02,1.121141941823628474e-01,-1.814187925793360745e-01,-9.899871894286423890e-01,-1.109918568003386147e-01,-9.698150303081643983e-03,1.189519666181804713e-01,8.164383675316505551e-02,1.000848720406398579e-01,2.474322975933382074e-01,2.062656479732018489e-01,1.976954809451775819e-01,1.426183274528301514e-01,3.096400083129207184e-02,1.454474818367241795e-01,-2.232742046309580536e-02,1.628816387907302361e-03,-2.258384660399259582e-03,1.011648757307121865e-01,-5.987003942440499021e-02,1.250999566887552317e-01,-2.787646441470023606e-01,1.968535732075021860e-01,2.223898692678671074e-01,1.190746699478910237e-01,1.025464354030008324e-01,2.780002020680725772e-01,1.175235946372559792e-01,8.507059840656081007e-02,6.434799515638366108e-02,-7.095946976305263221e-02,8.268344153198525434e-03,2.137735459664989810e-04,-8.263430550150119291e-02,-1.766783035981307065e-02,-3.658173310269951378e-02,-3.125424720089251540e-01,1.179147976269144527e-01,1.534190809265490174e-01,5.144020320866428131e-01,5.368874574523067045e-01,4.012087535152812356e-01,3.660955041125285581e-01,2.539110266089603662e-01,3.339966111260036508e-01,1.225257749937000845e-01,7.182804927368376113e-02,3.905680428535247568e-03,9.270807677521331058e-02,1.464549503419459303e-02,-8.505294967153881336e-02,-4.873497663262967711e-02,-7.111587621496502643e-03,7.612328140866550519e-02,6.686022998282263596e-02,4.689455642907114363e-01,9.039286410847753583e-02,-1.941734016095146564e-02,1.672595305499572638e-01,2.466444253778133922e-01,1.336073387134374957e-01,2.670155941331253668e-01,7.108327162262860488e-02,5.711389741090250327e-02,9.778366947839274570e-02,-1.091948007087450850e-01,-7.585033070114342857e-02,-1.916532516227651556e-02,2.126449306151757812e-02,5.489092210385037446e-02,4.215702881025269466e-01,-8.851359440356837416e-03,-4.728889448763523573e-01,-1.304331546284243359e-01,-5.172767576764908393e-02,-6.166685169867960198e-02,2.537892266271130765e-02,1.730604927207419763e-01,1.608711595890314483e-01,9.738312788135293496e-02,1.014291370354810234e-01,-5.733459460066601780e-03,-9.230899546283695412e-02,-1.060054187559517497e-01,3.556876001884569372e-02,-7.300715585749081860e-02,-5.068390380860728073e-02,-9.591457606351325160e-02,3.029608376514230858e-02,1.089334105489491389e+00,1.077591216646417022e-01,3.511211750038265716e-02,-6.444185990297553179e-02,9.578481903772739781e-02,2.745079668526568262e-01,2.701371265382284670e-01,2.391773126426616491e-01,-5.694756190395081248e-03,4.388973745245678543e-02,1.503114574106452673e-05,-7.591775927514954857e-03,-1.790433402416982955e-01,8.145111787016115490e-02,-1.384340938180729230e-01,-1.501018178155395510e-01,7.898316986201869838e-02,4.023149650511650410e-01,3.836178768142696955e-06,1.801046289099541564e-01,-1.981273009087557071e-03,9.319875607974965892e-02,2.315368320031780391e-01,2.753399523391707460e-01,3.196430171002483944e-01,1.776460244067773475e-01,1.812540196830680558e-02,-5.653837853961381915e-02,-3.264577090748672916e-02,1.684957108872268267e-02,-6.556785835201189849e-02,7.241619630255798079e-02,9.633680110294962073e-02,2.246612537941523879e-01,1.594685752870243223e-01,1.379914869835856261e-01,1.564190020416036109e-01,-1.475668511324553477e-02,-6.973126069372317937e-02,2.666426401146459457e-01,2.664741168431595808e-01,1.584598732760865714e-01,6.172608240535872037e-02,3.405495160949009725e-02,-2.069494302559166665e-01,4.533292939657845161e-02,-1.557209144296875514e-02,-1.074493174674139365e-02,-2.515305525552386998e-02,8.853931590357161374e-02,4.221277573926857790e-02,1.489740287544098596e+00,1.701093579055295457e+00,9.658934626215167629e-01,7.532917777169654272e-01,5.602591407007501134e-01,1.010677031235705098e-01,2.691974410454205380e-01,1.707559072793473909e-01,1.120093332962536214e-01,8.323130760184350996e-03,-1.704800245392019617e-02,-7.473902741966524654e-02,1.079002115134238132e-01,-1.287366304435309111e-02,3.435242506320393407e-02,-1.542154359367080840e-01,-8.053079463562157203e-02,3.923012874367727498e+00,1.299982820587049615e+00,8.909091016490755521e-01,8.850099068722694362e-01,3.769378558713442073e-01,9.976563402232675737e-02,1.348900606763810683e-01,-1.444328367301441624e-02,2.778940787415984034e-02,1.998077881680944759e-02,6.295152916778180320e-03,1.246448007836037236e-01,6.640128034640137289e-02,5.019218026694244328e-02,3.789932970918813426e-02,-1.675578991929071171e-01,7.723152973773047547e-01,6.212653042595061015e-01,6.445710600808283175e-01,6.575374943738147016e-01,6.492363047325678815e-01,2.949650358818428630e-01,-7.370364678430568750e-02,1.472372865996861681e-03,-2.414101980155244562e-02,7.093783247996812702e-02,7.450719805747957336e-02,1.120184976327630033e-01,2.735422326897950576e-02,-5.923697474112967973e-03,2.575724328918972683e-02,5.087717772997848303e-02,-9.842149828332941164e-02,-1.281928087922257209e-01,-7.768743555593567510e-03,2.516808668271711472e-02,-6.309254994493963820e-02,4.469210781374240854e-02,-5.461070879473625163e-03,2.307030630005260999e-02,1.038453909402554942e-01,-6.943889579486622887e-02,1.334834728959256311e-01,-1.176308589701537295e-02,-5.970693579542603324e-02,5.248667703847717525e-02,-1.778400586594518261e-03,3.646207308438013245e-02,5.065516193503544207e-02,-5.071580656051959818e-02,1.385034440643330683e-03,-3.131290334695969318e-02,-1.297737291792433745e-01,9.204917011425703399e-02,-4.222325216123131580e-02,-2.129351080272058952e-02,1.077365976207289230e-02,-8.099798005768257814e-02,-9.683317931272134027e-02,-3.168212354935808633e-02,8.965842946717819673e-02,4.979575510904320906e-02,3.159696978565767339e-02,2.570345514398735334e-02,1.745136490082159833e-02,4.002561159371426786e-02,-4.777801283794749776e-02,-6.506243985026620436e-02,1.121357817026061021e-01,5.680597120333606698e-02,7.134774909289868204e-03,4.900199785206908222e-03,3.990829691372300980e-02,-2.227684966322603793e-02,-2.932913728309024040e-02,-6.475035006144734540e-02,-8.795377969421187825e-02,-1.030194880694814720e-02,1.026182824609870627e-02,-4.151634174515594911e-02,-1.360996570699506136e-02,1.793973250346903373e-02,1.211423514990862677e-01
