-3.058014916612460388e-01,-3.405915394364878446e-01,-6.501320837780483197e-01,-6.894990017077015088e-01,-3.722567991515643437e-01,-2.581058611138002945e-01,-1.092405067838133903e-01,-8.843292326464065323e-02,-1.556193888217882459e-01,-2.366651101207531416e-01,-3.242752055266907019e-01,-1.392816516586387610e-01,-3.090436846412576988e-01,-1.742357134071100266e-01,-4.851991486100540318e-02,-1.151445777591121739e-01,2.364476567082360314e-02,-2.524298463736328602e-01,-4.440446750173418500e-01,-6.099245140902738171e-01,-9.265383949368780625e-01,-3.815207138013552712e-01,-3.529547662698155341e-01,-7.093804845702300632e-02,4.074260704662023280e-01,2.486001846107132804e-02,1.146661345140978332e-02,-2.965614458455052560e-01,-5.235839523879518564e-01,-3.325368717761528203e-01,-2.170467153995915555e-01,-1.296269338570057994e-01,-1.393653328749495379e-01,-8.373243467613736626e-03,-1.555886715081919169e-01,-4.035224736042541394e-01,-5.770826021798838301e-01,-5.219857745724745257e-01,-9.331536865590167595e-02,9.272039943803464523e-02,2.218224758543449748e-01,1.320112595346873696e-01,4.319972917350962255e-02,9.223232829681900918e-03,-3.326945315778998685e-02,-3.308381568509037862e-01,-4.166533154363084579e-01,-2.847054147549625824e-01,-8.220852535270352368e-02,-1.808703012874594146e-02,2.722313274121370211e-02,-1.917127647678404656e-01,-3.328211437738403666e-01,-5.820562229244373720e-01,-1.900401916805413427e-01,1.734198298546436035e-01,-1.727921357600522428e-02,2.920584363679504802e-01,9.046883564026134139e-02,-1.131709895128241161e-01,2.324979245608004008e-02,-1.192446345169356353e-01,-3.746877531355040647e-01,-2.189045352749602324e-01,-1.560055804823375358e-01,-1.496864156164968707e-01,1.083697676351280670e-02,-3.698919029102221839e-02,-2.124374632811577568e-01,-4.233957203310632633e-01,-4.893045570009375012e-01,-9.752302696798871226e-03,2.801967815880158641e-01,-1.546180324964566699e-01,1.632524050896659584e-01,1.602848278139294425e-01,1.096718470528682127e-01,1.653209143603228959e-01,8.249866583008881593e-02,-2.093826216203188983e-01,-3.024432532232453896e-01,-1.298305622243824398e-01,-1.161734295952122631e-01,-9.212160495395096960e-02,-5.404546137245203052e-02,-2.671153446667149378e-01,-2.985910495026324885e-01,-2.271642778482005354e-01,2.886843234442564299e-01,4.122141422985629022e-01,-2.172985120229618816e-01,1.292312196137649638e-01,4.138490921779392484e-01,1.709477110272664413e-01,2.982427336181038280e-01,3.408763427447335514e-01,1.595753061351439794e-01,-1.388943811186028887e-01,-1.093908680831986724e-01,-8.153789573786816847e-02,-5.044504901197587737e-02,-2.548486743306813823e-02,-2.311535003246923126e-01,-4.009598258078772015e-01,-1.815448250915419059e-02,3.030724670563186285e-01,-2.383877723264742760e-02,-2.222807496743819666e-01,-1.387400099000020426e-01,1.568131922759452568e-01,2.866729362491883260e-01,8.797729613573573859e-02,2.526685580090681227e-01,2.599616636701679862e-01,-9.119731266029590389e-02,-9.608915861156563584e-03,2.091431143891269925e-02,-6.123162559556087625e-02,-8.748448334719190200e-02,-2.795577632387712952e-01,-3.949220586534799016e-01,2.416861075134625059e-01,1.898173867921957580e-01,-3.385604193990486566e-02,1.588538308598642090e-01,2.363742116025296380e-01,2.333475614069772941e-01,4.080722649836829863e-01,2.870240842757555422e-01,2.325421245343332333e-01,4.052523489845809568e-01,1.966153025914828441e-03,-8.766346292913183846e-02,-6.023833931112819451e-02,-6.570396799304557833e-02,6.030120359772961347e-03,-2.358272822767818189e-01,-5.658205317174971882e-02,9.129589272223670449e-02,3.124375800883034127e-01,-1.054780450083447202e-01,1.322518174241734401e-01,1.374317490021003951e-01,1.955312824662773508e-01,5.167511844017695921e-01,4.441782228211328953e-01,3.915559125703282350e-01,3.125904708356907480e-01,9.422582508046639660e-02,1.187232985077757985e-01,-9.127169470100671145e-02,6.541599034460049422e-02,-3.641393796679801703e-02,-1.811932532720308686e-01,1.949752676225962322e-01,2.406507809570869738e-01,5.818009609226065804e-02,7.599526396587995281e-02,2.487615323559514910e-02,-8.343974390897472559e-02,-3.039480919815714666e-01,4.040718217938185294e-03,2.193523842454121742e-02,4.745581006152862352e-02,1.708484081652844877e-01,4.427194076977201964e-02,7.349097433655917000e-02,-4.261879631463969670e-02,-1.175369353452453657e-02,-2.767439235283726540e-02,-2.877572995535176981e-01,3.154789000598141879e-02,1.194845830701740247e-01,-2.026626741619117211e-01,-2.080812060228528215e-01,-2.657310312196261015e-01,-5.921708431561006902e-01,-2.337839511188783137e-01,6.327570639192846465e-03,-3.069890173328226196e-02,-4.106978801636895771e-01,3.781150975898756039e-02,5.349468112874467690e-02,7.983155477521876320e-02,5.262075750667010582e-02,1.814813371174465659e-02,5.749644750317461223e-02,-2.363854166531473011e-01,-7.865593846071744499e-02,-9.140099029383087770e-02,-6.512881794031825100e-01,-6.260574100940120568e-01,-2.436804399666263332e-01,-3.167592638516632531e-01,-3.631758281716841452e-01,-4.296666802878698621e-02,8.397381795763379786e-02,-9.378575491278233478e-02,1.410720669933900051e-01,-2.729147414516015432e-02,-7.451855888846520976e-03,-9.866618146273010981e-02,-9.073836844963853454e-02,-3.482383201482742302e-02,-1.058361988959258676e-01,1.752215551112689673e-01,6.423969289981656949e-02,-2.339716057923939552e-01,-4.607100235716921066e-01,-2.741131085219563057e-01,-4.839544945841306456e-01,-2.375409112431036140e-01,-2.017076080627379919e-01,1.085523937472271383e-02,-3.251281440979091747e-02,2.339224754985616828e-01,3.387275320151750951e-02,-2.511858058572002950e-02,-1.543417576268630523e-03,-1.981100714390778006e-02,-5.019462208803401881e-02,1.530150685562223778e-01,1.206978817605330601e-01,-1.862036270371720745e-03,-8.219650088310735681e-02,-2.313760668587087621e-01,-1.454447603233441078e-01,-1.064807731630757481e-01,-3.012403099552513619e-01,-9.834160275491568570e-02,7.332755198969281851e-02,1.142725326400769320e-01,-2.710368844485436593e-02,-8.155016203982465295e-02,-2.772118260592782921e-02,-3.348843460550906398e-02,-1.513360644242513209e-01,2.102954697414753660e-02,1.938929578524130337e-02,2.420903272844398407e-02,-2.190495743367954981e-02,-1.302076277519515768e-01,6.029193753413018830e-02,-4.038063116105766043e-02,-8.535693558337600125e-04,-3.638991244461362712e-02,-3.578788097860165218e-02,-1.819563665701181415e-02,1.358728387550241501e-01,3.323639618527741979e-02,1.720168714899916740e-02,4.460049762452776047e-03,3.115999481823931647e-02,-2.131408509770723464e-02,-1.687450520456759695e-02,8.363944242509005478e-02,-3.330837502459773475e-02,1.774911062538272674e-02,-2.666491729786404224e-02,9.057947661221322708e-03,4.986862438882812970e-02,1.094136811311683874e-02,1.739634289939532121e-03,4.064816500528123377e-02,-7.362149755780765525e-02,6.851744609128484521e-03,-9.827187885879955578e-03,-7.806249818303559462e-02,5.600643313393461990e-03,-1.279113231095773198e-02,-5.090464761591735610e-02,1.233476707656746413e-01,-4.725958258488770214e-02,6.193806701959972405e-03,-1.050952551426026504e-01,1.288896073096512107e-01,3.956442522635061215e-02,4.543561773751177840e-02,-1.892962801185858399e-02,4.724891321679671602e-02,2.337522884389456670e-02,-4.232601222343336522e-02,2.160322176214222664e-02,5.050383119624361067e-02,1.289951875350690315e-02,-1.101083144316894330e-01,-5.337237476110399254e-03,8.067330847481354872e-02,8.426346689358611350e-03
-7.695790387992354487e-02,-1.839145212413555996e-01,-2.198513443251922383e-01,1.603541094290358848e-01,-2.104513842013647773e-01,-4.585324262197887912e-01,-1.678841098945156596e-01,1.722995564965177362e-01,4.922836333114163354e-01,-4.613431579332932797e-01,-3.506510300349369169e-02,-8.184932065368749621e-02,-9.888188736474601281e-02,7.949021753400632717e-02,-7.472585132154861698e-02,9.243262954379299901e-02,1.170662887003072819e-02,7.421063532043921385e-02,-1.408937040709773159e-01,-3.221107444931224362e-01,9.015768109528221608e-02,7.942010522223454105e-02,-8.823457010965404801e-02,-4.373119252113908395e-01,4.616610617572445840e-01,2.229628376024585940e-02,-1.300927194850767799e-01,-3.278165665952671726e-02,-8.213577820405150443e-02,-8.199836566284954276e-02,-3.455349642096742363e-02,-1.144123501566631507e-01,1.086898746346797416e-02,-1.296018380977872163e-02,1.214487683034061044e-01,-3.911969836951648127e-01,9.169658268614629126e-02,-6.286725532162975583e-01,-3.088941518440823653e-01,-2.299450387262542139e-01,-7.446088796736621829e-01,5.746793587584431151e-01,-1.982048677582424479e-01,4.211218874503390164e-01,-4.489216954454749997e-02,-4.020793013210343346e-03,-7.162890951933510719e-02,-1.066041123821640790e-01,6.002767654830135080e-02,8.664098651608148627e-02,-1.175104884313232963e-02,-2.996558838903722322e-01,-3.807635361985309275e-01,3.954511049831553604e-02,-2.718384453508621013e-01,-1.981516144671393587e-01,-3.046530299111371298e-01,-4.471876399375695477e-01,6.842924866008600615e-01,-2.212772433188072985e-01,-3.839714078224493177e-02,-6.519942332802633467e-02,-7.844068032385652367e-02,-6.601503815758077987e-02,-7.858518819794575727e-02,9.490845780801571152e-02,-1.733731577110877650e-02,2.335185191643667987e-02,-4.126064521561767506e-01,-3.810394124897223400e-01,7.191632235531134065e-02,-3.577043690059499848e-01,-3.098131701649324277e-01,-2.903618313893697733e-01,-4.752339744979193759e-01,1.141073560022119793e+00,2.638932452549630492e-01,-1.132988348077011292e-01,-1.795588638150137917e-01,-7.715255754300182067e-02,-9.406837289408920277e-02,2.061617319541193816e-02,2.185226282569001019e-02,-2.535500963924167822e-02,-4.105423958362480058e-02,6.880511144140678825e-02,-2.438156480122711245e-01,6.492463594551735329e-02,6.539745003798830281e-02,1.447919658884943006e-01,4.742994854978210273e-01,-1.444032028532832301e-01,9.733609242704818199e-01,-6.661608748465748242e-01,-1.007145709219932739e+00,-1.797578873810549704e-01,-6.859686728785509280e-02,-1.966795459334694587e-02,-2.807109770604400770e-02,6.459213167067072436e-02,6.984023544560945609e-03,-1.010486610109024713e-01,-3.313157075110483019e-02,-1.170502973729936058e-01,3.192459338292500948e-01,2.475426040578342091e-01,-2.095179925951998201e-01,-2.039255959115688910e-01,-3.259232230318144241e-01,9.053058071137618512e-01,-3.264543388799698298e-01,-3.035464581957686425e-01,-1.598807065107270831e-01,-7.207067180398707418e-02,-2.295008636335976043e-02,-4.762331098452493583e-02,1.530435852193375371e-02,1.224258258867611249e-01,1.903336516449075436e-02,-2.403125580816145232e-02,-1.354660334663493684e-03,5.602670414892777506e-01,-4.360532089006547984e-01,-4.496925015218311561e-01,-6.650574752528674027e-01,-8.214650357272520464e-01,3.881928521876096272e-01,5.933086489259756791e-01,2.213263711534428080e-01,-1.676975796788554574e-01,-9.954007137561589336e-02,-2.988821315155004710e-02,-1.094391386030194729e-01,7.778828361388946677e-02,2.801721965062216411e-04,1.536134712121892988e-02,-1.197383211866980268e-01,-1.027958954013742793e-01,2.860970900964264207e-01,-4.611685738444184501e-01,-3.942793074772747985e-01,-2.733075986530457691e-01,-4.245019133523947885e-01,-1.001293201227206442e+00,3.456461896654587362e-01,2.407500052804305568e-01,-1.008122127998734574e-01,-1.180826154652074717e-01,-1.381698552601497154e-02,-5.515454759337431317e-02,4.198476393942368601e-02,1.337009628142135087e-01,-8.705151010557379831e-02,-2.001704218281796788e-01,-5.417306510748604031e-01,1.680923548953568991e-01,-3.170681901844813466e-01,-3.843500748961245495e-01,-3.059951740505501561e-01,-2.573510263751244143e-01,-8.613888271155023535e-01,1.769338783841716833e-01,-9.218317998616809214e-03,-1.895305290657389730e-01,-9.873282946709059649e-02,2.994480263513948221e-02,5.124503841871145410e-02,-8.860004314410212592e-03,-5.739316038342462400e-02,-1.233734947013026967e-01,1.875949921963585842e-01,-5.437155823126413878e-01,-1.021126218150213427e-01,-5.582109902602111484e-01,-3.093931983102740646e-01,-2.936421986258699324e-01,3.296374009999109567e-01,-5.241457815246526597e-02,3.192831738287191246e-01,3.433677601683661762e-01,-1.421580052093764091e-01,3.386348233632222038e-02,-7.469956654593079559e-02,-6.225462145537279807e-02,3.158055704752194687e-02,4.926382254591386151e-02,-1.815751264401796114e-02,2.587039210921004972e-01,-4.731591191531272500e-01,-3.126259684145566431e-01,-3.519399870289711130e-01,1.769757400878037290e-01,7.254555223555536614e-02,1.009720135487579329e+00,7.176861230099366162e-01,2.953958381375488274e-01,-8.473765918148470910e-02,-1.500305230456388528e-01,-1.549469489502394715e-01,-6.995386091685128205e-02,1.868694847492359534e-02,-5.077645873637928048e-02,6.530962978465174040e-02,7.606019330742329332e-02,2.676569119631100335e-01,1.982998891768711081e-01,-4.002317155372956403e-01,1.936638280121115441e-02,-3.817163717326952505e-02,-6.475646512831294277e-02,-8.337489228487336701e-02,2.529485695819678748e-01,6.152387416041963375e-01,-2.948261360141088416e-01,-1.220442434713812224e-01,-9.553219935585439970e-02,-5.405687253318033209e-02,5.890114353248795259e-02,-1.562907065602001100e-02,6.998908061248286516e-02,-2.554191037637799921e-02,-1.047087673663681454e-02,-5.744234586783830698e-02,7.453831414428377638e-04,-1.161276522858598476e-01,-1.610363049298205174e-02,-8.345933817479872507e-02,-7.703265687175659846e-04,5.409749227946446248e-02,-2.104266483071595695e-02,-2.414919151513919646e-03,1.036191488876252592e-01,8.552434896198475578e-02,-5.314541119244887979e-02,1.048468890670105347e-01,-1.060794919942624065e-01,-1.576301807551379330e-02,1.221647328800465615e-01,-7.736352414104588453e-03,-4.646573486775316952e-02,-4.038875278719144396e-02,2.510266884069124391e-02,-6.389901490183512618e-03,8.856725353546413687e-03,-7.197323650976838669e-03,1.755270355312878519e-02,-3.537029790363668130e-02,-1.241895594364985506e-01,-7.362940245724263096e-03,-4.351903898151877198e-02,-6.313756416579391351e-02,3.290576038104884443e-02,-1.315947292533519719e-01,4.749640219241062916e-02,1.089043540845786029e-01,-7.012987195816869357e-02,2.675293833136605307e-02,-4.124189351981644852e-02,-1.786784365883637565e-02,4.308113333971331192e-03,-1.420497435930998496e-02,4.136467812724475834e-02,-3.130085929555398438e-02,-3.224457193467257510e-02,-1.024008789513483619e-01,4.063845593864634509e-02,-5.295555029939471442e-02,-5.014759731077492177e-02,-3.955867942356935951e-02,-2.101687309920416760e-02,1.532462377365773065e-02,-4.878160264559317644e-02,4.574113227037926097e-03,-3.389283540422938223e-02,-8.950066913840390437e-02,-3.018943670772391077e-02,4.292196749412863221e-02,-4.489592567090687492e-02,-1.221498763199630952e-02,-4.407421776752513259e-02,-4.618766810556822200e-02,1.067599141796838659e-02,-9.315274732353056794e-03,-9.810725460292786526e-02,1.403371849010799366e-01,1.366820379695007082e-01,2.844768178008219399e-03,2.532930585628696482e-02,-5.810839109903986888e-03
-2.600874790634561395e-01,-2.815191186710421234e-01,-2.988971102631362009e-01,-1.209821348538433899e-01,-6.147441370209307809e-01,-1.246315003874391980e-01,1.182164373094440751e-01,2.025966956692145937e-01,1.560724453922341937e-01,-3.874859789372551988e-02,-1.134687554541959596e-02,-1.599608402810832192e-02,-6.808295792604515673e-02,-4.645089487187439858e-02,-8.577431761366766105e-02,-3.819944160485720230e-03,3.698309800950985021e-02,-4.531863603315009481e-01,-7.028587992996353506e-01,-2.885794197092684810e-01,-3.304287063412565950e-01,1.744755063650569038e-01,2.617989543257010499e-01,2.517220698560549419e-01,2.971538318422888847e-01,1.904599433633318850e-01,1.127481366673152574e-01,1.217700903028526849e-01,-7.969384454259595407e-02,2.481585534690053038e-02,4.905856443195819733e-02,-2.729707883766599105e-02,3.655697704116493344e-05,6.931965579090067220e-02,-3.888724266812107477e-01,-2.306720045043635092e-01,3.430756753358205069e-02,3.655918881680420562e-01,1.951441452717631864e-01,2.369508668456573042e-01,6.749620035386458272e-02,1.518677078923598434e-01,2.452424294583418693e-02,1.909226433881573703e-01,4.349290246930247877e-02,9.107677951364072377e-02,1.766470198279740389e-01,-5.425187085363070497e-03,-4.407917242483597176e-02,-2.849013042043360699e-02,-1.779018291064817653e-02,1.295938430306053379e-01,-6.056169844100256841e-03,2.169169402715405703e-01,2.201574402613179493e-02,1.037618323540392407e-01,-9.428856317135336784e-02,-1.987064801766499633e-01,6.798177760513655077e-01,3.374047828001744964e-01,3.911324301815313209e-01,4.086401066880258198e-02,4.548507101455387391e-02,-7.223399437734308315e-02,7.050633263375318894e-04,-4.383963330626842320e-02,-3.012056071717281874e-02,3.539336989771809522e-02,1.848472718235891557e-02,2.938929641008345209e-02,2.140573536945195032e-01,7.134391497914858993e-02,-1.289111463918046485e-01,-6.759772969795836695e-02,-2.477812645438706163e-01,-4.206212302942451131e-02,3.688482184018720411e-01,3.478635993770089474e-01,-4.570057676920288164e-02,8.058299260794268837e-02,-8.422810832719299090e-02,9.880972952838670831e-02,3.985381386472904020e-02,6.536915200101768575e-02,1.684012161796248630e-02,-5.877439664392417051e-02,-2.400399692699300633e-02,2.232226366249204230e-01,3.640346439079830687e-02,-4.789254282831031245e-02,-2.545227988829290022e-01,-2.999501432269511270e-01,-2.225463606988688781e-01,-5.119421116379245795e-01,-4.571300164527674070e-01,-5.132167969334786584e-01,-2.883591340463420583e-01,-1.178618224704984230e-01,-4.929958621723278672e-02,-9.439331319556248934e-02,-5.251341920222440951e-02,4.307209495529758930e-02,-5.601935135444092301e-03,1.776029617555843071e-02,-2.572950230953623962e-01,-2.353634828489982733e-01,-4.185629688335150700e-01,-3.934776755219792643e-01,-3.886010050715055231e-01,-3.028187233955238478e-01,-5.903715798416455662e-01,-6.388390489612251200e-01,-4.289592079500872956e-01,-3.305713291001266541e-01,-1.357593755550678405e-01,-4.540948183781846892e-02,-2.014563578662010787e-02,2.410812660556845705e-02,-3.004879374504582090e-03,-1.078545117434508566e-01,-3.945957830047525788e-02,-4.699104234546630510e-01,-3.010709113683324167e-01,-4.736367633611427430e-01,-3.921823408231567831e-01,-4.207561534696500627e-01,-4.850898141472822500e-01,-8.650375827612074575e-01,-9.225156419262319218e-01,-7.449986125506103951e-01,-1.746966620124291714e-01,-7.763018325343609694e-02,-7.678515638060572600e-03,2.023072180194227312e-02,-6.342002779297994941e-02,-1.097911858228459853e-02,1.315108045371484180e-01,1.581253766535897429e-02,4.105471302735325817e-02,-9.869451390029557181e-02,-2.252641829048565025e-01,-1.821162138545532050e-01,-2.518398179360880618e-01,-2.602193047219240607e-01,-1.013209163922805800e+00,-9.599304600651934472e-01,-7.873992338733554197e-01,-3.605155470115421479e-01,-9.187259588062594851e-02,-4.660808038264949854e-02,2.969553593619030096e-02,7.247934641496168832e-03,7.615631704299448412e-02,-1.184911547218159833e-01,-2.107875641576142239e-02,2.324089210753073342e-01,-1.794163727262639008e-01,-1.994305280481169507e-01,-2.113163884643110280e-01,-1.970436524524200872e-01,-9.463069005707222189e-03,-4.508245137987408613e-02,-1.906835686748585001e-01,-1.171831178110062793e-01,4.266715580551431325e-02,-1.048743623195154268e-01,6.174502139583126770e-02,3.125866376985827338e-02,-1.320813583230300292e-01,-2.757693480508078415e-02,-3.875763258958886404e-01,-2.487431836222398773e-01,-1.407277241199066664e-01,-1.483122575429601797e-02,-1.404327285056676533e-01,-1.045305265126373617e-01,-1.418894775064791780e-01,3.027053208276359597e-01,2.548068547216144064e-01,2.717917276624041145e-01,1.133613225718018980e-01,1.389201633266389513e-01,-1.991046107298981641e-02,2.154197401294337746e-02,1.420815386215021695e-02,2.578115182903837482e-02,1.259097695982605916e-02,-5.341338507301599536e-01,-3.167124622554408075e-01,-1.902258151578883338e-01,6.417723922912001167e-02,-2.514456282325787662e-01,-7.712995749229440041e-03,1.993052574863020399e-01,2.180525374407216721e-01,4.788721294238832971e-01,-1.895303297990277164e-02,-1.439077878698813602e-02,-3.823475802855285516e-02,8.771391419159284275e-02,-3.139164004333452884e-02,-1.180339306604873267e-01,7.485127455185931755e-03,6.036848017864120813e-02,-2.403652004720593094e-01,-4.499477373454842111e-01,-1.829990140422526890e-01,-5.660878092730275979e-02,-1.280489153174258800e-02,9.190302855491859491e-02,2.870104963453082858e-01,2.717119230288458365e-01,9.709507791983662539e-02,-5.032570212913723556e-02,-2.400522278332928305e-01,-5.904701932058691038e-02,1.292058431074441516e-02,-7.622269030507339803e-03,1.743665111164394849e-02,3.983231984875294091e-02,6.098010082890283068e-02,-9.894554537844651998e-02,2.983952009951386722e-03,3.165448574723792041e-02,1.050642514151539364e-01,8.128009315038675631e-02,-5.258007672931579168e-02,-3.480457875190029471e-02,4.488166472887402531e-02,-3.934009832007751006e-02,-6.127397888004992160e-02,-7.408481237739858449e-02,-5.692969837529679444e-02,3.868307034574278158e-02,1.133991825170771323e-01,-2.309768469669779348e-02,3.899872135428195108e-02,-2.107814866927781167e-02,-7.978229692975977172e-02,-1.393205918523174047e-01,3.334663620820538937e-02,-5.298449534096392327e-02,3.937349306231308077e-02,-9.225279150513074344e-02,-1.448070288251785409e-01,-2.878186776894763321e-01,-8.731667239003690351e-02,-3.088295862204848419e-02,-1.341684713499872172e-01,-6.365678953837042298e-02,-4.435003177692132398e-02,4.363534888133180356e-02,-7.987440346958382675e-02,-1.144862931500237879e-01,-2.190436535825280445e-02,2.359997720039692937e-02,-3.929713464329414457e-02,-1.009925444937082202e-02,6.214569001441026808e-02,9.452348993500689009e-03,1.934995349360250916e-02,-8.578221395343368916e-02,-1.226087767863527633e-01,-1.225558164420636198e-01,-1.021266826834905245e-01,-2.587142948798555331e-01,2.870256205612868594e-02,1.121563299836788761e-03,-4.893526533050274532e-04,3.017872553683757786e-02,-9.784655919941907809e-02,-4.600375625819486808e-02,-5.154981581947334912e-02,-6.584320070799137836e-02,1.578573882658787161e-02,2.960296354747897138e-03,5.239385954766115350e-02,8.526285480213588452e-02,-9.240639019545795682e-03,-4.110627193520371980e-02,-4.269968033585031658e-02,-3.876218267614291169e-02,-2.505748326545366791e-02,8.912325137025174648e-02,1.724611469520662133e-02,-3.151418135267690379e-02,-2.001281959471481325e-02,-4.334131314461942691e-02,-6.284566160081442310e-02
-3.794115174255022760e-01,-1.886656874937496509e-01,1.366952548574275061e-01,5.812905984938557813e-01,3.147967236598335494e-02,-1.371051286359543653e-01,-4.874345016093713234e-02,6.038981720709167833e-01,-2.253119911161679811e-01,-2.709072997587184117e-01,-2.103241231828083257e-01,-9.737345006693670646e-02,-4.275552589704673112e-01,-3.090942143410163045e-01,-1.465362284189594133e-01,-8.462232270646630194e-02,5.950403252655525610e-02,1.842144362441808930e-02,2.304884241296492886e-01,-5.266689850189314182e-02,1.441693815617841046e-01,9.407447124214726730e-02,-2.877760416857899073e-01,2.555682979797321286e-01,7.332945939098912680e-01,-2.153964525732408528e-02,-3.714007127858093282e-01,-3.472149069380969233e-01,-3.365060341261479349e-01,-6.342042269777958818e-01,-3.223303400095235971e-01,-1.310767568787645776e-01,-3.458195443753884352e-02,7.556600752764236484e-02,-1.766509097244006454e-01,-2.837797347785665086e-02,-2.559453708006674266e-01,-5.494354588795141714e-01,-5.092981778418160556e-03,-1.519914043704198026e-01,3.096890470234044557e-03,3.156284375588090385e-01,3.816007837671627212e-01,-3.692113295882903934e-01,-3.991685029280649943e-01,-5.433181250197235412e-01,-4.584413334041408383e-01,-9.182831036027176708e-02,-7.078872221776967393e-03,4.207614176457507432e-02,-4.512722361174746621e-02,-5.778950043201798170e-01,-7.225409862347981216e-02,-4.350838464050512666e-01,-3.400180418030594454e-01,-1.298823066906707180e-01,-4.651200576972359113e-01,-5.440885375506642196e-01,2.827228779420397631e-01,2.688191970485609428e-01,-5.042694990079935047e-02,3.646778777013700429e-02,-6.840538466520745819e-01,-2.622567501737317897e-01,-1.024832674416979311e-01,-6.953316289254085625e-02,-5.480372598113860544e-02,1.172804202226896686e-01,-4.006282881234031201e-01,-1.128618443040489416e-01,-4.153705356631403611e-01,-2.062293337469599253e-01,-2.909245780026207817e-01,-3.931224485779872269e-01,-5.866912423831047718e-01,4.099427661485489649e-01,3.813671973443515384e-01,5.058482999077861669e-02,6.210457311486947303e-04,-5.331936399167606089e-01,5.938411621613456925e-02,6.798692524071373033e-02,-5.302256355432259649e-02,-2.143167259555587428e-02,5.412684080619667437e-02,-6.700298298478981618e-01,-1.363906911155886859e-01,-3.772137607097043044e-01,-3.910849845045464290e-01,-4.506441361158489145e-01,-4.874591110448122655e-01,-6.295783535955111754e-01,1.961525205116262244e-02,-2.037670341414508229e-02,3.812394228831960663e-01,6.478017891553400354e-02,-3.338958181985912654e-01,-2.657665824082620573e-02,1.725770890262794122e-02,3.450297835177763145e-02,-7.954504373418179453e-02,-1.026079548990637275e-01,-6.067715347587012698e-01,-2.547828949779155309e-03,1.211168720766237633e-01,-4.146395439558332452e-01,-4.619945435670768652e-01,-3.744328439699752820e-01,-5.776052966381237663e-01,-5.365442061488828740e-01,-7.670031609814100815e-01,2.312681996181969457e-01,3.717880525084147486e-02,-2.219751750902159704e-01,-1.137957672581930424e-01,1.802187392700937626e-02,-1.188157613574032240e-01,4.056655451434960750e-03,-1.914693588121768597e-02,-5.754296987543364716e-01,4.175820279893176223e-02,2.225172163066667375e-01,-1.652107247036230520e-01,-4.315228700612875889e-01,-4.193543493688099977e-01,-6.651628154570453644e-01,-1.127265412612377671e-01,-2.259629034102598466e-01,3.630281582637442384e-01,3.254377360449593748e-02,-1.847512950361851480e-01,5.898516268297637061e-02,-1.198117842782504133e-02,1.229647957696314341e-03,2.658511190530110993e-02,7.916382737395238206e-03,-3.099206643418986329e-01,5.186654398609964745e-02,-3.748927887715099438e-01,-2.254015564080971701e-01,-2.838702753778463150e-01,-3.733863029934558209e-01,-5.956509465785294610e-01,3.673251406154420251e-01,4.230832649814361690e-01,3.129461766697491654e-01,-4.616377973833336174e-02,-2.540716025535691980e-01,-1.116434517571859575e-01,-1.038354248271752545e-01,-3.626720484120365268e-02,-8.324704003603267122e-02,-8.748696109492448691e-02,-1.273200908983294632e-01,-1.423288591321775487e-01,-5.057196384912184817e-01,-2.570804673486505876e-01,-3.431331001542630155e-01,-3.926257920840238169e-01,-6.954275770103432452e-02,7.231348768283601958e-01,4.136418468547528038e-01,-3.930815075402108866e-02,-1.771580754328105078e-01,-2.905532981000381598e-01,-1.705672683962593250e-01,6.159048986674815936e-03,-2.417447739377003024e-02,-2.304494911759645895e-02,-1.652965776808407866e-02,1.992530801309890798e-01,-2.018629977062084621e-02,-4.668749768873701189e-01,-2.834854826719993559e-01,-2.908785408086598800e-01,4.281122490464005920e-02,5.146179016097537362e-01,8.222451138828748007e-01,6.023081042454901946e-01,9.271641158933977001e-02,-3.742263206300595613e-01,-2.363742719471311482e-01,-1.979133701444484028e-01,-7.446518732595754086e-02,-1.210680633355872837e-01,3.669517794812921820e-03,-1.063589848807039856e-01,1.940081705477979812e-01,1.196523397873084649e-01,-2.532342779628307672e-01,-7.072836807532728587e-01,-1.325482345248465144e-01,3.129647343007069815e-01,5.973917810171944787e-01,9.425412183303850944e-02,3.908996966898571276e-03,2.661923874561060721e-01,-3.036962338613642398e-01,-2.082723812661883556e-01,-2.664734599702217044e-01,-2.243484502560445792e-01,-4.835116364638396280e-02,3.571398854617051540e-03,1.016143156682789220e-02,-7.004974099578203939e-02,2.513820159737805149e-01,-2.160176999303513867e-01,-1.948459087310547844e-01,-1.890415100269455806e-01,1.198061321186285610e-01,2.625112021680263696e-01,-1.574090222426275387e-01,-2.015990094709847191e-01,-3.192130537932457712e-01,-1.798034623419067501e-01,-2.259663391776224606e-01,-2.181396351737157902e-01,9.149343574233952808e-03,-8.425752704176024677e-02,-2.956554659503715654e-02,-2.459894854511761320e-02,2.098888911097030463e-01,1.375882248186069412e-01,2.807470893198866779e-01,1.957953615710984752e-01,5.376303427386214945e-02,5.100072188316254196e-02,3.919769589967968954e-02,-4.975197651494141227e-02,-4.680945758734664924e-02,-7.217780149496168252e-02,-4.094874318267827107e-02,-1.074054107097290739e-01,4.503595501060092543e-02,-1.445890614924317530e-01,6.152150716967275806e-03,-1.411092952453468080e-02,-6.014238678006707944e-02,8.833334715635006440e-02,-6.221297909436935419e-02,4.193532484810878064e-02,1.477419674012164508e-01,-9.345921541202484306e-02,-1.851293430014050445e-01,-1.124790724955968962e-01,-7.582417641348529469e-02,-9.857273710661620947e-02,-1.706507496069234187e-01,3.428905838754232882e-02,7.184849983452351596e-02,-2.622262525543514293e-03,1.340898390936335911e-03,-3.660279701362427474e-02,4.230623781699044232e-03,-2.096895544279197415e-02,-7.486928973463423398e-02,1.264197284340907133e-02,1.115193478252171286e-02,-4.042205101787312016e-02,3.480048475298651474e-03,7.425513886256522589e-02,-1.086378768011311280e-01,-8.708972602331228885e-02,-1.171426335573059335e-01,-3.454981061199732112e-02,3.279514870228342205e-02,9.328499159042198674e-02,2.506676103951124140e-02,-2.689187369058336149e-02,-5.486011778711839121e-02,-6.048459286680488850e-02,-3.396701148419974808e-02,8.324804565061771910e-02,-9.231215699087160637e-03,8.413330918229698988e-03,7.497885905061521528e-04,-6.606384668400590299e-02,-6.784670949719485977e-02,1.330300812246355546e-01,1.953893755000484997e-02,-2.411972719421622002e-02,-5.614308531772914043e-03,4.202259293045065153e-02,1.047914090372505103e-01,-1.203643454835625487e-02,3.197362379914216179e-02,1.160280483302195131e-01,-4.153793648394564497e-02,9.134545904992090459e-02
-5.746023748500239670e-01,-4.604602099784891878e-01,5.781031995796662715e-01,9.299470842592837405e-01,6.813017039649029716e-01,2.462177776720123334e-01,3.850163523808277088e-01,-3.277117371662935374e-01,-6.400971927067784784e-02,-2.029811394916961748e-02,-1.791798107460691042e-02,4.634131511024764272e-04,-7.994003189568552048e-02,2.098236511794958001e-02,-1.068288494697124981e-02,-7.450629875479822598e-03,-3.473189110756183529e-02,-2.905233612713585822e-01,-1.381369333820199052e-01,4.869877091991358098e-01,7.497982819990827164e-01,6.256192926166729285e-01,2.841665494434348349e-01,3.576146174438786796e-01,-4.393004871603795047e-01,-4.274821772756762783e-01,-1.174546694594022361e-01,3.570951306969695049e-03,-3.560333558698487028e-02,-1.243167497739157065e-02,-2.739204773810368851e-02,3.399952488238283492e-03,-8.365699470790190218e-02,1.404926834792607770e-01,-9.625493824156007572e-02,3.653036163787840018e-02,-8.931550666983665288e-01,-6.860509627940640787e-01,-7.381648470474349022e-01,-4.613245584682843514e-01,-5.022149650837852697e-01,-6.443392503802052307e-01,-6.653099672805308229e-01,-1.425752624523249912e-01,6.894859604561045033e-03,-1.106278082599034818e-01,-2.214153870455934370e-02,2.279795230905233908e-02,-7.275793636645953855e-02,3.609289242670702530e-02,-7.327838889381355081e-02,-5.406033158269187844e-01,-1.379809464333798807e-01,-8.391622058132074402e-01,-5.259623426998779605e-01,-7.259738769814287895e-01,-5.644071093704695619e-01,-4.965834578810899846e-01,-6.089562808869419808e-01,-5.289991614282155696e-01,-3.018609240496153978e-01,-9.419371577544044527e-02,-1.726900271176483315e-01,-5.970724815543383690e-02,4.863958513055053473e-02,-5.919079489545235606e-02,-8.808310875017807962e-02,-4.173281691268349719e-02,-4.564594045261048394e-01,-1.523864188803664144e-01,-8.850625680141600560e-01,-4.756215799352235263e-01,-7.804567661276329282e-01,-5.688016243087669066e-01,-3.557264238118718058e-01,-1.696653927681763818e-01,-2.342191122136535464e-01,-2.026711329830291619e-01,-1.289203067685824600e-01,3.292349363758966668e-02,7.109933044697203108e-02,2.883909280923661889e-02,-1.439194021546231494e-01,-5.420298850425071119e-02,7.568085177419733856e-02,-9.068245494379240101e-02,-9.234804483339567605e-02,6.177332472652887763e-01,8.469087201576647184e-01,5.679408724744861026e-01,1.128178446320940109e+00,-4.331685430070003617e-02,-1.321823552743847565e-04,1.157326059765192289e-02,2.475858974491399519e-03,7.947392196086384974e-02,6.768145137237217834e-02,-1.041401208298865788e-01,-9.785246843245978821e-02,1.270695161723283187e-02,-7.419806627124085618e-02,1.747941524756193828e-03,-2.245946315218254608e-01,2.307362239312100993e-01,9.620480590230692242e-01,8.154708592882009555e-01,8.822901031721891441e-01,8.221570226062958620e-01,-1.925000487526895843e-01,-2.179481217334991172e-01,-1.848071114692307129e-02,-1.955317798405408203e-01,-8.104845808470340085e-02,-8.061158180360937682e-04,1.477338300145411391e-02,2.393137244886816076e-02,6.928106689105310856e-02,4.100801072251940294e-02,4.909400306063640973e-02,9.679467903542680884e-02,3.399746082306868700e-01,-3.918069017114906294e-01,-5.242447366640401452e-01,-7.684225659838455069e-01,-8.937426849225797998e-01,-6.961374684382368727e-01,-6.000384460448945356e-01,-4.936034565799110041e-01,-2.789350472309470308e-01,-9.887067637221166883e-02,-4.054509898954625907e-02,7.855281236194597283e-03,-7.300615601714258163e-02,-2.537578914177819611e-02,3.136075551090990177e-02,9.076323423654719669e-03,-1.155954141416163233e-01,3.316959149347053493e-01,-5.838210461103104931e-01,-5.357442385305437593e-01,-7.802477982761709674e-01,-4.370839702761759038e-01,-3.588391167777611468e-01,-4.271051898611225028e-01,-4.186309422996737917e-01,-1.997050669418831970e-01,-1.246625514660701789e-01,-3.635918516174785342e-02,-1.231979431110369755e-01,-3.008378755393271986e-02,-1.148977067677972759e-02,5.786602502957928496e-02,2.520971087924291434e-02,-4.905816885774616498e-01,-2.434345847802984464e-01,-5.284809228422763239e-01,-5.181771926847053011e-01,-6.615250516656693280e-01,-4.146135208104624881e-01,-4.547435874797868816e-01,-1.596612174340186763e-01,-5.030488051059076593e-01,-2.198261835807911457e-01,-8.474212710035430862e-02,7.009179564932549455e-03,-5.196406340517457229e-02,-3.714310722021072625e-02,-5.561744324319219807e-02,4.479457503359354775e-02,-1.782937682681875070e-03,-5.639536585454588691e-01,-3.800976960466349586e-01,-9.922169456517677677e-01,-4.683104024871978521e-01,-6.152655443014314329e-01,-4.902407582662091645e-01,-3.014397749204130728e-01,-1.547163104573808512e-01,-4.183666015520443593e-01,-2.189621796065985282e-01,-3.145053119783513401e-02,-1.232072327528880573e-01,-2.374486657587813326e-02,5.802699853965175014e-02,-1.128649998213634986e-01,1.237189592097437570e-03,-8.315539794039174953e-03,-2.246331285520558607e-01,-1.315366678086724306e-01,3.930609584920167349e-02,1.216506907692317535e-01,4.271356096479254627e-01,6.656050305663089306e-01,7.231223199968016546e-01,5.671509113665504920e-01,1.014973160276823050e-01,-9.627275918585477890e-03,1.370336006336389800e-01,6.344250985554435174e-02,-3.918769929129994195e-02,1.678496171956307126e-01,2.769704637774286944e-03,-3.966079108523609675e-02,-6.135905327751588895e-02,-3.033407525286365702e-01,1.471476030820120795e-01,6.081239337984283705e-02,3.917071473392065295e-01,2.871239167125666514e-01,8.936209356931278103e-02,3.862727536426942554e-01,9.246613851174941834e-01,3.853341140830129352e-01,1.190404910786756337e-01,5.302301225327363948e-02,-3.835810965747612350e-02,-1.029833250588436389e-01,1.251131628657619829e-02,-7.738914233907397307e-03,-5.818367975365678485e-02,-9.890635213673433512e-02,3.975073438502467471e-02,4.953472097006659386e-02,3.216199453571399330e-02,1.058510403425504814e-01,-1.292827575478000014e-02,4.652026618273058522e-02,8.629025619545671599e-02,-7.666111827363975006e-02,5.256695652775836280e-02,-5.542743209097022311e-02,-2.990330326831664581e-02,-5.506259716037475993e-02,-5.813693267573372819e-02,1.845784405553572288e-02,1.314794246254896437e-01,8.712344925928776351e-02,6.196310914321422753e-02,2.242819494317757623e-02,-2.048259302514089664e-02,1.065749152677016309e-01,-1.366584770187318117e-02,-1.519964234568379514e-02,9.842944422100260299e-03,-9.984655111066252642e-02,3.423394266610439718e-02,-3.219082061039984545e-03,4.133568797827552599e-02,-9.537218483805952329e-02,-6.980706984735909892e-02,-6.969384073660128687e-02,2.055386160654079641e-02,8.289725203716008517e-02,-1.304264677368938974e-01,-2.726277824650599063e-02,-1.655333046846907061e-02,8.711177567918271247e-02,5.864050378907584987e-02,8.537260682579239646e-02,3.051625830509202900e-02,3.606147271121921960e-02,5.236892010118677360e-02,-6.904014279356872341e-02,3.288083746671509322e-02,-1.835696278276202076e-01,4.355718623794015837e-02,-5.673970977717878589e-02,-2.258303695695113023e-02,-8.084030260123942213e-02,-5.711514742483221607e-02,2.697073067733951959e-02,4.247395430422881007e-02,-5.732639474035927142e-03,2.282329549478996980e-02,-3.703290836879746806e-02,-7.478922749145404392e-02,-2.246039649413736697e-02,-3.350333430736681523e-02,-5.967757442072212093e-02,4.948805331684594938e-02,-1.121787541984213959e-01,-6.643818065942712348e-02,2.865108490642499436e-02,-3.349893253073382010e-02,-4.623065848272147477e-02,4.183119374114421113e-02,4.520641505348371725e-02,-7.183781142338264980e-02,5.290039298532717149e-02
-5.490946862863920197e-01,-1.225287985270316210e-01,1.691043529938963674e-01,2.824823453041433452e-01,-2.868115684717099101e-01,5.682587368415300544e-01,2.229392533387299646e-01,1.115557925855115845e-01,1.748249188284626832e-01,8.136912681185960727e-02,-4.498060865279125686e-02,-1.012279987960833100e-01,-6.639480753975605162e-04,-2.378216526671342312e-02,-3.485439986334865070e-02,-5.879227798259643823e-04,-1.420410026202442999e-01,1.568567634484166473e-01,1.810565410471271647e-02,-2.570417871516608721e-01,4.370523391103749988e-01,5.333102199146524391e-01,6.181868304605850906e-01,6.620997367368824937e-01,7.024337901142728713e-01,2.521206796373636760e-01,4.222252309919828361e-01,4.398449840601834082e-01,1.580569762680563220e-02,-2.191680872073226496e-02,-1.117696553168397583e-01,-6.765493762678848055e-02,5.840443858297315882e-02,2.934479506973703550e-02,2.279072715868998011e-01,-1.388069683029740653e-01,4.100887417914997890e-01,1.187674158720501277e-01,-1.887254259900027209e-01,-2.497168630680821413e-02,-4.507928513244437441e-01,-7.780702481353166666e-01,-8.177313348191251885e-01,-2.878128875762911432e-01,-2.649582708059126102e-01,-2.320045436106540349e-01,-6.118838923580638411e-02,-3.652951466623562821e-02,-8.191756595726173984e-02,-4.747792717953292635e-02,3.499970067256325673e-02,1.491264869896268552e-01,-1.178742541526460186e-01,3.767207410205203333e-01,2.885337580629900034e-02,-3.693228783936967075e-01,-1.738798777448811450e-01,-2.091557978995702838e-01,-7.814498829370822852e-01,-6.616679196531995988e-01,-5.934723118506762818e-01,-4.008663500252007128e-01,-1.233066666660063010e-01,-1.204353182066622736e-02,-5.095187512056734841e-03,6.919077088735887948e-02,-1.813249865751533768e-02,-3.698570217422312428e-02,1.748512525004905505e-01,-8.645133870539199739e-02,3.433141358400849663e-01,-9.147917564467614171e-02,-3.318066866295232287e-01,-1.677699489140181341e-02,-1.030331462015397909e-01,-8.726144536709086186e-01,-7.152385759279834554e-01,-4.238929133241584601e-01,-2.929597242422489201e-01,-8.350914492885740115e-02,2.718787521394219406e-02,-1.063486391182659613e-01,4.307904301708488648e-02,6.739808729963676220e-03,1.094328892085032201e-01,1.972556485965019646e-01,-1.148815059113970777e-01,2.539298231891521374e-01,8.278351065957479937e-01,9.329707115763556935e-01,1.187648527709248558e+00,6.236551687521639797e-01,-1.833756456489488984e-01,-5.707458299466060536e-01,-3.665779093333158545e-01,-3.053160004628437951e-01,-6.934511369480129972e-02,-1.173510667281663609e-02,-3.887965876866501802e-02,8.254622823855644817e-03,1.799779725617889001e-02,-4.477180045685485998e-02,2.190083025620174206e-01,4.430964121304869379e-04,5.930695773064767473e-02,-2.799961942939873522e-02,1.092345390535240379e-01,2.738028114981674310e-01,6.668354663085495071e-01,1.957911225654633824e-01,5.489199910908805213e-01,3.209307176773822379e-01,-4.852495246014604247e-02,-6.065779241120718840e-02,-6.393914620017882022e-02,-1.025949099656189578e-01,-2.247283183326640593e-02,-5.017707360355607056e-03,3.436056248249515221e-02,-3.954653787317859992e-01,-5.306011522322545693e-02,1.422220990321722278e-01,-2.178244720672787571e-01,-4.386213945023627048e-01,-4.328901274398301857e-01,-6.069108948818633387e-01,-5.491735270742206243e-01,-4.106934148799152862e-01,-2.436042371763278425e-01,-1.881897367681069633e-01,-3.990139825830322368e-02,-9.482934769988482851e-03,2.831630181174276187e-02,-2.667835902355503164e-03,2.196099750446920199e-02,8.288977179112895499e-02,1.995601745300886465e-01,-7.870066266852884795e-02,1.814231719503154872e-01,8.182102577113083142e-03,-1.779643570706084810e-01,1.168296240368231625e-01,-5.173533664796216014e-01,-4.440340057857052325e-01,-3.016604016338936822e-01,-2.091565699266542400e-01,-1.617708512979065538e-01,2.450338517530996005e-02,-8.372057046063141605e-03,-8.347816684959007139e-03,-5.768525459695331842e-02,-6.154044648804033596e-02,1.612312755516370029e-03,1.480275161359425329e-01,-1.836682919483459062e-02,3.582324525632560319e-01,-2.594687158959790504e-02,-1.896396792286372535e-01,-3.351702790547042565e-03,-3.040854389184473039e-01,-3.483069278522647472e-01,-4.260893365067494609e-01,-2.705328929330268473e-01,-1.606457065826319974e-01,-6.797759226669886079e-02,4.549313235857176813e-02,-1.812201934660543842e-02,-5.060698879152221441e-02,5.360951785064074770e-02,-1.013039767722951484e-01,1.750305182108894131e-01,-2.393811289045815471e-01,5.591977305193885500e-02,1.405113880280638439e-01,-1.747263029801321976e-01,2.804169624835510244e-01,-1.835120891985538294e-01,-5.227143073182606292e-01,-5.607852714564619534e-01,-2.382296913280905204e-01,-1.664183142564145124e-01,-2.384956805183940098e-01,1.223982006142402927e-02,-5.012191488329128392e-02,3.678476839656754510e-02,-8.164847935829823433e-02,-8.853262735878275613e-02,-2.617214751118516203e-01,-6.189060326478761365e-01,-3.498656848844945433e-01,-8.815954974909855357e-01,-1.064165180442029790e+00,-6.673048989662510033e-01,-1.198243141371302167e+00,-5.345516574462109149e-01,-6.467490667342824517e-01,-2.694511710341044308e-01,-2.332386622371619145e-01,-1.892580345892579952e-01,-6.848064078391009890e-02,1.043063788936891556e-01,-6.361915157051037384e-02,2.217452605242955718e-02,5.120066159035347592e-02,-2.009853531154306983e-01,-1.890278696446782980e-01,5.710226487666467676e-01,-3.308015603103161006e-01,-5.806953447905951471e-01,-5.976433460281880272e-01,-1.064983848553643808e+00,-8.866613840975170469e-01,-5.336844474716724296e-01,-1.563932298562510925e-01,-4.725567758253967909e-02,-7.038612836867699785e-02,-9.833394904657316582e-02,-4.221426572321668180e-02,-8.554845247470253822e-02,-3.015621952062806296e-02,3.983782589190912327e-02,4.230587138434221267e-02,1.315494058731624116e-01,3.848026115884879694e-02,-1.435869671313773355e-01,-7.593352429948874160e-02,-3.222599763082036051e-02,5.336981125656494948e-03,-3.006737998723962857e-02,-1.778047198602475225e-03,3.983072215599481672e-03,-4.237022730692228262e-02,3.826508772426812782e-02,6.439261070305603296e-02,-7.378025628860694629e-02,2.422203622760061778e-02,5.751389602087118857e-02,-6.766538198224505973e-02,8.049282153197792611e-02,-6.099316963391493429e-02,7.459402505018167262e-02,-7.397590583754547200e-02,-6.533508686092852347e-02,9.788858114843566882e-02,-5.091059674336118057e-02,-9.466052694859924954e-02,-6.707300893425117982e-02,-2.188470468975014030e-02,3.618532786438189569e-02,3.221148292213840691e-02,1.971892726998366319e-01,-9.368775499522476180e-02,-8.845384767967905126e-02,-2.545490939329572017e-02,1.349666798020846686e-02,-7.188191630782213293e-02,2.863669205760204645e-02,1.326501084980176090e-02,-1.925992213976576370e-02,-2.093473328251931401e-02,-4.259894481224549279e-02,4.214737959747400647e-02,-3.449637287937663919e-03,2.236233849235038512e-02,-6.226062724327372649e-02,1.268721879738999962e-02,2.260743110092599054e-02,5.457249606660263819e-02,2.080989034161753737e-02,-1.977479413533730565e-03,-7.141864157454552720e-02,-3.464346096586244650e-02,3.444734823174040728e-02,3.912612340340407974e-02,8.642401786949419767e-03,2.722234136258052870e-02,-3.692588076797254093e-02,6.304401701639379685e-02,-6.354159380443176811e-03,-4.290676347383906575e-02,-3.472038090944664767e-03,-2.910647306547363769e-02,-1.830550891853163428e-02,-4.081616359014086926e-02,1.377972507103100153e-01,4.343651080172689083e-02,8.085139681213671103e-02,2.164056054211045341e-02,7.011623317186754800e-02
-1.821715192508650827e-01,-2.764250023324166250e-01,-1.767856909003315546e-01,-6.768221329768919770e-02,-2.858608187993257332e-01,-1.554247289815803394e-02,3.090936590342260523e-02,-1.572115178524024215e-01,5.854891785792421671e-02,1.162515660290492914e-01,7.360791181471910971e-02,-7.257918815745886820e-02,-1.732297602046573709e-02,9.517097607091232203e-02,2.561469534161835843e-02,-4.668619348021351562e-02,-1.294676007845099730e-02,-4.468272218600287671e-01,-6.065198183879019211e-01,-1.704967348362117774e-01,-3.642539885747544254e-02,-8.401959637311311180e-02,4.969068329021245761e-02,1.455825937271343351e-01,7.127227683100520461e-02,7.489077553977380175e-02,-2.499779676758266955e-01,-1.625657664720480400e-01,-9.061899104588643297e-03,-6.150800168268690665e-02,-3.767991882856010135e-03,2.253957368100829774e-03,-3.528790144398968182e-02,5.293456358029854925e-02,-3.588832555868756158e-01,-3.123933818336619428e-01,-4.029553226091965590e-02,1.554325162037471508e-01,-3.681190780948129931e-02,1.630437480876074374e-01,-8.848192005271786342e-02,3.311701511381394680e-01,1.584985219778173582e-01,5.871729159931785708e-02,-1.091570439201203502e-01,1.033462893502015700e-01,3.846552416158649512e-02,3.686164152607846606e-02,-1.083495798162432133e-01,8.916340178563343655e-02,-4.931786513510034997e-02,-8.213254958396881689e-01,-3.908679268411315300e-01,-3.855509521362184278e-01,-2.520479228407294658e-01,-1.461698860865288108e-01,-7.505069982717359200e-02,-2.830234587860966378e-01,-3.104986301997520459e-01,3.422861038147416435e-02,3.517195474711240499e-02,-3.995556801785579704e-02,1.285038851231524171e-01,2.322196811111574555e-01,6.329856391716232045e-02,-7.591127478793244232e-02,-1.429894398748250521e-02,-6.665878559854969410e-02,-1.161848397075586070e-01,-1.593642079376666743e-01,-1.550218332088442452e-01,-4.361846323333168907e-01,-3.017752005141499660e-01,-4.449290538773664760e-02,-2.760272405316932520e-01,-3.146845883102820096e-01,-5.972253209787046213e-01,-5.783091516522287368e-01,-5.191252746363935744e-01,-3.228818602384366798e-01,-1.180126995953815899e-01,-9.991769180348573920e-02,-3.964979010485545491e-02,-1.523542213477050711e-01,-5.861064385994077530e-02,2.087030980359171617e-01,3.096131235541629140e-02,-7.961433078910488959e-02,-4.440644514270565835e-01,-3.251938306086952224e-01,-3.151601610932314168e-01,-3.980538251337177313e-01,-2.970019375157799124e-01,-5.246621323485749500e-01,-5.463383648415933713e-01,-5.658766187360777522e-01,-2.163741304836451218e-01,-2.303048902502140283e-01,-3.273521617930746919e-02,-2.411142408887343228e-02,7.686342780204888370e-02,-3.207120060131915008e-03,2.989051679102374126e-01,7.041634918938383114e-02,4.535171037914235703e-01,-1.697747269678943349e-01,-3.353412060227716207e-01,-4.356464538822352739e-01,-5.545493927868864192e-01,-3.879777282430207919e-01,-6.077632978736938751e-01,-6.635834690996766927e-01,-5.658872351604247175e-01,-2.178524211671948041e-01,-1.770292851184989413e-01,-3.892667070975189270e-02,2.044416069377988886e-03,-5.167894400336702637e-02,5.552612001128546387e-02,2.027443129859335391e-01,1.600521644025557078e-01,6.177661810025063538e-01,6.962913855485693138e-02,8.614321609374121780e-02,-2.344858351250616313e-01,3.240668242247131681e-01,4.262679449083610628e-01,4.498264818172975077e-01,5.533693693562085070e-01,2.313355382517691960e-01,2.409620921675350302e-01,1.877946263962465279e-01,9.109938949108890155e-04,-1.537749834183811844e-02,3.370079529048906203e-02,8.389455243198559731e-02,1.675846706584480095e-01,1.004209320438795849e-01,3.846648816802349380e-01,-1.321271762362136171e-01,-8.475930833194361691e-02,-4.199246726316500922e-02,5.068257578647768213e-02,2.546051318963719542e-02,2.689217030834579747e-01,3.535915692768790142e-01,3.155787914995119015e-01,1.848278423133296600e-01,1.449073209692090247e-01,9.591688932315481364e-02,-4.149179926676298258e-02,9.892958953814114109e-02,1.559390513745297253e-02,1.197550838516856370e-01,-8.698476078603775696e-02,4.465405296681335123e-02,-1.761382158363691552e-01,-1.491282923405167216e-01,-1.119857904963741657e-01,2.263811182627280955e-02,-2.573001766610495955e-01,2.031089314871688534e-01,6.899076708891151155e-02,2.543795017565740890e-01,1.691965789585521962e-01,2.574804462958470430e-01,6.249538625455459268e-02,6.026636521791352979e-02,6.430802848088047058e-03,-2.416084085831995618e-02,-3.065637146988764994e-01,-1.891858928520424310e-01,-2.095577301729033282e-01,-2.750558925815485556e-01,-1.212918951476027046e-01,1.271464697239308925e-02,-1.009207952735800135e-01,-3.443296180210926871e-01,-9.538811275757340391e-02,-1.745222376206261583e-01,2.915860370548395974e-01,9.863961251515700190e-02,1.670841831968034041e-01,1.306727495017417362e-01,-2.279550635673475295e-02,-9.738766452395523215e-03,-7.487121865430217127e-02,-4.738325686337978571e-01,-7.157814287082800431e-02,-3.157150772221471446e-01,-2.610780040165616156e-01,2.538923982049508532e-01,1.163139856365371511e-01,-8.985763202771802904e-02,5.311989016691020561e-03,-4.749005187330680028e-02,2.931458241644444573e-01,4.055567752167937301e-01,3.965754143929449693e-01,1.966329245603836984e-01,1.581693884432580910e-01,-8.918967301259327074e-02,-4.232951000521270601e-02,-2.095174879743963436e-02,-2.979804780419281762e-01,-2.809754507398460888e-01,2.046859274754900260e-02,-7.184797247698088141e-02,4.994067087742915662e-02,1.383154011206459352e-02,1.120739424222248759e-02,3.474874831082735982e-01,-1.204462169123083209e-01,6.213410421568730246e-01,6.782884788143554999e-01,4.190520930652069098e-01,2.551393972902071261e-01,1.857153224944166348e-01,9.030676551627052351e-02,-7.003995869133526619e-02,-6.133924047433956389e-02,-1.145377682436694300e-01,-9.531977699049569430e-02,1.011026242773545303e-01,1.564632416807704707e-01,8.302769499195034042e-02,1.108384322313035880e-01,-2.776457217804858754e-02,4.155122250106522280e-02,-1.529729930248854841e-01,1.384844082643701679e-01,3.146368290700751746e-01,5.190105954976031305e-02,-6.775193977857888947e-03,-4.824864381401183788e-02,8.236449449857981275e-02,2.910804857839759813e-02,-1.213264804982553888e-02,1.000042354192518385e-01,6.095501913609681355e-02,8.408083215072913175e-02,7.117595628835451937e-02,-1.958336146595760982e-02,-7.412009851829838569e-02,-1.276274777086107426e-01,-1.751567289769103974e-01,-3.864649824281427698e-02,2.156167253405064793e-02,-1.381649253262867139e-01,-1.070222742877377786e-01,-2.001204057701254022e-02,6.058218898101790616e-03,1.971306862489916392e-02,1.555301049340728214e-01,2.980267451382880017e-02,1.294787774640424050e-01,4.976277711309686630e-02,-5.025118396134974075e-02,-1.201337186547054257e-02,6.531780243113036177e-02,-1.134779578345084805e-01,-1.357841224058927050e-02,-1.212858177131293930e-01,-1.827103280875239377e-01,-2.062295751791689280e-01,-7.951251590208271991e-02,-2.371579059594872141e-02,-8.158308417525425571e-02,-3.027558974507686684e-02,-2.199688009775259412e-02,7.573657671819379773e-03,1.715157949026159187e-02,2.866763329239909591e-02,2.199634374002631260e-02,1.178451463655725701e-01,-9.926238112362135990e-02,-2.224991838017132198e-02,1.212007506791120542e-01,-5.403734633713929564e-02,-2.731980418174171157e-02,-8.876645314721148816e-02,8.270418859044474658e-02,-2.083382445749890760e-02,7.485640159862579079e-02,-3.512769453071674930e-02,-9.140484411206994952e-02,1.278094831941935794e-01,-2.765915875916116762e-02,2.704243716021849375e-02
-2.172793630792322836e-02,-1.162989476747370576e-01,-5.313700174335504040e-02,-3.878978694245618919e-01,-6.171717326385155467e-01,-1.004832830436323654e+00,-1.011035544316886359e+00,-7.971231948295813829e-01,-3.103759258742944116e-01,8.281429324917378987e-02,4.635279605654705343e-02,1.474805111595514640e-01,-7.628182230135555075e-02,-3.854832549278376652e-02,6.706791204997089584e-02,3.320874302945655415e-02,9.914028374315191072e-02,-1.936866240773373049e-01,-2.503288531141077411e-01,1.860534588770553985e-02,-4.999309711990578275e-01,-6.465484709901120342e-01,-8.004207883737803897e-01,-7.229041515941083684e-01,-7.887618618684986149e-01,3.198155004804349028e-02,-2.191155709909061167e-01,1.312973781190117199e-02,-4.608857173116163303e-02,2.680397354640490226e-02,-9.599689286576099101e-02,-1.443851843598241702e-01,-4.421233825013891339e-02,-2.072760494825788558e-02,-8.717088133768180480e-02,-1.480040433118555432e-01,2.012967953093586226e-01,-2.890764186953254655e-01,-2.754317066817915660e-01,-3.792095476872231474e-01,-4.366874479089580818e-01,-6.362001066063179833e-01,3.177164021891960566e-01,4.860313264065435623e-02,3.182838684495482851e-02,-2.261887646582023959e-02,-4.816490160037945750e-02,-2.653173473286285500e-02,-6.860558627084601367e-03,-1.897330502771368832e-02,-2.377478641462139886e-02,-1.543104653383542413e-01,-2.763818843040326545e-01,8.912852372353842478e-02,-1.469703237236015259e-01,-2.444883075126936534e-01,-3.570714109684429149e-01,-4.936395078516734314e-01,-5.729677450759667057e-01,4.001031517720891051e-01,-3.789183477192215044e-02,-2.305481688385559863e-02,-1.312275669464414707e-01,-2.365392435245374514e-01,-9.020315264405993905e-02,-5.003995150897672800e-02,3.240717634471644570e-02,9.656404168180546255e-03,-1.736341829770002010e-01,-1.069452272315362940e-01,2.015479411005001442e-01,-7.674214742507200204e-02,-4.668445552649085895e-01,-4.828397231664270928e-01,-4.583938915305534323e-01,-5.721140960202896197e-01,2.352045431022496136e-01,-1.163845390791277135e-01,1.275609799877261696e-01,8.345817150544741769e-03,-1.704367606256849410e-01,-3.150559727705177625e-03,3.259687069026116074e-02,-1.254161803844487666e-01,6.680280047759647177e-02,-9.882411007876680531e-02,-1.254969440707716655e-01,1.558784261757808209e-01,6.101661675223757353e-01,3.962909131986588340e-01,2.218487526235081719e-01,4.586196929216542761e-01,5.644806752660468385e-01,7.013566265760790008e-01,3.191809435815599616e-01,2.470934036979572646e-01,1.914009598487133312e-01,-1.390678938709132006e-01,-5.372619231568669801e-02,-3.286257956837696642e-02,-6.368332345717368781e-02,-3.274086722991800813e-02,-1.597897341281376005e-01,-6.325536747124135828e-02,1.409708529595738724e-01,5.922723168113923631e-01,4.182020294409666827e-01,1.702267615391183930e-01,7.350393563679782916e-02,3.341745066307021950e-01,6.870291701373919535e-01,4.787458379832061905e-01,5.934648858108305669e-01,1.620735612908744405e-01,-1.230408685241054512e-01,-1.161472221568437685e-01,4.567958284248353762e-02,9.330740177481383624e-02,8.398499302308954154e-03,-1.660792611849700451e-01,-1.225724904412403837e-01,1.892627276303462114e-01,1.382060949839933328e-01,-4.142480963296703983e-02,-4.406341570473238933e-01,-5.249722413239672481e-01,-6.306027333679748992e-01,3.219761669286270167e-01,2.379787368727837860e-01,4.471085331279798791e-01,7.948183032658702463e-02,1.184755121750713687e-02,-4.619977791752445662e-02,-1.014143001849442394e-01,6.409660225035902770e-02,-1.185114836120940429e-01,-3.690477585004036526e-02,-1.589879501349741042e-01,6.112005656043387192e-02,5.631430166453782471e-02,-1.397642931487877438e-01,-5.634055732702027974e-01,-5.882154959082515067e-01,-1.008022308776381326e+00,7.017761667579287821e-02,-1.022542859020004191e-01,1.245622040535626363e-01,1.967780294430337418e-01,-6.380896286799569994e-02,-1.129616176248714535e-02,2.442743696563259848e-02,2.265506008290725862e-02,6.173819237322521192e-02,1.711501199461947509e-01,-4.345490746892381045e-02,2.083741814973522621e-01,-3.198249635420691989e-02,-1.666872946080005247e-01,-8.664147562717269824e-02,-3.809367367711772867e-01,-8.344678674502445936e-01,2.071217844912425221e-01,-1.316255595569639503e-01,2.707786664137588201e-02,1.666014641854267064e-01,2.906592671964591812e-02,5.444137914299396891e-02,2.233456591205057115e-02,-6.348461193654700296e-02,-9.027269093594988969e-02,1.350793721334626329e-01,-1.729846699303260460e-01,1.211418060625308046e-01,2.792843500159462172e-02,-4.313624143891605506e-02,-2.091757073873652673e-01,-3.471164050205957641e-01,-9.160305599074916039e-01,1.531263882147556044e-01,-7.730962708985862630e-02,4.125523845727568917e-02,-8.436775609050851943e-03,-3.767460697501132192e-03,1.540863878061190725e-02,-2.121458418414525968e-02,1.525896152139987194e-01,-1.866654842403872236e-02,4.516661222348197086e-02,-3.312130927744924569e-02,6.791206574581815092e-02,-3.784243004182599734e-01,-4.174918547254002354e-01,-5.424510429610219786e-01,-7.208382552526275688e-01,-1.032031982884191956e+00,4.559024870537587981e-01,2.443471855560812311e-01,-4.322489307863128932e-02,7.017330483322949120e-02,-1.624231349509629718e-01,6.414138046632919532e-02,-7.106863015480446855e-02,-2.678287658545399144e-02,3.032204389056246743e-02,5.560471931193326778e-02,5.435403663487459874e-02,7.902770672992152912e-02,-2.935988516745188792e-01,-4.406228816806125326e-01,-6.141086849041974549e-01,-7.305607803663365374e-01,-7.102843924923420982e-01,1.568896661702484652e-01,1.778633486969342647e-01,7.734692507899666725e-02,-8.580908367481407395e-02,-3.282788432215068969e-02,6.224486246260615974e-02,9.101875817492277587e-02,-7.335574130930895553e-03,-1.473131949440187848e-02,1.303910619202725552e-01,1.187356839620204718e-01,-2.205005877067279380e-02,-2.157929348739807962e-01,-1.648378684115552051e-01,-2.132786024277786019e-01,-1.758887723044679774e-01,-2.834086835908571911e-01,3.133578737903698619e-02,9.971919444008957301e-02,1.905081194839394754e-02,-1.282140359730957451e-03,1.182866936354000538e-02,8.842062697931965531e-02,1.247264841956863407e-01,-2.046824442685313966e-02,-6.027024907272903256e-03,7.422258538312656584e-02,-1.848560063748197480e-02,-9.844412369780693173e-02,-1.228403425730637162e-02,-7.364751030743056648e-02,-5.979561467951859804e-02,-3.987072359131826893e-02,3.076948164607092376e-02,1.001209059675206917e-03,-3.086345574769841157e-02,1.058094749425298048e-01,-4.724157186139334164e-02,3.709747518070745376e-02,1.226564578490840496e-01,3.814270399945580287e-02,-4.153200693622700890e-02,1.537035147550075073e-02,2.651114642351127051e-02,2.039839992576561803e-02,1.704143430328949969e-03,2.142676747090254200e-02,1.286649049236350713e-02,1.745312646966142023e-02,-6.770963201725842262e-02,2.495282423463993440e-02,1.150119900072799767e-02,-1.199798464250672742e-01,1.846507311166412438e-02,-1.981522159993370086e-02,6.595289053618434705e-02,1.222837124206723738e-03,2.864522727796468826e-02,1.023229045688102828e-01,7.207791686942555121e-02,-5.243175598163359215e-03,6.616376051611552733e-02,9.532982863629307912e-02,9.745477728380010085e-02,6.927080976752073016e-02,2.866608845432795996e-02,-1.491376805746458256e-02,5.505407356655630385e-02,9.699332271615017376e-02,1.056634573141430541e-02,1.919109062364400542e-02,-7.572567126353847711e-02,1.271311147025743632e-02,6.060785763233291629e-03,-5.975609748596263232e-02,-2.917474998994318280e-02,-8.409995557650760956e-02
-1.098813264028312142e-01,-2.464014749766244849e-01,-3.760938431100674384e-02,-6.155523277960079920e-01,-5.302748997106238038e-01,-4.899135317452320559e-01,-4.874236264468850832e-01,-2.513009434079623849e-01,-8.939757489016424141e-02,-1.703279921091705937e-02,-3.657099302886816089e-02,-3.236348802392759183e-02,-1.875107045233562544e-02,-5.475524858763231723e-02,3.057905578116560177e-02,-2.617568004994399317e-02,4.273890245310961455e-02,1.381998668878473002e-01,3.112940102389720742e-01,-8.817810953419092934e-01,-4.796289441209892201e-01,-5.329547725941553571e-01,-4.624317349598264792e-01,-4.616344070714895609e-01,-2.615318647339950342e-01,-2.056070262513691183e-01,-1.620651904653126474e-01,-1.908768607616120536e-03,-1.056192032713834487e-02,1.259686691957906043e-02,-2.603459975381617816e-02,2.536492020940905173e-02,1.489347364292541859e-02,-9.493933203272343635e-02,-4.315486848050838903e-02,6.853915405810689920e-02,3.518666638945047165e-01,-4.955897808764148094e-01,-3.781020468507901855e-01,-1.917283992950408467e-01,-3.176916734957052624e-01,-6.285312243620605477e-02,-1.808929490345777269e-01,-9.401308615865573703e-02,-3.375051916664435075e-02,6.879144739215539706e-02,-1.343014622741155462e-01,-3.402709980075172350e-03,1.524473249456725354e-01,-1.508635166229970771e-02,5.646764883184406548e-04,-8.234308945976827332e-02,-7.569937259262964936e-03,2.285196231584310234e-01,-7.579139135662808606e-03,-2.027447777405118334e-01,-1.494765700430975008e-01,-2.306152670088756074e-01,-1.798113303510377736e-01,-2.396436470884680814e-01,-1.463995566370549228e-01,-9.258353588506969267e-02,-2.227552857440528999e-02,-3.977340964623858610e-02,1.901744858704311134e-02,1.063011964147556401e-02,-4.717367954546199810e-02,1.228617631637593695e-02,-1.920776234851055142e-01,-1.439162380782271419e-02,5.063317618452198854e-01,-2.716016776863829363e-01,-1.805672433662623144e-01,-1.635397930386399690e-01,4.263281877469833614e-02,-1.508197450209919077e-01,-2.149965120891656478e-01,-2.247159500183326664e-01,1.092705445366252449e-02,-5.722646094388898069e-02,-8.695506256441837278e-02,-3.507951862245635606e-03,2.004182303920818906e-02,-1.186488335569880689e-02,3.190174866710002860e-02,-1.276989948102048578e-01,2.931202711758688906e-02,-9.157898319275050714e-01,-5.395901164919462145e-01,-6.390345070374580105e-01,-5.508853235395386738e-01,-4.598155701014730035e-01,-1.713943997506726102e-01,-1.433149107678683698e-01,-1.751912523381118636e-01,-6.877174694598593707e-02,5.302682957039881774e-04,-1.784180558598673083e-01,6.074254992686418247e-02,2.485973766377368947e-03,-3.256316076174871083e-03,6.550833526538833718e-02,-2.021534550742206879e-02,-2.603186638378362019e-02,4.007476063315633108e-01,-4.371378909251553146e-01,-5.151301708925689615e-01,-4.212740997787280395e-01,-4.178049778628000754e-01,-2.035525955479880744e-01,-1.666399827189758154e-01,-6.229763863617490682e-02,3.918864135288811085e-02,2.267635306226846101e-02,2.279484929871958276e-02,2.074914264083013021e-02,3.392251948513352877e-02,-4.918781088902365178e-02,3.021843864839364804e-02,-5.528114978156591086e-03,-5.419303194489642067e-02,6.395731606430449245e-01,-2.989843064011014628e-01,-2.740486928291953617e-01,-3.502026397553393289e-01,-2.200431852646626552e-01,-1.402343618557066740e-01,-2.013817398937386982e-01,-1.645922621936761129e-02,-7.839115662964581122e-02,-9.167936024213306501e-03,-4.173847718298866888e-02,2.751167574443558542e-02,2.362816177123941777e-02,-1.443866766714977656e-01,-1.100907293770302386e-01,-4.312471608705903403e-02,9.543434637266468012e-02,-2.724101618893041143e-01,-1.662809453541525539e-01,-1.942074564815029769e-01,-1.497075306375843518e-01,-1.690314497763574508e-01,-1.523793978233726198e-01,-2.839416111486617322e-01,-8.676237774657846388e-03,-7.787391245913591331e-02,-1.349249288115421559e-02,1.981828931098377281e-02,-1.204573018464710765e-02,-9.437480102353162231e-03,-3.769645642672655311e-02,2.344430308302929492e-02,-7.743742926628553735e-02,1.170984822733978081e-02,4.980461629481297559e-01,-7.313008129977527361e-02,-1.500518479766197177e-01,-7.708884333495374941e-02,-1.182031399592015225e-01,-6.944913515933406889e-02,-1.130369503101906620e-01,-7.792812733468838793e-02,-4.362792133393677413e-02,-5.856073237423775613e-02,-6.156037051958482276e-02,3.470760935832382932e-02,1.702823536573774554e-01,-1.198784197461052504e-02,3.301607144429419965e-02,-4.380510791052542180e-02,2.553955217951649898e-02,4.174758014272904050e-01,-7.647361935301133506e-02,-7.955981546703129459e-02,-1.007732629810694780e-01,-2.720070089464379781e-02,-1.480482669264224921e-02,-2.674625482248793595e-01,-3.508106185737566718e-02,-2.584262640702721797e-02,-8.877173515391101333e-02,-9.354207399596322844e-03,-4.124241799236359057e-02,-7.796393193262488031e-02,-4.761351095140422401e-02,-8.986257419335146046e-02,1.045164795925982854e-01,-4.438754981770331315e-02,-1.815154817243223029e+00,-1.172795508560601663e+00,-1.097011624497444826e+00,-9.724220920371651200e-01,-6.662421882801939921e-01,-1.696094526470779129e-01,-3.330802579510373507e-01,-1.325017857091197182e-01,-8.448507199456713190e-02,4.647330043501664287e-02,-9.325664117562268429e-02,1.731924804387725489e-02,-2.471612778629745082e-03,2.952764015691976968e-02,-6.736668526191341710e-03,-1.138419548976972451e-01,1.994923143922726350e-01,-1.156274157459428853e+00,-1.486855853202349032e+00,-1.393238621340555872e+00,-1.232971966517516726e+00,-5.860645410963439828e-01,-9.274526509112232531e-02,-3.448227634015424425e-02,-4.773347573118520010e-02,-1.756549901937757008e-01,-3.262071289048559461e-03,-6.399342091714699254e-02,-1.012302226737230165e-01,1.356244564923549389e-01,-1.359180744561673364e-02,-2.843339369346194884e-02,-2.260267279295654907e-01,-1.335078751258316487e-01,-2.341703707367247256e-01,-2.993699225327604019e-01,-3.126624102257342108e-01,-3.350728295704200055e-01,-3.938189463679699909e-01,-9.212093692316257465e-02,5.287444129857767766e-02,-1.080555916050205401e-01,1.256034950722224042e-01,4.146333645869872131e-02,8.610198763428116020e-02,-1.828072618878376311e-03,1.793843126050932019e-02,-3.651136626841956084e-03,5.737617720172986761e-03,9.942672865615759248e-02,-2.438021379876999586e-02,1.085805737551827355e-01,4.928162437291964265e-02,2.105742483879534388e-03,-3.709514445326328458e-02,-2.594984725007469170e-02,8.424101504196816054e-03,6.310072898859274242e-03,-6.832914916965167340e-02,-3.729214723060803038e-02,6.535970219170521289e-02,1.563692371902897140e-03,4.871489689382362681e-02,-3.987011177830515618e-02,-3.127391685610447086e-02,2.285589033687149968e-02,-5.275952382636269616e-02,-6.462141789873011855e-02,6.051990708335798367e-04,-9.862929755561870848e-02,1.096480011554211258e-02,1.094200662115426756e-02,4.403744027869976874e-02,7.809814833432607295e-02,-1.766567016800028311e-01,9.887820237787911179e-04,6.784558392379196057e-02,-7.040409790663312850e-02,-5.089914050663309208e-02,1.693359830246871922e-01,2.262135661385582253e-02,7.646888499842230402e-02,8.649065014211749017e-03,7.385090485491108657e-03,1.298387747662931198e-02,1.579876095157280863e-02,-2.399751488951090694e-02,-2.986224741201697064e-02,-6.118518322033883461e-02,9.044668674402123187e-03,-6.790999105579548223e-02,1.220528888904543890e-01,3.893523637588376662e-02,1.153307084457679335e-02,-1.277393509572674613e-01,-6.127149985275508193e-02,7.082051741326912675e-02,-7.103855170257650231e-02,-8.212458937499400591e-02,-1.082688191284424534e-01
-8.843949369945143246e-01,-9.295167171790085225e-01,-9.740620183124593101e-01,-1.265392082643123917e-01,-6.407265351079578786e-02,-2.461255326562937773e-01,-4.729547645018788438e-01,-2.734180753368060102e-01,-5.487742998753224466e-01,-3.054536849776863239e-01,-2.149550609387561872e-01,-1.355532986087351066e-01,-1.991667408453043006e-02,-2.547539112964949254e-02,-7.135333474945020071e-02,-8.749485293638555039e-02,-1.063042763440559674e-01,-1.009291873506424464e+00,-1.035648761846847954e+00,-8.799356974988385982e-01,-1.762871088443084544e-01,2.609133301380020531e-02,-6.960189355656802579e-02,-3.452112779513038521e-01,-3.605409696299169964e-01,-7.725077521646225298e-01,-5.277172667341564205e-01,-1.938410524746315422e-01,-1.332478967236247758e-01,-1.186787844735816971e-01,-4.800647210642727813e-02,1.410799683937556670e-02,-2.624798697773669375e-03,-4.449917049067494967e-02,-5.628568413462957665e-01,-6.023590065606626576e-01,-3.218152812371785632e-01,8.946998255083160601e-02,-1.109344446904188403e-01,1.428532521855983006e-01,1.099051277258333154e-01,-1.773111701670444518e-01,-5.794207719218741337e-01,-3.757811965401309795e-01,-2.520493911894879369e-01,-2.569985684519405789e-01,-2.309290833739292836e-02,-1.221613179397809806e-01,-1.997423874345229805e-02,1.201406991400627219e-02,1.485403734974174127e-03,-3.543174909213710477e-01,-1.975234797479146487e-01,-3.935235534465101118e-03,9.973594076272351838e-02,-6.074464708655616385e-02,3.835896336500839165e-01,-7.390709076043951165e-03,-3.208201170326878127e-01,-5.707124983320992495e-01,-3.999512834386623750e-01,-1.296552981556547690e-01,-7.024983657325541142e-02,-7.630070959357306004e-02,-9.608096183000275348e-02,-1.840980062850803775e-02,1.446810802036665733e-01,6.387503501616094426e-02,-3.553150820773811613e-01,-2.825186712691368784e-01,8.379672272104644881e-02,1.054120018405668713e-01,-9.740945439744002482e-03,2.850043166738641665e-01,-7.874141778371203382e-02,-1.817008411679254531e-01,-4.270685649311330434e-01,-2.684350180460755020e-01,-1.182425915874202732e-01,-1.238376631867150190e-01,-7.854307615191270797e-02,-2.878361412564812635e-02,7.779353013062348388e-02,-2.740145978051424652e-02,-2.774109557011298147e-02,-2.048740550578382058e-01,-3.765277765555524181e-01,-9.693463043337181839e-02,7.145196220442621114e-03,-4.388797738476431232e-02,1.272631875130502688e-01,-2.222943178135598497e-01,-3.730145692231591481e-02,-4.982186735187635884e-01,-2.656026545993242505e-01,-2.620419256365513205e-01,-5.115981653784048427e-02,1.992877953747457850e-03,-6.129712606294521887e-02,-2.376582370079008064e-02,-5.481132149674914494e-02,7.270663510709649002e-02,-5.084143473703314209e-01,-3.088181946536961431e-01,-1.341769759226680847e-01,1.490668379913024678e-02,-2.664284040652629693e-01,7.155417491386655005e-02,-1.723601548788573357e-01,-8.311201288408669174e-02,-4.138765818915011163e-01,-1.999423628060445768e-01,-1.752571531958764528e-01,-7.572000054845318129e-02,-5.035069912430223393e-02,-6.103584058296809833e-02,-1.321326167419701603e-01,-6.796088072594924645e-02,-1.784237679328777582e-02,-4.639117845217736180e-01,-1.920843302663250984e-01,-6.999912548805324597e-02,3.960311172707568772e-02,-1.621148544224012278e-01,1.028815825095330677e-01,4.499649831473271494e-02,9.671428456532496498e-02,-3.570843780184662641e-01,-1.379952845804274242e-01,-1.748425426157771967e-01,7.700075092597663540e-02,-9.115968424386892976e-02,2.050382309503159112e-02,8.668393074681543867e-03,-2.133881258680862814e-02,1.010146306639624486e-01,-3.123015252367610795e-01,-2.919382138974161434e-01,-3.382005276575874575e-01,-1.816227360490332288e-01,-2.450055413314041475e-01,1.532461068205508703e-01,1.422841687166744029e-01,1.623155851779839176e-01,-2.099782400662102699e-01,-3.320372125041753386e-01,-9.905992810142096039e-02,-1.097144744385660092e-01,-5.614261236415989120e-02,-1.973569006426979522e-01,5.378270821553987613e-02,-2.170084386424129749e-02,5.010395312149451552e-02,-4.339548778745493385e-01,-5.154284373174881084e-01,-5.387021780474289256e-01,-3.194019422769089345e-01,-2.751798192146643340e-01,3.356854053889729017e-01,1.992863663684966147e-01,1.821049508316189558e-01,-3.470496569405681631e-01,-2.768235982335978118e-01,-3.221666823691098774e-02,-2.929163860712049108e-02,-1.136131283966810290e-01,-4.445994724478009169e-02,-1.767345015511460060e-01,8.630027277633403604e-02,1.844315490725383436e-02,-4.096413122683296715e-01,-3.952781352423712646e-01,1.065774231575286057e-01,-1.429967732243047351e-01,2.052143109160972367e-01,-3.873761912764514537e-02,2.965918584881969688e-01,-9.359208154829659621e-02,-3.096089788448286306e-01,-1.824964664800120817e-01,-2.034353571996301846e-01,-1.089452579174766539e-01,-1.541178596281255753e-01,-1.760088132307285197e-02,-7.529640374427749860e-02,1.263338434436691790e-02,-6.050480578254541913e-02,4.740843388196094854e-01,4.970747199172164121e-01,8.444272051873121798e-01,6.620203269717448435e-01,3.883948716927991263e-01,2.045620877833394247e-03,-1.813604184963304722e-01,-3.976235328007866054e-01,-4.529756077060217989e-01,-2.492115422090404597e-01,-2.226501116309871353e-01,-1.462072733332602792e-01,-1.464109317187043124e-01,4.115456959652814134e-02,-6.126616177550622822e-02,-4.114103515829417579e-02,-4.274820643734579539e-02,3.066956276571365936e-01,3.265070738864782607e-01,3.220585146149724798e-01,1.072478573476998293e-01,-6.830106784892915617e-02,-2.602046365171300502e-01,-3.120510840289795196e-01,-4.657477246210842137e-01,-3.088322503093273719e-01,-4.593971203246268176e-01,-1.954333690855668826e-01,-5.666291831494027487e-02,-2.642786496651278183e-02,3.040730003622905617e-02,5.123944820170637376e-02,3.717427149657657331e-02,-1.077179714254715426e-02,-1.798781798684022937e-01,-1.076068610627681360e-01,-9.202457100759404984e-02,-1.545041213033715444e-01,-1.704990973958981637e-01,-1.602105967289386701e-01,-1.813553113728467725e-01,-7.248169830793621538e-02,-1.417683756498137881e-01,-7.787413754350733242e-02,-8.494621432959817420e-02,-5.101490998601695970e-02,-5.743404589570116903e-02,-7.652625333392755816e-03,2.956521771530166640e-02,-2.077394716749907805e-02,-4.568154636728615631e-02,-1.358668161359907756e-01,-1.057759483069007911e-01,1.786653007497589901e-02,-1.144464979040345082e-01,-8.163372045024326618e-02,7.930435738002120094e-02,-1.465480949354166229e-01,-6.545150309540213353e-03,-5.802713125732400501e-02,-4.611735243060558626e-02,-2.726175934412203294e-02,-4.335401684969671099e-02,-1.006251536048084413e-02,-7.624989500336265547e-02,4.734027490434397634e-02,-7.912788962707789642e-02,-1.172081238327637026e-01,-4.949063747011474453e-03,3.189038350974499753e-02,1.526838075142921552e-02,-1.529891590158715363e-02,4.605169619754174992e-02,2.677515484923484804e-02,-1.945524801545684334e-03,-7.459307561526404284e-02,8.334992950796593636e-02,-1.182816923849916296e-01,2.805304626949751967e-02,1.402750946275751857e-02,-1.163899827012614130e-01,-4.598907236264251908e-02,-1.340499464286012445e-02,-5.721390347017153537e-03,2.831331895001767442e-03,5.917493521931971312e-02,-6.220112281068800042e-02,8.798043350577686161e-02,1.196321334642599585e-02,1.130569354684735767e-01,-1.585434793984135532e-02,-4.532679852554199335e-02,6.024974447202219481e-03,-2.332586204123563746e-03,4.712097862005291959e-02,5.723566067484896387e-03,-8.119078341471283600e-02,-2.566826278075120572e-03,9.553588062237470396e-03,-4.268666366006237944e-02,7.319545240730067348e-02,3.959658478204196308e-02
-2.628542639342914544e-01,-2.754734549770243568e-01,-4.837277403481106131e-01,-6.375687677767437611e-01,-1.389787570055424915e-01,-3.725545575403700349e-01,-1.389804258569382611e-01,1.266458002664841431e-01,1.222616158890833110e-01,1.059605422337263000e-02,-1.822603571760186558e-01,-5.009223682630573049e-02,-5.227737828718445091e-03,-1.212163216728851661e-01,3.361723912505887313e-02,-8.219600376719520679e-03,-1.756227566887970104e-01,-5.021308992901776236e-01,-4.083032218351431708e-01,-6.094867872345106630e-01,-6.346572895685491655e-01,-6.379909023812672109e-01,-3.937396029747167736e-01,2.281306201317439830e-01,3.021383116341856412e-01,6.358842728800656596e-02,2.153627425924281302e-01,-8.230291500929688697e-02,-8.604502849483239291e-02,-1.098177506375602741e-01,-1.710059471806368303e-01,-7.434834276777772810e-02,8.150641994491067410e-02,8.803775602194220673e-02,-3.896025749262092830e-02,1.400402713639081198e-01,-3.174350461160841408e-01,-7.721666068698743723e-01,-2.027943457395016413e-01,1.570520948430630392e-01,3.237564944626367680e-01,3.983196243662068259e-01,4.132694722686125477e-02,-6.509060793969000114e-02,-2.612942770441357282e-02,-1.132424430384491448e-01,7.125798220152940177e-03,-4.251447755250294808e-02,-1.470195729038902867e-02,-6.756232605799585879e-03,-1.452688951783913905e-02,7.776319672432696617e-03,2.912955333669880464e-01,-1.597578593282507897e-01,-7.523745670949895104e-01,-1.476633069303346091e-01,2.828405822274276393e-01,1.808343937449066741e-01,-1.666136254247281012e-01,-1.092334998091113868e-01,-4.254766740404303804e-01,-1.765126642812136215e-01,-3.726161799496525984e-02,-1.724678590516401100e-01,-3.363217983902211383e-02,-9.476269175019759461e-02,-1.849605507949037692e-03,2.327110281697538363e-01,-1.083266581133324746e-01,3.209085417163933807e-01,-9.097366623031900856e-02,-4.102983109097740888e-01,3.185082250534853054e-01,5.489610886306753867e-01,-9.610011724486261508e-02,-5.173006814572814749e-01,-3.747247088807411086e-01,-3.800295239934812219e-01,-1.616990323083032921e-01,-5.203468952128084690e-02,-2.658215297903281094e-02,1.435628761894231289e-02,7.736081875579859171e-03,-9.435461260910871228e-02,6.600136242395717584e-03,-5.601990935705240121e-02,3.684783592826528231e-01,2.137916346778203497e-02,-8.033715423272723422e-02,4.744950364425524758e-01,5.643143262952240446e-01,1.187043833598862147e-01,-4.453944338862966812e-01,-4.523578655195618636e-01,-2.046159025752634364e-01,-4.970304306574412079e-02,-2.447142656711166070e-02,-8.092279550699790769e-02,2.409907124228284972e-02,-1.152454226824189965e-02,-2.300191323152904130e-02,3.649864537018912558e-02,-2.039500817282557943e-01,3.465756172438578808e-01,5.057473657729529837e-01,3.326047512619881852e-01,1.287901158636286514e-01,1.664429442635268486e-01,2.188980087287948906e-01,-3.566118039567907072e-01,-4.248001196349535658e-01,-1.075348539986793472e-01,-6.114406937858402058e-02,-3.479130390901981340e-02,-1.075186252973146794e-01,1.327559673899474969e-02,2.578024687531635731e-02,6.230105149559275746e-02,6.376066555816337078e-03,-9.681590271803612591e-02,3.753048791603404988e-01,4.219987518818536509e-01,1.769120097487987819e-01,-7.088998474051365351e-02,1.093723301070672338e-01,4.338554846494461770e-01,2.818558031375177908e-01,-1.411294393372594658e-01,-2.291355566536085742e-01,-1.253154019301794819e-01,-6.411372371253382108e-02,-1.759140821496845905e-02,-2.410348774026621968e-02,-2.869368656866741127e-02,-8.332267097884975271e-02,-5.751397410623981105e-02,1.716668164873227653e-01,1.930579161791364518e-01,1.318893298449169867e-02,-6.645546146856529113e-02,-2.282707646113264766e-01,-6.058016080188986102e-02,1.403486943766545925e-01,3.828321945424780215e-01,-2.707808113695224228e-01,-3.036231754722655829e-01,-9.944622791277862861e-02,-1.171063220785864833e-01,-1.140285445166395878e-01,1.820697836723375249e-02,5.729471076991017597e-02,-3.062663654656395951e-02,2.856830201713653899e-02,-2.086037213429433879e-01,-1.140945813838058903e-02,-1.783991669239098632e-01,-3.041118834843050678e-01,-3.935306991654510256e-01,-5.694592581973524359e-01,-4.582320320611088516e-02,4.567183122890789426e-01,3.040042665214327533e-01,-2.402501978252738479e-01,-8.368468653756366837e-02,-8.889633986388530140e-02,3.564071062422763392e-02,-8.329467376490676256e-02,-1.869128709826445855e-01,-6.041467939315132291e-02,-1.327500109802816075e-01,-2.617563146209326841e-01,-2.862234160336123434e-01,-4.503567377127588034e-01,-4.883257245145685155e-01,-4.351092902914794336e-01,-1.839774134611800449e-01,3.966189353826235497e-02,1.934353119308256375e-01,4.377496598690668872e-01,1.535625341317478285e-02,-8.809746389962266888e-02,-1.721382710497076918e-01,6.658683180211257685e-03,-2.884673836658407584e-02,4.527755446774216967e-04,-3.657286509223899029e-02,2.053908836342351399e-02,-5.342366362169880256e-01,-4.933124165331193023e-01,-6.008856045174505445e-01,-6.042537654611382925e-01,-4.908393736361524873e-01,-5.538601154929244652e-01,-5.931867397386780816e-01,3.450798189951718720e-01,3.840908802603806294e-01,1.777953869201756298e-01,-4.673778402250105407e-02,-8.135834233354086176e-02,-1.237066871440146848e-01,-1.479488047304247933e-01,-1.267903557152144645e-01,-9.632841042973962556e-03,-2.305987005102789339e-02,-4.642032334384421643e-01,-2.833200908995848200e-01,-2.774963276820304747e-01,-4.199068346601390056e-01,-2.031048167982977271e-01,-3.960009902360334677e-01,-3.758837645030953523e-01,-1.275953610333752930e-01,1.562416272856338995e-01,1.420851132741886291e-01,-3.151294861920862778e-02,-8.086552063819610336e-02,-5.362684964444756203e-02,-1.058132521298979639e-01,-4.317644228450086274e-02,-3.770018381199483071e-02,-4.223137799236709872e-02,-4.271535509806445585e-02,1.977677847774073072e-01,4.261015336786362628e-02,-6.864539201791683420e-02,-6.539381125428768426e-02,-1.001865503466324164e-01,-1.491188042479227593e-01,9.466095214931895263e-02,2.449437615626677001e-01,2.131165425392630985e-01,-4.652152033237401396e-02,-1.060218240169052833e-01,1.557830086344498544e-01,5.544588046774653889e-02,-3.376014532664116385e-02,-7.966924356831497911e-02,-6.374946674728575180e-02,5.026924031235605050e-02,9.411959993405851627e-03,-7.468652579126161539e-02,1.143915521794889104e-02,2.321256256658267916e-02,2.683999425948943585e-02,-1.647717839462456424e-02,-1.029997615016252713e-02,-1.114646409893745582e-01,1.265224707775787147e-02,2.343026634344852911e-03,-1.013265613024905533e-03,8.324250938430639846e-02,5.457097840853674525e-02,-1.647394357055764758e-02,-5.026448056034502759e-02,-6.494436400022872424e-02,4.856142525999047194e-02,-5.085828071446674148e-02,4.361844933791325651e-02,-6.102890648489319239e-03,1.620338217695072025e-01,-2.128867941348848696e-03,-1.478341634794486451e-02,-3.583846257751764630e-02,2.110397969143592081e-02,3.821407701364016446e-02,-1.263321401985654895e-02,7.980187719501737054e-02,-2.270722875071660637e-02,-6.121389526091130379e-02,-2.951490403360312181e-02,3.429020501398198639e-02,2.890309465780126468e-03,8.078921600404505299e-02,-6.756324923279417860e-02,-1.514430511480954755e-01,2.280130231501758392e-02,-2.954687729903127114e-02,6.127563361582601814e-02,5.533286798165669429e-02,-1.102322082046784668e-01,-2.661318819863797008e-02,-1.500566813640617780e-02,-1.148792704671164344e-01,-3.035277611874667540e-03,4.860225473360833132e-02,1.044222754400505049e-01,5.292230917317243544e-02,-2.492966409304222739e-02,8.111780441812344034e-02
-1.824259620687850303e-01,3.930844051315516285e-01,-4.680802921015245754e-01,-9.017528827784252465e-01,-8.048367412329123782e-01,-1.040652900281513693e+00,-9.018732276460814656e-01,-1.920331853592161520e-01,-1.534688689659691463e-01,1.324712000046747787e-02,-1.102548537026734193e-01,-1.725466028880170977e-03,-2.650810344497461085e-02,7.465659323505524636e-02,-7.449902934230134832e-02,2.115428325567596593e-02,-9.469814632992687789e-03,-1.803698194594473281e-01,-6.301494399458765217e-02,5.059551353814443209e-01,-9.272320276450691789e-01,-1.216052308107536284e+00,-9.334323183099656474e-01,-8.745906970160531868e-01,-4.335623777922281707e-01,-5.140993414029720876e-01,-2.937472688282241617e-01,-1.054875083016630494e-01,-1.300087485700472945e-01,-1.464688283727441642e-01,-1.631495304779340821e-02,-3.213056889578836534e-02,-2.686571406815906754e-02,-1.201123651340667634e-02,-1.207746380746302917e-01,1.811752022683337654e-02,-6.258211955758093969e-01,2.525925891196887374e-01,-3.059151418065665928e-01,-2.910232164575694003e-01,-3.438787188115813298e-01,-3.126281580363686197e-01,-4.750503317484365828e-01,-1.261137308287143821e-01,-1.109971442130524982e-01,-9.114052595832024262e-02,-1.235711781923110042e-02,7.995728665569034471e-03,-9.093478275750201123e-02,-1.834240748084754041e-02,-1.828051291003169807e-02,-2.728071829126312298e-01,-6.484401490736271811e-02,-1.998485286168007469e-01,-1.363121960158818757e-01,-2.969450392034016506e-01,-3.499058312011953387e-01,-1.967953220162196593e-01,-3.213319665818986093e-01,-4.956230141705287306e-01,-3.601927829429447114e-01,-1.767979757792468021e-01,4.532151932873688949e-02,-8.543142756280071304e-02,-7.481331296092613714e-02,-3.205147113662987213e-02,-3.856116834404137855e-02,-1.437130753226272678e-02,-2.068251874147443714e-01,-7.039798460439078420e-02,-6.913103687521452434e-01,-8.233343718839984671e-02,-3.944610017433056171e-01,-2.710358086684675483e-01,-2.011553689273362922e-01,-2.031011127957317586e-01,-5.653434700246879885e-01,-3.205625023762859738e-01,-1.680477496000198911e-01,-8.738055146784889926e-02,4.969566253554293100e-02,-1.291210095195867089e-02,1.522834906724890650e-02,-4.413319531770605597e-02,-3.885625070889092009e-02,-2.692618172290879852e-01,2.660633462889004652e-02,6.569396301429644147e-01,-8.732628797028377798e-01,-1.096355291735142012e+00,-9.404939388927013866e-01,-4.444917976467290810e-01,-1.889549147213218927e-01,-5.122793556792538672e-01,-1.869972973421574480e-01,-7.193067632646493736e-02,-6.466360556265984827e-02,-3.164009348724480114e-02,-6.567890578983513750e-02,1.061964536540095511e-01,-9.310240512699248516e-02,-2.407993193013032232e-02,-1.190681197039958616e-01,-5.761565901097980696e-02,-9.564527250021661597e-01,-7.387177296199277654e-01,-9.382633182790268700e-01,-7.875786678133438468e-01,-3.084423194740950058e-01,-2.279490474839325209e-01,-4.466844494533016574e-01,-2.063546913585346254e-01,-1.064024873901790319e-01,9.466705969826817724e-02,-1.148130595440514379e-01,2.159910702981614455e-03,3.261724870945008955e-03,1.509494079648903385e-02,9.216119811292621672e-03,-1.391189064771960193e-01,1.535978716836716371e-02,-7.952713903077782698e-01,-1.776598244849235952e-01,-2.444670093844014958e-01,-2.619173629173880968e-01,-3.102903904438070737e-01,-2.263477063847718906e-01,-5.723807245069748584e-01,-2.239369191848874230e-01,-7.265322606949134454e-02,-5.807021042524848978e-04,-4.720805432338372881e-02,-3.742153004979677233e-02,-2.467075843817349151e-02,5.465282672962103183e-02,1.865134288679538453e-03,-7.509712551317705709e-02,5.093720002261748619e-02,7.733963651496467140e-01,-3.985156412972476470e-02,-2.134163982213421462e-01,-2.690075195584279433e-01,-3.321619732441437045e-01,-2.385537632562239885e-01,-3.334256364539381901e-01,-2.502040158328366903e-01,-6.551218442567442041e-03,-6.132735553032182818e-02,-6.106800001816131002e-02,7.641552245961545642e-02,1.097004531438023310e-02,7.617501063699375075e-02,4.863715308761138584e-02,-5.690865472379163376e-02,-4.048345997205294450e-02,-5.496430037817109371e-01,-1.908162272493907907e-01,-3.079594213306393602e-01,-3.016433802409845821e-01,-2.514725468590847668e-01,-2.787852712188291227e-01,-4.256659489095056537e-01,-2.566744295498999962e-01,-5.051774395871404949e-02,-1.266647725734969532e-01,6.889612189534791153e-02,-3.675653561552583853e-02,3.619198422514619765e-03,5.782276923149590013e-03,4.772670311938766174e-02,1.826321889649319408e-01,1.460702587791150031e-01,-3.869415230266651795e-01,-2.915117146459763608e-01,-2.086977545533153788e-01,-3.370001547269584896e-01,-3.428500265128652802e-01,-4.558674897990520614e-01,-4.963701215672375322e-01,-1.384694851250611036e-01,6.479186299716816096e-03,2.869437591441443853e-03,1.178929614856357409e-02,-2.042395723979876284e-03,-1.156991296226253657e-01,3.289099502680943587e-02,9.567566069813555549e-03,1.858875527544871786e-01,1.324251684096151849e-02,1.724997863217820004e+00,1.079474753528625985e+00,9.990160942765456964e-01,1.062890447968646734e+00,5.218210039927604349e-01,-3.436104078229558212e-01,-3.033207838464820894e-01,-6.447908776852774582e-02,-7.371906005602366085e-02,4.518491530322893412e-02,-7.398097188964092297e-02,9.334084570956639737e-02,-7.338887822788735249e-02,-4.313753786387094363e-02,1.238592028637116975e-02,-3.994462650241347584e-03,-3.707754793777791047e-01,9.165157561908137129e-01,1.407812325303164469e+00,1.349888086675442356e+00,1.391201668644170608e+00,3.560240568476118472e-01,-6.009443152275946165e-01,-1.126858896058385850e-01,-6.286803975529222169e-03,-8.954399917863665320e-03,-3.582295937455864249e-02,-6.531201495637030396e-02,1.487196802023428924e-02,-4.253640631221775048e-02,-2.244522988004774011e-02,-1.338496681707053004e-03,2.491625913379795325e-03,1.014615570598277963e-02,6.806335416492648172e-02,-8.586373804593867842e-02,3.549523771195740862e-02,1.076831930500666973e-01,-1.524117392639709988e-03,7.265143886215841111e-03,7.353284162601335036e-03,5.164769127010569033e-02,-6.648156354074243046e-02,-4.091227472127818843e-02,-4.417078548693394169e-02,-3.165625834055618704e-02,5.072489996088946473e-04,-4.941625890488740569e-02,9.741776721444105058e-02,-4.049407018346141973e-02,4.522246183894720363e-03,1.726959993481030865e-03,4.227244300158292112e-03,7.061021580754364702e-02,7.612575312717848042e-02,-1.185558009101142368e-01,2.272310428449316952e-02,4.023094443017286546e-03,5.309002029620248087e-02,-4.147750224135744040e-02,-2.845524508236567385e-02,-2.384135563526297574e-02,-1.422682600131001257e-02,-3.234908842219479108e-02,-1.698099772709335163e-04,5.424464333235039931e-02,-4.429061634674934245e-02,-9.393308488481917629e-02,1.837871537421598145e-01,-3.310553854701261262e-02,1.592788808836722442e-02,1.481359890129167745e-02,9.746928313935336249e-03,1.998411877733895572e-02,6.325069139395614326e-02,-1.894026763900178226e-02,3.237450690011092758e-02,1.244093936502122938e-01,4.291343232802745378e-03,1.056846416059820624e-02,-4.304100303356126617e-02,9.755801527133463324e-02,2.034843588412335313e-01,6.924107652677112534e-02,1.073257947658162459e-01,2.780390679124890990e-02,1.605471059046800070e-02,-2.183767599672621282e-02,4.114618560086065469e-02,-2.820217893004586113e-02,-5.629372483889152207e-02,-5.038516194046685492e-02,-1.122866783003528685e-01,-1.054175960873348084e-01,-1.999024342799673656e-02,-7.473979105451898641e-02,2.229373477432810766e-02,-9.575308018160659865e-03,1.125287663131341181e-01,-4.255167158607289779e-02
-2.985085235209422594e-01,-3.027339940437008270e-01,-3.203773965136260012e-03,-2.351132745499311810e-02,-2.721159061320717609e-01,-7.251467941815908924e-02,-4.998441793122843091e-01,-3.074566477710271029e-01,-3.469867939581842697e-01,-5.038545529075049156e-01,-2.145169634805677294e-01,-4.470577472363502364e-02,4.710111527234489559e-02,1.364044707747590901e-01,6.535338261798109144e-03,-4.574070394427195291e-02,1.102274748524068385e-02,-1.085187483657321789e-01,-3.671166704803529024e-01,-4.296127238247288704e-01,1.812767792875268347e-01,-3.679253951191201466e-01,-3.180110204929512130e-01,-3.566201059287096298e-01,-7.067202482242932460e-01,-6.997790884572654413e-01,-4.878727937034951778e-01,-3.751574619153763557e-01,2.510535434301146007e-01,2.463266629247455042e-01,5.203979975702568428e-01,2.614100122094212830e-01,1.592785943786300396e-01,5.257826938859683913e-02,-6.194159428809836027e-02,-9.097911416925147376e-02,-7.580751618538392189e-02,3.324059620284693928e-01,1.493284832233583992e-01,-1.073144779234721097e-01,-2.817768531011054511e-01,-6.460530412456170213e-01,-5.322120766945306336e-01,-1.198864783018434577e-01,9.636007149404371419e-02,2.927989745870359650e-01,5.543802983434241716e-01,2.426816729824267660e-01,2.466260466625909142e-01,2.158299768187298406e-01,-6.364767199710388845e-02,-9.396241012843142837e-02,-6.290780929199299432e-02,-2.049234894270040783e-02,-2.919194056392419509e-02,1.656188365729119039e-01,-2.061192616853697868e-01,-2.234569808046306671e-01,-3.977068345836646812e-01,-8.142105783717707990e-01,-3.197380783287314121e-01,1.079152502489806736e-01,-1.697454528722517342e-01,2.969483587832963400e-01,4.707800326744835534e-02,-1.806349106364560364e-01,1.847126944201751275e-01,-4.926351976226756024e-02,-1.004369112749878556e-01,4.003741361736289778e-02,5.747613280020757304e-02,-2.703347441698946696e-01,-8.942113769276355262e-02,-1.468375477361314949e-02,-2.924572212916677350e-01,-2.454104155837006640e-01,-4.306479234745597129e-01,-3.806752431332770248e-02,3.612927096131027249e-01,3.666288470939305794e-02,2.022031377647419137e-01,8.191141681737404423e-02,-3.982910623238774921e-03,2.187690079193297110e-01,5.706579772164884629e-02,-6.512972073377244764e-02,-4.805911582217212152e-02,1.903989446282496611e-01,-2.682407421355689214e-01,-1.914214915088243429e-01,1.981933365997292362e-01,-5.815763182810750331e-01,-1.024203574965958929e-01,8.374162250519388839e-02,7.277032620056032852e-02,3.235826024156563951e-01,1.531309238902402725e-01,2.380941983078176116e-02,5.992422500875750624e-02,2.039640249380412218e-01,2.079498730956838015e-01,-8.502735223049170260e-03,-3.871885594029155636e-02,-4.307891383412622288e-02,2.921551523235028092e-01,-3.494720042028796048e-01,-1.478938460904734298e-01,1.737185095835779569e-01,-4.417422502040615484e-01,-3.383279008426804957e-01,-1.652011460729798098e-01,1.767424892960986482e-01,-1.801702968648969394e-01,3.897232967151650351e-01,9.252953009495841485e-02,2.189839127095585258e-01,2.896855189366362437e-01,2.144781013116952850e-01,-4.184562469923663874e-02,1.976234949605707586e-02,-5.606525108859283790e-02,3.477975425864563985e-01,-1.287629768120366058e-01,2.431001855093136432e-01,2.061707283848343841e-01,7.977395447218649238e-02,-2.245874164466181988e-01,1.897915978148074778e-01,-1.128594187589688526e-02,-2.215994491692524770e-01,4.607580229013430451e-01,4.274296301293689093e-01,1.957080998554457940e-01,3.165658262681145252e-01,8.856593634582135555e-02,8.572603392545764811e-02,4.588474508599440366e-02,-2.569046368132867769e-02,2.132018695840373068e-01,5.607791260006587952e-02,-7.537738629024388903e-02,1.401375996608948127e-01,3.538304839596805862e-01,-2.461904795326279663e-03,5.643898920798396945e-01,-6.449426073067116016e-02,-2.834486693981088101e-01,3.889105734946478043e-01,2.950345657781900527e-02,2.768081244181599954e-01,3.664765896002742940e-01,2.799462521507585788e-01,2.516632774145600299e-02,4.807268420509698548e-02,1.309792301370413525e-01,3.658144634827484865e-01,4.024701250947993469e-01,-1.664444972002065426e-01,1.883817756486250716e-01,1.623638235526950746e-01,9.144586411560129413e-02,6.127664625393395292e-01,-9.093806284688660257e-02,-2.742340743528965397e-01,2.795696486722302199e-01,6.843724161928951832e-02,1.096116043383316696e-01,3.590482471174457624e-01,2.778469198169152277e-01,8.277814540683191280e-02,1.542799056833213667e-01,-5.541222065658484887e-03,2.949747161764485481e-01,1.894171106670991256e-01,-2.641967900975553674e-01,2.972913522715046608e-01,2.342793480117001392e-01,5.122234841101337421e-01,3.912240267084820533e-01,-2.138297330326344864e-02,-3.531679066921484811e-01,2.966392431095478122e-01,5.561039077389121066e-02,2.811983805883183085e-01,2.118870693076523870e-01,3.126119799986759040e-01,6.356011433147328027e-02,-1.587520745248089671e-01,-2.512103724994025900e-01,7.355237980941178866e-02,-1.147947565589489405e-01,-5.841739310932461127e-01,-2.156859970409941984e-01,-2.045282057780800633e-01,1.829224074392994115e-01,6.025855005774313072e-02,-1.552415656107320741e-01,-5.380049595683461527e-01,-3.935483278395680851e-02,1.621593789936870422e-02,2.529254323456757714e-01,3.103528818178922788e-01,9.948087079340380001e-02,4.228914652801588243e-03,-2.669665873797547606e-01,-3.118749700709005923e-01,-1.489902602917373697e-01,-7.279356771966828676e-02,-2.418330057704477232e-01,-4.291633024395240525e-01,-3.282784818917999226e-01,-1.285014035020396461e-01,-1.471124315788236159e-01,-1.006994336339489954e-01,-3.282161515417078568e-01,-8.771501363938090379e-02,-8.936894110361445764e-02,6.588735335053340358e-02,2.014680542066349389e-01,1.147912337864841481e-01,1.084783925386496178e-02,5.701340783601551582e-02,-5.779585328779304060e-02,-6.799538847192478086e-02,-3.383064209956812562e-02,-2.501499346693794243e-02,-2.144547035917653000e-01,-7.901812081896053552e-02,1.163605996447896786e-02,-6.609784252654356262e-02,-1.686447107470545048e-01,-1.353045017468999522e-01,-4.694462493310916362e-02,2.021347620437993417e-02,-3.624578166815684704e-02,-3.961176454823112092e-02,-7.208459524933459291e-04,-1.477265294021621982e-02,6.464668299294028253e-02,1.068882325375396063e-02,4.066715624074812921e-03,9.411280938449007039e-02,-4.178190139232974831e-02,-4.024937503719025478e-02,1.161873320853914690e-02,-1.255869728380474004e-01,-1.170578216142299649e-01,-4.692219446365727270e-02,-6.513100140491570600e-03,-3.118842605031976398e-02,5.845921398536940011e-02,-4.265730022113613240e-02,-1.578252155880633875e-02,7.305620631063104720e-02,4.330776457745572072e-02,-8.011523384545508886e-02,7.893815759270250698e-02,1.664432188255333123e-01,6.113066987301619265e-02,5.689239473694895216e-02,-5.798799363632636816e-02,-2.484951264593409509e-02,3.910717860079204224e-03,-1.750315938058273346e-01,-5.348073561035884826e-02,5.988839671558057048e-02,-1.849604932194813187e-02,-1.346552260326693701e-02,5.092964582484964947e-02,-9.470125128264131331e-02,-8.150121473078346390e-02,-6.838045359672023996e-03,-6.193609053770687128e-02,-7.252114243142247785e-02,-9.966344545995600712e-02,5.698811419480534490e-02,1.142374162438338503e-01,9.117302052865901632e-03,3.340864143404537884e-02,4.129856677418454469e-02,1.727923382889635711e-03,2.976319804880346240e-02,-9.168640945061387604e-02,1.430738094841048705e-02,6.159749690996739468e-02,5.125430410625447797e-02,-2.599777119669332420e-02,1.276709029264035400e-01,1.038262352091403190e-01
